{"learner":{"attributes":{"best_iteration":"69","best_score":"0.5856011082144345"},"feature_names":["team_blue","team_red","ov_games_played_blue","ov_winrate_blue","ov_avg_gold_diff_blue","ov_avg_gold_diff_at14_blue","ov_avg_game_time_blue","ov_median_game_time_blue","ov_games_played_red","ov_winrate_red","ov_avg_gold_diff_red","ov_avg_gold_diff_at14_red","ov_avg_game_time_red","ov_median_game_time_red","ln_games_played_blue","ln_winrate_lastN_blue","ln_avg_gold_diff_lastN_blue","ln_avg_gold_diff_at14_lastN_blue","ln_avg_game_time_lastN_blue","ln_games_played_red","ln_winrate_lastN_red","ln_avg_gold_diff_lastN_red","ln_avg_gold_diff_at14_lastN_red","ln_avg_game_time_lastN_red","ov_games_played_diff","ov_winrate_diff","ov_avg_gold_diff_diff","ov_avg_gold_diff_at14_diff","ov_avg_game_time_diff","ov_median_game_time_diff","ln_games_played_diff","ln_winrate_lastN_diff","ln_avg_gold_diff_lastN_diff","ln_avg_gold_diff_at14_lastN_diff","ln_avg_game_time_lastN_diff"],"feature_types":["int","int","int","float","float","float","float","float","int","float","float","float","float","float","int","float","float","float","float","int","float","float","float","float","float","float","float","float","float","float","float","float","float","float","float"],"gradient_booster":{"model":{"cats":{"enc":[],"feature_segments":[],"sorted_idx":[]},"gbtree_model_param":{"num_parallel_tree":"1","num_trees":"170"},"iteration_indptr":[0,1,2,3,4,5,6,7,8,9,10,11,12,13,14,15,16,17,18,19,20,21,22,23,24,25,26,27,28,29,30,31,32,33,34,35,36,37,38,39,40,41,42,43,44,45,46,47,48,49,50,51,52,53,54,55,56,57,58,59,60,61,62,63,64,65,66,67,68,69,70,71,72,73,74,75,76,77,78,79,80,81,82,83,84,85,86,87,88,89,90,91,92,93,94,95,96,97,98,99,100,101,102,103,104,105,106,107,108,109,110,111,112,113,114,115,116,117,118,119,120,121,122,123,124,125,126,127,128,129,130,131,132,133,134,135,136,137,138,139,140,141,142,143,144,145,146,147,148,149,150,151,152,153,154,155,156,157,158,159,160,161,162,163,164,165,166,167,168,169,170],"tree_info":[0,0,0,0,0,0,0,0,0,0,0,0,0,0,0,0,0,0,0,0,0,0,0,0,0,0,0,0,0,0,0,0,0,0,0,0,0,0,0,0,0,0,0,0,0,0,0,0,0,0,0,0,0,0,0,0,0,0,0,0,0,0,0,0,0,0,0,0,0,0,0,0,0,0,0,0,0,0,0,0,0,0,0,0,0,0,0,0,0,0,0,0,0,0,0,0,0,0,0,0,0,0,0,0,0,0,0,0,0,0,0,0,0,0,0,0,0,0,0,0,0,0,0,0,0,0,0,0,0,0,0,0,0,0,0,0,0,0,0,0,0,0,0,0,0,0,0,0,0,0,0,0,0,0,0,0,0,0,0,0,0,0,0,0,0,0,0,0,0,0],"trees":[{"base_weights":[5.1531084E-2,-2.526117E-1,6.222408E-1,-5.090631E-1,3.1973052E-1,8.9271575E-1,-2.196217E-1,-1.1677639E-1,-8.088522E-1,9.717462E-1,-6.958738E-2,7.791672E-1,1.5495572E0,-3.275732E-2,3.0036327E-1,-4.0232775E-1,3.257841E-1,-9.9747694E-1,-2.9422376E-1,7.4401706E-1,5.0509762E-2,-2.3719557E-1,2.9019086E-2,6.5187365E-1,1.2895639E0,5.1156458E-2,3.2949835E-2,4.265192E-1,-8.340645E-3,-3.0356662E-2,-1.2363116E-3,3.707269E-2,-5.0137374E-3,-4.640163E-2,-2.0739172E-2,-2.0336626E-2,-5.240131E-3,2.7310204E-2,1.5947027E-2,-1.2710611E-2,4.3391776E-3,3.1595875E-2,1.4005326E-2,4.984032E-2,3.3316955E-2,1.6868165E-2,8.360099E-3],"categories":[],"categories_nodes":[],"categories_segments":[],"categories_sizes":[],"default_left":[0,0,0,0,0,0,0,0,0,0,0,0,0,0,0,0,0,0,0,0,0,0,0,0,0,0,0,0,0,0,0,0,0,0,0,0,0,0,0,0,0,0,0,0,0,0,0],"id":0,"left_children":[1,3,5,7,9,11,13,15,17,19,21,23,25,-1,27,29,31,33,35,37,-1,39,-1,41,43,-1,-1,45,-1,-1,-1,-1,-1,-1,-1,-1,-1,-1,-1,-1,-1,-1,-1,-1,-1,-1,-1],"loss_changes":[2.7176289E1,1.5009325E1,1.2412922E1,8.29088E0,8.045601E0,2.9530525E0,6.072098E0,3.8915012E0,3.8524666E0,1.7953272E0,3.485255E0,2.211954E0,2.3225689E-1,0E0,6.262698E-1,4.1118317E0,5.4439697E0,4.8070526E0,4.866364E-1,2.7508926E-1,0E0,1.2330818E0,0E0,2.0662022E0,2.7814865E-1,0E0,0E0,1.2386727E-1,0E0,0E0,0E0,0E0,0E0,0E0,0E0,0E0,0E0,0E0,0E0,0E0,0E0,0E0,0E0,0E0,0E0,0E0,0E0],"parents":[2147483647,0,0,1,1,2,2,3,3,4,4,5,5,6,6,7,7,8,8,9,9,10,10,11,11,12,12,14,14,15,15,16,16,17,17,18,18,19,19,21,21,23,23,24,24,27,27],"right_children":[2,4,6,8,10,12,14,16,18,20,22,24,26,-1,28,30,32,34,36,38,-1,40,-1,42,44,-1,-1,46,-1,-1,-1,-1,-1,-1,-1,-1,-1,-1,-1,-1,-1,-1,-1,-1,-1,-1,-1],"split_conditions":[5.52381E-1,8.66E1,5.52381E-1,5.594225E0,-2.45E3,1.72E2,5E-1,-3E1,2.69E2,1.41E2,4.7360477E1,1.3E1,4E0,-3.275732E-2,2E-1,-4.7360477E1,8E0,-6.8E1,-4.72E3,1.9681418E3,5.0509762E-2,3.615E2,2.9019086E-2,-8.648686E1,1.41E2,5.1156458E-2,3.2949835E-2,2E0,-8.340645E-3,-3.0356662E-2,-1.2363116E-3,3.707269E-2,-5.0137374E-3,-4.640163E-2,-2.0739172E-2,-2.0336626E-2,-5.240131E-3,2.7310204E-2,1.5947027E-2,-1.2710611E-2,4.3391776E-3,3.1595875E-2,1.4005326E-2,4.984032E-2,3.3316955E-2,1.6868165E-2,8.360099E-3],"split_indices":[3,34,9,28,10,34,15,33,8,24,28,29,1,0,31,28,1,24,16,6,0,33,0,28,8,0,0,1,0,0,0,0,0,0,0,0,0,0,0,0,0,0,0,0,0,0,0],"split_type":[0,0,0,0,0,0,0,0,0,0,0,0,0,0,0,0,0,0,0,0,0,0,0,0,0,0,0,0,0,0,0,0,0,0,0,0,0,0,0,0,0,0,0,0,0,0,0],"sum_hessian":[1.5637541E2,1.02047806E2,5.4327606E1,7.047906E1,3.1568745E1,4.1112785E1,1.3214824E1,3.0589869E1,3.988919E1,1.174651E1,1.9822235E1,3.523953E1,5.873255E0,4.894379E0,8.320444E0,1.859864E1,1.1991229E1,2.9121555E1,1.0767634E1,9.054602E0,2.6919086E0,1.7130327E1,2.6919086E0,2.8387398E1,6.852131E0,4.160222E0,1.7130327E0,6.852131E0,1.4683137E0,6.852131E0,1.174651E1,4.160222E0,7.8310065E0,1.0278196E1,1.8843359E1,2.4471896E0,8.320444E0,4.894379E0,4.160222E0,1.1501791E1,5.6285357E0,8.809882E0,1.9577517E1,1.9577516E0,4.894379E0,3.4260654E0,3.4260654E0],"tree_param":{"num_deleted":"0","num_feature":"35","num_nodes":"47","size_leaf_vector":"1"}},{"base_weights":[3.6484994E-2,-5.176763E-1,7.577467E-1,-6.803493E-1,-7.718641E-2,6.910706E-1,5.0208475E-2,-3.7567326E-1,-9.367778E-1,-5.097564E-1,4.3582064E-1,6.499641E-1,4.925339E-2,-1.1883764E0,-1.8691096E-1,-1.5045937E0,-7.272191E-1,-2.447642E-2,-8.315175E-3,-8.500173E-3,9.320804E-1,7.122252E-1,-1.7497813E-2,-1.3736122E-2,-5.625576E-2,2.4280181E-2,-8.763738E-3,-5.560511E-2,4.3222815E-4,-4.620822E-2,-1.6789164E-2,1.6353862E-2,4.0506218E-2,3.0287657E-2,1.735752E-2,-8.948564E-3,4.769604E-3],"categories":[],"categories_nodes":[],"categories_segments":[],"categories_sizes":[],"default_left":[0,0,0,0,0,0,0,0,0,0,0,0,0,0,0,0,0,0,0,0,0,0,0,0,0,0,0,0,0,0,0,0,0,0,0,0,0],"id":1,"left_children":[1,3,5,7,9,11,-1,13,15,17,19,21,-1,23,25,27,29,-1,-1,-1,31,33,35,-1,-1,-1,-1,-1,-1,-1,-1,-1,-1,-1,-1,-1,-1],"loss_changes":[6.1583714E1,6.23851E0,3.9723206E0,4.935463E0,5.262262E0,2.3385735E0,0E0,4.46385E0,3.9933262E0,8.928032E-1,3.90087E0,2.5005932E0,0E0,2.670195E0,2.5235322E0,4.879244E0,3.3716478E0,0E0,0E0,0E0,9.694681E-1,2.1278324E0,2.6386788E-1,0E0,0E0,0E0,0E0,0E0,0E0,0E0,0E0,0E0,0E0,0E0,0E0,0E0,0E0],"parents":[2147483647,0,0,1,1,2,2,3,3,4,4,5,5,7,7,8,8,9,9,10,10,11,11,13,13,14,14,15,15,16,16,20,20,21,21,22,22],"right_children":[2,4,6,8,10,12,-1,14,16,18,20,22,-1,24,26,28,30,-1,-1,-1,32,34,36,-1,-1,-1,-1,-1,-1,-1,-1,-1,-1,-1,-1,-1,-1],"split_conditions":[3.3204384E-2,2.1305E3,1.418821E3,8.233272E0,-6.855792E-2,1.64E2,5.0208475E-2,-9.586911E1,-5.78E3,-1.9142117E-1,-2E-1,1.41E2,4.925339E-2,-1.37E2,-6.44834E1,-1.4870363E-1,3.3783195E1,-2.447642E-2,-8.315175E-3,-8.500173E-3,9.58E1,3.7994263E2,1.43E2,-1.3736122E-2,-5.625576E-2,2.4280181E-2,-8.763738E-3,-5.560511E-2,4.3222815E-4,-4.620822E-2,-1.6789164E-2,1.6353862E-2,4.0506218E-2,3.0287657E-2,1.735752E-2,-8.948564E-3,4.769604E-3],"split_indices":[25,18,27,28,25,24,0,28,32,25,31,24,0,24,28,25,28,0,0,0,22,27,24,0,0,0,0,0,0,0,0,0,0,0,0,0,0],"split_type":[0,0,0,0,0,0,0,0,0,0,0,0,0,0,0,0,0,0,0,0,0,0,0,0,0,0,0,0,0,0,0,0,0,0,0,0,0],"sum_hessian":[1.5387851E2,8.703546E1,6.684304E1,6.3522232E1,2.351323E1,6.2470585E1,4.3724556E0,2.9142733E1,3.43795E1,1.2757054E1,1.0756175E1,6.004283E1,2.427752E0,5.393184E0,2.3749548E1,9.101171E0,2.527833E1,5.399501E0,7.3575535E0,4.4093E0,6.3468757E0,5.491375E1,5.1290812E0,2.6942317E0,2.6989527E0,2.2046697E0,2.1544878E1,7.3832407E0,1.7179294E0,4.1798224E0,2.1098507E1,3.4159718E0,2.930904E0,1.6823822E1,3.8089928E1,1.9529369E0,3.1761441E0],"tree_param":{"num_deleted":"0","num_feature":"35","num_nodes":"37","size_leaf_vector":"1"}},{"base_weights":[2.4433637E-2,-2.4565293E-1,7.9569805E-1,-5.548296E-1,5.397453E-2,-2.8845785E-2,8.990341E-1,-6.85046E-1,2.878749E-1,4.1272956E-1,-3.5912606E-1,7.9952794E-1,4.9196493E-2,-6.1606956E-1,-5.3985212E-2,-1.23149276E-1,4.8952337E-2,-2.0166282E-2,5.5863345E-1,-2.0890355E-1,-2.6632696E-2,3.1234717E-1,9.4381994E-1,-4.7342083E-3,-2.352021E-2,-2.7156614E-2,4.56842E-3,2.6338207E-2,1.4888361E-3,-4.367454E-3,-1.7581621E-2,-6.1299495E-4,1.6997928E-2,4.1019365E-2,2.4063786E-2],"categories":[],"categories_nodes":[],"categories_segments":[],"categories_sizes":[],"default_left":[0,0,0,0,0,0,0,0,0,0,0,0,0,0,0,0,0,0,0,0,0,0,0,0,0,0,0,0,0,0,0,0,0,0,0],"id":2,"left_children":[1,3,5,7,9,-1,11,13,15,17,19,21,-1,23,-1,25,-1,-1,27,29,-1,31,33,-1,-1,-1,-1,-1,-1,-1,-1,-1,-1,-1,-1],"loss_changes":[3.2482704E1,1.0702564E1,7.430275E0,6.258375E0,8.721155E0,0E0,2.6885338E0,3.6768265E0,4.262018E0,5.0219812E0,2.154057E0,2.3545952E0,0E0,3.5703316E0,0E0,1.3005962E0,0E0,0E0,4.51556E0,5.0337946E-1,0E0,6.6948724E-1,1.4574242E0,0E0,0E0,0E0,0E0,0E0,0E0,0E0,0E0,0E0,0E0,0E0,0E0],"parents":[2147483647,0,0,1,1,2,2,3,3,4,4,6,6,7,7,8,8,9,9,10,10,11,11,13,13,15,15,18,18,19,19,21,21,22,22],"right_children":[2,4,6,8,10,-1,12,14,16,18,20,22,-1,24,-1,26,-1,-1,28,30,-1,32,34,-1,-1,-1,-1,-1,-1,-1,-1,-1,-1,-1,-1],"split_conditions":[5.2456274E2,4.944238E-1,-4.66E3,1E1,5.52381E-1,-2.8845785E-2,1.418821E3,9.95E1,6.33E3,-2E-1,5.673077E-1,-6.79E3,4.9196493E-2,-1.25E2,-5.3985212E-2,-1.351E2,4.8952337E-2,-2.0166282E-2,4.244E2,1.015E2,-2.6632696E-2,-5.35E1,1.9163E3,-4.7342083E-3,-2.352021E-2,-2.7156614E-2,4.56842E-3,2.6338207E-2,1.4888361E-3,-4.367454E-3,-1.7581621E-2,-6.1299495E-4,1.6997928E-2,4.1019365E-2,2.4063786E-2],"split_indices":[27,3,32,24,9,0,27,29,32,31,3,21,0,24,0,22,0,0,33,29,0,29,23,0,0,0,0,0,0,0,0,0,0,0,0],"split_type":[0,0,0,0,0,0,0,0,0,0,0,0,0,0,0,0,0,0,0,0,0,0,0,0,0,0,0,0,0,0,0,0,0,0,0],"sum_hessian":[1.5574197E2,1.1539895E2,4.0343033E1,5.675253E1,5.864642E1,2.1945386E0,3.814849E1,4.917293E1,7.5795946E0,3.1387875E1,2.7258545E1,3.3814644E1,4.3338494E0,4.6453125E1,2.7198076E0,5.8738933E0,1.7057011E0,3.6779523E0,2.7709923E1,2.133518E1,5.9233646E0,7.798987E0,2.6015656E1,1.2510055E1,3.394307E1,1.4703219E0,4.4035716E0,1.6983461E1,1.0726461E1,1.8386736E1,2.9484446E0,3.4176695E0,4.381317E0,6.3053484E0,1.9710308E1],"tree_param":{"num_deleted":"0","num_feature":"35","num_nodes":"35","size_leaf_vector":"1"}},{"base_weights":[7.298115E-3,-5.347271E-1,7.437857E-1,-6.4431906E-1,4.6234388E-2,8.681866E-1,3.3718538E-1,-3.1053078E-1,-8.463691E-1,5.966396E-1,-2.7320772E-1,1.9152574E-1,9.225578E-1,2.3179792E-1,4.57805E-2,-1.0528756E0,-5.849075E-2,-6.291857E-2,-7.9549944E-1,6.105512E-5,2.6061457E-2,-3.2731903E-1,-8.0950744E-4,2.588625E-2,-2.7065847E-2,9.543427E-1,4.722904E-3,3.9114416E-1,-2.3615588E-2,-1.2294847E-2,-4.9906738E-2,-6.0246876E-3,4.736232E-2,-4.0750094E-2,-2.1179723E-2,-7.981385E-3,-1.5323635E-2,2.5200902E-2,3.670184E-2,2.4976794E-2,6.348081E-3],"categories":[],"categories_nodes":[],"categories_segments":[],"categories_sizes":[],"default_left":[0,0,0,0,0,0,0,0,0,0,0,0,0,0,0,0,0,0,0,0,0,0,0,0,0,0,0,0,0,0,0,0,0,0,0,0,0,0,0,0,0],"id":3,"left_children":[1,3,5,7,9,11,13,15,17,19,21,23,25,27,-1,29,31,-1,33,-1,-1,35,-1,-1,-1,37,-1,39,-1,-1,-1,-1,-1,-1,-1,-1,-1,-1,-1,-1,-1],"loss_changes":[6.4155495E1,5.8973675E0,3.417019E0,5.2269974E0,2.6159706E0,1.8994255E0,1.9849637E0,5.518811E0,2.917099E0,8.833413E-1,1.2468338E-1,3.0162277E0,1.1573257E0,2.4550538E0,0E0,2.8687067E0,5.193501E0,0E0,2.2583656E0,0E0,0E0,7.316768E-2,0E0,0E0,0E0,1.3201218E0,0E0,1.0109307E0,0E0,0E0,0E0,0E0,0E0,0E0,0E0,0E0,0E0,0E0,0E0,0E0,0E0],"parents":[2147483647,0,0,1,1,2,2,3,3,4,4,5,5,6,6,7,7,8,8,9,9,10,10,11,11,12,12,13,13,15,15,16,16,18,18,21,21,25,25,27,27],"right_children":[2,4,6,8,10,12,14,16,18,20,22,24,26,28,-1,30,32,-1,34,-1,-1,36,-1,-1,-1,38,-1,40,-1,-1,-1,-1,-1,-1,-1,-1,-1,-1,-1,-1,-1],"split_conditions":[3.8194444E-2,8.66E1,9E0,5.594225E0,3.26331E1,4.944238E-1,2.7028587E-1,-8.25E1,4.090909E-1,1.26E2,1.9939333E3,-2.7638298E3,4.45E3,7.018492E2,4.57805E-2,1.8685E3,3.1022845E2,-6.291857E-2,-2.6656473E-1,6.105512E-5,2.6061457E-2,2E0,-8.0950744E-4,2.588625E-2,-2.7065847E-2,7.7E1,4.722904E-3,0E0,-2.3615588E-2,-1.2294847E-2,-4.9906738E-2,-6.0246876E-3,4.736232E-2,-4.0750094E-2,-2.1179723E-2,-7.981385E-3,-1.5323635E-2,2.5200902E-2,3.670184E-2,2.4976794E-2,6.348081E-3],"split_indices":[25,34,1,28,27,3,25,29,9,19,12,10,21,27,0,7,5,0,25,0,0,1,0,0,0,24,0,27,0,0,0,0,0,0,0,0,0,0,0,0,0],"split_type":[0,0,0,0,0,0,0,0,0,0,0,0,0,0,0,0,0,0,0,0,0,0,0,0,0,0,0,0,0,0,0,0,0,0,0,0,0,0,0,0,0],"sum_hessian":[1.605126E2,9.2479095E1,6.80335E1,7.779334E1,1.4685756E1,5.200795E1,1.602555E1,2.9429407E1,4.8363934E1,5.3613195E0,9.324436E0,3.9017773E0,4.810617E1,1.4830368E1,1.1951836E0,7.3787374E0,2.2050669E1,1.7327051E0,4.663123E1,1.7146993E0,3.6466203E0,7.617456E0,1.7069805E0,2.430804E0,1.4709734E0,4.6163708E1,1.9424623E0,1.2878131E1,1.9522363E0,3.6755261E0,3.7032115E0,2.0367743E1,1.6829253E0,6.203794E0,4.0427433E1,5.89404E0,1.7234161E0,3.26878E1,1.3475909E1,3.6183767E0,9.259755E0],"tree_param":{"num_deleted":"0","num_feature":"35","num_nodes":"41","size_leaf_vector":"1"}},{"base_weights":[-3.6418717E-2,-5.184525E-1,2.7853936E-1,-9.4219756E-1,-2.5088918E-1,5.7923406E-1,-3.1051004E-1,-4.37844E-1,-1.4896315E0,5.6755835E-1,-3.7925872E-1,-3.59926E-1,6.897027E-1,-3.891377E-1,3.1378508E-2,-2.080114E-1,-9.191269E-1,-1.8201231E0,-2.6238889E-1,1.1378951E0,-2.445382E-2,-9.62176E-1,-2.3527917E-1,-1.00255825E-1,-4.2257518E-2,-5.554945E-3,7.417491E-1,-4.8466602E-1,4.49047E-3,-1.0139678E-2,3.5507425E-3,-4.6485778E-2,-7.122099E-3,-4.388646E-2,-5.9146497E-2,3.2650165E-3,-1.8369945E-2,2.0493768E-2,4.7903303E-2,-1.9121537E-2,-3.270054E-2,5.566663E-3,-1.2611226E-2,7.727445E-3,-7.019446E-3,2.3563191E-2,-4.6336008E-4,-1.1949592E-2,-2.3341173E-2],"categories":[],"categories_nodes":[],"categories_segments":[],"categories_sizes":[],"default_left":[0,0,0,0,0,0,0,0,0,0,0,0,0,0,0,0,0,0,0,0,0,0,0,0,0,0,0,0,0,0,0,0,0,0,0,0,0,0,0,0,0,0,0,0,0,0,0,0,0],"id":4,"left_children":[1,3,5,7,9,11,13,15,17,19,21,23,25,27,-1,29,31,33,35,37,-1,39,41,43,-1,-1,45,47,-1,-1,-1,-1,-1,-1,-1,-1,-1,-1,-1,-1,-1,-1,-1,-1,-1,-1,-1,-1,-1],"loss_changes":[2.3910145E1,7.032444E0,1.6890795E1,6.5752544E0,4.043755E0,6.571415E0,3.4812713E0,1.3812232E0,4.613035E0,4.2175584E0,2.7598443E0,1.8121765E0,2.5861263E0,1.5804744E0,0E0,3.7294716E-1,1.7090416E0,2.0041847E-1,3.3855715E-1,6.724119E-1,0E0,2.018466E-1,2.0890398E0,2.6841593E-1,0E0,0E0,1.7658939E0,6.27254E-1,0E0,0E0,0E0,0E0,0E0,0E0,0E0,0E0,0E0,0E0,0E0,0E0,0E0,0E0,0E0,0E0,0E0,0E0,0E0,0E0,0E0],"parents":[2147483647,0,0,1,1,2,2,3,3,4,4,5,5,6,6,7,7,8,8,9,9,10,10,11,11,12,12,13,13,15,15,16,16,17,17,18,18,19,19,21,21,22,22,23,23,26,26,27,27],"right_children":[2,4,6,8,10,12,14,16,18,20,22,24,26,28,-1,30,32,34,36,38,-1,40,42,44,-1,-1,46,48,-1,-1,-1,-1,-1,-1,-1,-1,-1,-1,-1,-1,-1,-1,-1,-1,-1,-1,-1,-1,-1],"split_conditions":[-1.6840149E2,-4.66E3,5.52381E-1,-7.78E3,-7.9683334E1,-7.7E1,2.819E2,5.594225E0,-1.947064E2,9E0,3E0,6E0,-1.115E2,4.832569E3,3.1378508E-2,-1E1,5E0,2.1305E3,1.26E2,-3.49E3,-2.445382E-2,-1.418821E3,-3.6758572E2,1.26E2,-4.2257518E-2,-5.554945E-3,3.685E2,1.8836538E3,4.49047E-3,-1.0139678E-2,3.5507425E-3,-4.6485778E-2,-7.122099E-3,-4.388646E-2,-5.9146497E-2,3.2650165E-3,-1.8369945E-2,2.0493768E-2,4.7903303E-2,-1.9121537E-2,-3.270054E-2,5.566663E-3,-1.2611226E-2,7.727445E-3,-7.019446E-3,2.3563191E-2,-4.6336008E-4,-1.1949592E-2,-2.3341173E-2],"split_indices":[4,32,9,32,28,24,34,28,27,1,1,1,29,4,0,24,1,23,8,32,0,27,27,2,0,0,34,4,0,0,0,0,0,0,0,0,0,0,0,0,0,0,0,0,0,0,0,0,0],"split_type":[0,0,0,0,0,0,0,0,0,0,0,0,0,0,0,0,0,0,0,0,0,0,0,0,0,0,0,0,0,0,0,0,0,0,0,0,0,0,0,0,0,0,0,0,0,0,0,0,0],"sum_hessian":[1.5729451E2,6.213467E1,9.515984E1,2.3950954E1,3.8183716E1,6.300107E1,3.215878E1,1.2559661E1,1.13912945E1,5.130565E0,3.305315E1,6.6068068E0,5.639426E1,3.0464222E1,1.694556E0,8.597309E0,3.9623518E0,8.936438E0,2.4548564E0,3.6448317E0,1.4857333E0,6.4344172E0,2.6618732E1,5.3833375E0,1.2234691E0,3.1521883E0,5.3242073E1,2.5885063E1,4.579158E0,6.146058E0,2.4512506E0,1.9925338E0,1.969818E0,2.977676E0,5.958762E0,1.2246425E0,1.2302139E0,1.9556122E0,1.6892196E0,1.9864007E0,4.4480166E0,8.131224E0,1.8487509E1,1.4392968E0,3.9440405E0,5.0334038E1,2.9080374E0,2.018109E1,5.7039742E0],"tree_param":{"num_deleted":"0","num_feature":"35","num_nodes":"49","size_leaf_vector":"1"}},{"base_weights":[-4.913189E-2,-5.692044E-1,6.6698164E-1,-1.0269136E0,-4.381317E-1,-2.7517626E-1,7.102259E-1,-1.7772205E0,-8.3632743E-1,-5.82922E-1,-7.2874196E-2,2.4869172E-2,-3.1712152E-2,7.5296634E-1,-1.7892983E-3,-6.020605E-2,-3.8801227E-2,2.982232E-4,-9.3361396E-1,-2.6865858E-1,-7.7023995E-1,-1.980504E-1,4.5586843E-2,7.183925E-1,4.6525937E-2,-3.9058626E-2,-1.7192883E-2,2.4743734E-2,-1.03690475E-2,-2.8769758E-2,-1.1278174E-2,7.0718856E-4,-1.4453707E-2,2.0085277E-2,3.1775113E-2],"categories":[],"categories_nodes":[],"categories_segments":[],"categories_sizes":[],"default_left":[0,0,0,0,0,0,0,0,0,0,0,0,0,0,0,0,0,0,0,0,0,0,0,0,0,0,0,0,0,0,0,0,0,0,0],"id":5,"left_children":[1,3,5,7,9,11,13,15,17,19,21,-1,-1,23,-1,-1,-1,-1,25,27,29,31,-1,33,-1,-1,-1,-1,-1,-1,-1,-1,-1,-1,-1],"loss_changes":[5.9863132E1,5.540865E0,2.774826E0,2.8047104E0,3.8328867E0,2.7120056E0,2.1329613E0,1.954031E-1,1.372427E0,3.0371132E0,4.1585135E0,0E0,0E0,1.5793915E0,0E0,0E0,0E0,0E0,1.9095726E0,1.674227E0,2.3821583E0,1.2141593E0,0E0,9.10799E-1,0E0,0E0,0E0,0E0,0E0,0E0,0E0,0E0,0E0,0E0,0E0],"parents":[2147483647,0,0,1,1,2,2,3,3,4,4,5,5,6,6,7,7,8,8,9,9,10,10,13,13,18,18,19,19,20,20,21,21,23,23],"right_children":[2,4,6,8,10,12,14,16,18,20,22,-1,-1,24,-1,-1,-1,-1,26,28,30,32,-1,34,-1,-1,-1,-1,-1,-1,-1,-1,-1,-1,-1],"split_conditions":[3.3204384E-2,-2.194E2,-8.811E2,3E-1,6E-1,-2E-1,3.685E2,2.08E2,-6.5E1,-2.5E0,-2.44E3,2.4869172E-2,-3.1712152E-2,1.64E2,-1.7892983E-3,-6.020605E-2,-3.8801227E-2,2.982232E-4,-2.6527322E3,-8.6E1,1.9939333E3,-2.58E1,4.5586843E-2,3.0191827E-1,4.6525937E-2,-3.9058626E-2,-1.7192883E-2,2.4743734E-2,-1.03690475E-2,-2.8769758E-2,-1.1278174E-2,7.0718856E-4,-1.4453707E-2,2.0085277E-2,3.1775113E-2],"split_indices":[25,34,33,15,20,31,34,8,29,29,32,0,0,24,0,0,0,0,26,24,6,34,0,25,0,0,0,0,0,0,0,0,0,0,0],"split_type":[0,0,0,0,0,0,0,0,0,0,0,0,0,0,0,0,0,0,0,0,0,0,0,0,0,0,0,0,0,0,0,0,0,0,0],"sum_hessian":[1.6053424E2,9.3008194E1,6.752605E1,2.055303E1,7.245516E1,2.9398348E0,6.458621E1,3.9945672E0,1.6558464E1,5.1844208E1,2.0610954E1,1.2162685E0,1.7235663E0,6.119128E1,3.3949327E0,2.4954016E0,1.4991655E0,1.716541E0,1.4841923E1,1.9452372E1,3.2391834E1,1.919005E1,1.4209046E0,5.8832054E1,2.3592248E0,7.2121506E0,7.629772E0,1.2154475E0,1.8236925E1,2.1808758E1,1.0583077E1,1.0825874E1,8.364176E0,5.1710808E1,7.1212463E0],"tree_param":{"num_deleted":"0","num_feature":"35","num_nodes":"35","size_leaf_vector":"1"}},{"base_weights":[-4.11471E-2,-4.9938893E-1,6.0688883E-1,-1.3873644E0,-4.1861296E-1,4.792443E-2,5.341545E-1,-8.159316E-1,-5.9944935E-2,-7.704885E-1,-2.8076673E-1,4.408366E-1,1.2797623E0,-4.1012898E-2,-1.0346404E-2,-6.055726E-2,-5.795412E-1,-5.6167746E-1,-7.0557676E-2,-5.9484035E-1,5.018492E-1,3.2219756E-2,4.6363126E-2,-2.0145476E-2,2.4616564E-2,-6.6692526E-3,-2.7270695E-2,4.26289E-3,-1.2593314E-2,-9.748398E-3,-2.4673017E-2,1.3812397E-2,4.52797E-2],"categories":[],"categories_nodes":[],"categories_segments":[],"categories_sizes":[],"default_left":[0,0,0,0,0,0,0,0,0,0,0,0,0,0,0,0,0,0,0,0,0,0,0,0,0,0,0,0,0,0,0,0,0],"id":6,"left_children":[1,3,5,7,9,-1,11,13,-1,15,17,19,21,-1,-1,-1,23,25,27,29,31,-1,-1,-1,-1,-1,-1,-1,-1,-1,-1,-1,-1],"loss_changes":[4.6373047E1,6.5028687E0,4.575424E0,2.4839392E0,4.052142E0,0E0,4.1470375E0,1.0139916E0,0E0,5.503354E0,3.5687923E0,3.4323168E0,1.9852066E-1,0E0,0E0,0E0,2.7070885E0,3.0307808E0,2.5844786E0,1.6009486E-1,2.0555363E0,0E0,0E0,0E0,0E0,0E0,0E0,0E0,0E0,0E0,0E0,0E0,0E0],"parents":[2147483647,0,0,1,1,2,2,3,3,4,4,6,6,7,7,9,9,10,10,11,11,12,12,16,16,17,17,18,18,19,19,20,20],"right_children":[2,4,6,8,10,-1,12,14,-1,16,18,20,22,-1,-1,-1,24,26,28,30,32,-1,-1,-1,-1,-1,-1,-1,-1,-1,-1,-1,-1],"split_conditions":[3.8194444E-2,-2.2030652E-1,-3.1749942E2,-3.0475917E-1,-4.57E3,4.792443E-2,3.0475917E-1,-3.3512264E-1,-5.9944935E-2,2E-1,-5.4247577E2,-8.811E2,7.8E1,-4.1012898E-2,-1.0346404E-2,-6.055726E-2,7.99E1,-1.367E2,4.121971E0,9E0,1.5E2,3.2219756E-2,4.6363126E-2,-2.0145476E-2,2.4616564E-2,-6.6692526E-3,-2.7270695E-2,4.26289E-3,-1.2593314E-2,-9.748398E-3,-2.4673017E-2,1.3812397E-2,4.52797E-2],"split_indices":[25,25,27,25,21,0,25,25,0,15,27,33,24,0,0,0,34,34,27,0,24,0,0,0,0,0,0,0,0,0,0,0,0],"split_type":[0,0,0,0,0,0,0,0,0,0,0,0,0,0,0,0,0,0,0,0,0,0,0,0,0,0,0,0,0,0,0,0,0],"sum_hessian":[1.5595868E2,9.137099E1,6.4587685E1,7.4837766E0,8.388721E1,4.2745748E0,6.0313114E1,3.9871707E0,3.4966056E0,2.3483278E1,6.0403927E1,5.374561E1,6.567502E0,1.7496862E0,2.2374845E0,2.9890223E0,2.0494257E1,2.5782518E1,3.462141E1,2.9413736E0,5.0804237E1,3.9851668E0,2.5823352E0,1.9279772E1,1.214485E0,1.3123953E1,1.26585655E1,2.1555E1,1.3066411E1,1.4567039E0,1.4846696E0,4.893722E1,1.8670143E0],"tree_param":{"num_deleted":"0","num_feature":"35","num_nodes":"33","size_leaf_vector":"1"}},{"base_weights":[-1.4917177E-2,-5.800613E-1,5.782616E-1,-1.2398218E0,-5.1996315E-1,4.8244232E-1,1.1937827E0,-6.078253E-1,-1.6739919E0,-1.2070539E0,-4.6302506E-1,5.949678E-1,1.9886018E-1,4.6586998E-2,1.0181948E0,-1.2627072E-2,-2.181661E-2,-5.748682E-2,-3.6405925E-2,9.76074E-3,-1.7620112E0,1.4970462E-1,-5.1118606E-1,6.5489674E-1,-3.6696844E-2,-2.0486985E-1,4.1783452E-1,1.2291174E-2,1.1961404E0,-3.7504703E-2,-5.8255397E-2,9.589869E-3,-7.2683897E-3,-8.488016E-3,-2.013346E-2,2.529396E-2,1.2814879E-2,-4.179214E-3,1.0994718E-3,-2.378494E-3,-2.1515792E-2,1.5360934E-2,-2.544646E-4,3.8802624E-2,2.3627857E-2],"categories":[],"categories_nodes":[],"categories_segments":[],"categories_sizes":[],"default_left":[0,0,0,0,0,0,0,0,0,0,0,0,0,0,0,0,0,0,0,0,0,0,0,0,0,0,0,0,0,0,0,0,0,0,0,0,0,0,0,0,0,0,0,0,0],"id":7,"left_children":[1,3,5,7,9,11,13,15,17,19,21,23,25,-1,27,-1,-1,-1,-1,-1,29,31,33,35,37,39,41,-1,43,-1,-1,-1,-1,-1,-1,-1,-1,-1,-1,-1,-1,-1,-1,-1,-1],"loss_changes":[5.2230267E1,3.0990753E0,4.4258347E0,1.706171E0,2.811615E0,2.0925093E0,4.8329258E-1,3.2776117E-2,1.967392E-1,4.7745914E0,2.0098886E0,1.7877102E0,1.6780217E0,0E0,7.22157E-1,0E0,0E0,0E0,0E0,0E0,1.3352108E-1,3.4229988E-1,2.278162E0,1.8107338E0,3.198012E-2,4.2589018E-1,4.9342012E-1,0E0,1.1506939E-1,0E0,0E0,0E0,0E0,0E0,0E0,0E0,0E0,0E0,0E0,0E0,0E0,0E0,0E0,0E0,0E0],"parents":[2147483647,0,0,1,1,2,2,3,3,4,4,5,5,6,6,7,7,8,8,9,9,10,10,11,11,12,12,14,14,20,20,21,21,22,22,23,23,24,24,25,25,26,26,28,28],"right_children":[2,4,6,8,10,12,14,16,18,20,22,24,26,-1,28,-1,-1,-1,-1,-1,30,32,34,36,38,40,42,-1,44,-1,-1,-1,-1,-1,-1,-1,-1,-1,-1,-1,-1,-1,-1,-1,-1],"split_conditions":[0E0,-2.6656473E-1,2.2030652E-1,1.9698438E3,-9.586911E1,8E0,4.832569E3,1.41E2,1.2655121E2,-1.1853727E-1,-1.3478E3,1.41E2,-2.706818E3,4.6586998E-2,3E-1,-1.2627072E-2,-2.181661E-2,-5.748682E-2,-3.6405925E-2,9.76074E-3,6E0,5E0,-6.92E1,1.5821679E-1,1E1,1.4516565E2,3E-1,1.2291174E-2,1E1,-3.7504703E-2,-5.8255397E-2,9.589869E-3,-7.2683897E-3,-8.488016E-3,-2.013346E-2,2.529396E-2,1.2814879E-2,-4.179214E-3,1.0994718E-3,-2.378494E-3,-2.1515792E-2,1.5360934E-2,-2.544646E-4,3.8802624E-2,2.3627857E-2],"split_indices":[25,25,25,6,28,0,4,2,28,25,33,30,10,0,20,0,0,0,0,0,1,1,34,25,1,28,31,0,1,0,0,0,0,0,0,0,0,0,0,0,0,0,0,0,0],"split_type":[0,0,0,0,0,0,0,0,0,0,0,0,0,0,0,0,0,0,0,0,0,0,0,0,0,0,0,0,0,0,0,0,0,0,0,0,0,0,0,0,0,0,0,0,0],"sum_hessian":[1.5560353E2,7.968592E1,7.591761E1,6.4887767E0,7.319714E1,6.584567E1,1.00719385E1,2.7401276E0,3.7486491E0,5.4469595E0,6.775018E1,4.7061752E1,1.878392E1,3.0498662E0,7.0220723E0,1.2444174E0,1.4957103E0,2.2492354E0,1.4994138E0,1.4591525E0,3.987807E0,4.921786E0,6.2828396E1,4.2980328E1,4.0814223E0,6.6076407E0,1.2176279E1,1.6635996E0,5.358473E0,1.2435458E0,2.7442613E0,3.4460764E0,1.4757096E0,2.5999142E1,3.6829254E1,2.3382843E1,1.9597485E1,1.6638203E0,2.4176023E0,5.3995214E0,1.2081193E0,9.956286E0,2.2199926E0,4.152994E0,1.2054789E0],"tree_param":{"num_deleted":"0","num_feature":"35","num_nodes":"45","size_leaf_vector":"1"}},{"base_weights":[-3.613485E-2,-4.2902997E-1,6.810805E-1,-5.616836E-1,-5.3956576E-2,6.2211555E-1,4.5524113E-2,-6.366434E-1,1.6973707E-1,4.5610398E-2,-1.8057619E-1,6.80031E-1,-2.4403362E-2,-5.257827E-1,-1.0961193E0,5.5128156E-4,1.3098104E-2,1.9200627E-2,-2.6130703E-1,6.1887234E-1,1.1688212E0,-3.852193E-3,-2.1896591E-2,-4.436E-2,-2.2546135E-2,9.257476E-3,-9.889539E-3,1.0776589E-2,2.10896E-2,3.763453E-2,2.6049417E-2],"categories":[],"categories_nodes":[],"categories_segments":[],"categories_sizes":[],"default_left":[0,0,0,0,0,0,0,0,0,0,0,0,0,0,0,0,0,0,0,0,0,0,0,0,0,0,0,0,0,0,0],"id":8,"left_children":[1,3,5,7,9,11,-1,13,15,-1,17,19,-1,21,23,-1,-1,-1,25,27,29,-1,-1,-1,-1,-1,-1,-1,-1,-1,-1],"loss_changes":[4.3791134E1,4.9921856E0,2.6182137E0,4.0765343E0,5.278248E0,4.3412495E0,0E0,3.3696213E0,2.8083158E-1,0E0,1.6377807E0,1.4105606E0,0E0,4.402545E0,1.6006899E0,0E0,0E0,0E0,8.806367E-1,9.4231606E-1,3.0182362E-2,0E0,0E0,0E0,0E0,0E0,0E0,0E0,0E0,0E0,0E0],"parents":[2147483647,0,0,1,1,2,2,3,3,4,4,5,5,7,7,8,8,10,10,11,11,13,13,14,14,18,18,19,19,20,20],"right_children":[2,4,6,8,10,12,-1,14,16,-1,18,20,-1,22,24,-1,-1,-1,26,28,30,-1,-1,-1,-1,-1,-1,-1,-1,-1,-1],"split_conditions":[7.2883904E-2,0E0,1.43E2,2.462E2,9.331307E1,1.41E2,4.5524113E-2,-1.2356909E1,6E0,4.5610398E-2,-8.648686E1,1.0715116E3,-2.4403362E-2,0E0,-6.733672E2,5.5128156E-4,1.3098104E-2,1.9200627E-2,-1.6E2,1.9086E3,4.090909E-1,-3.852193E-3,-2.1896591E-2,-4.436E-2,-2.2546135E-2,9.257476E-3,-9.889539E-3,1.0776589E-2,2.10896E-2,3.763453E-2,2.6049417E-2],"split_indices":[25,26,24,34,26,24,0,27,0,0,28,27,0,28,26,0,0,0,24,18,9,0,0,0,0,0,0,0,0,0,0],"split_type":[0,0,0,0,0,0,0,0,0,0,0,0,0,0,0,0,0,0,0,0,0,0,0,0,0,0,0,0,0,0,0],"sum_hessian":[1.5519952E2,1.0029659E2,5.4902927E1,7.405539E1,2.6241203E1,5.1450108E1,3.4528196E0,6.7183075E1,6.872314E0,1.8715007E0,2.4369703E1,4.9505516E1,1.9445924E0,5.429693E1,1.2886143E1,4.4533525E0,2.4189618E0,2.1207125E0,2.2248991E1,4.4201527E1,5.303988E0,1.8480179E1,3.581675E1,5.950687E0,6.9354563E0,2.3448582E0,1.9904133E1,1.0944376E1,3.3257153E1,3.8803835E0,1.4236044E0],"tree_param":{"num_deleted":"0","num_feature":"35","num_nodes":"31","size_leaf_vector":"1"}},{"base_weights":[4.2417053E-2,-3.2368913E-1,5.383412E-1,-1.1224271E0,-2.524931E-1,9.490596E-1,3.925007E-1,-2.8180496E-3,-1.3838627E0,-5.8760726E-1,-1.4959677E-1,1.0168475E0,1.2055036E-3,-1.385778E-1,4.9112937E-1,-1.6201344E0,-2.3590628E-2,-1.0628024E0,-3.2819885E-1,-3.604465E-1,8.3832756E-2,7.511851E-1,3.8521275E-2,1.5588062E-2,-5.2214766E-1,4.4376498E-1,4.3482605E-2,-3.764983E-2,-5.5147562E-2,-4.767862E-2,-2.0054372E-2,2.5547857E-3,-1.711587E-2,-2.4298696E-2,-6.661387E-3,7.7025074E-4,4.2917985E-2,4.2921174E-2,1.7930632E-2,-2.6051823E-2,8.879475E-3,1.5435435E-2,-3.7859469E-3],"categories":[],"categories_nodes":[],"categories_segments":[],"categories_sizes":[],"default_left":[0,0,0,0,0,0,0,0,0,0,0,0,0,0,0,0,0,0,0,0,0,0,0,0,0,0,0,0,0,0,0,0,0,0,0,0,0,0,0,0,0,0,0],"id":9,"left_children":[1,3,5,7,9,11,13,-1,15,17,19,21,-1,23,25,27,-1,29,31,33,35,37,-1,-1,39,41,-1,-1,-1,-1,-1,-1,-1,-1,-1,-1,-1,-1,-1,-1,-1,-1,-1],"loss_changes":[2.8392408E1,5.0880966E0,3.9407578E0,1.9590931E0,2.8441734E0,1.0637512E0,2.5828114E0,0E0,6.9713974E-1,2.3568425E0,3.1252155E0,1.0481434E0,0E0,1.9914579E0,1.8192616E0,9.513855E-2,0E0,1.3068938E0,1.2765622E0,2.056704E0,2.360704E0,7.829895E-1,0E0,0E0,1.4323913E0,1.6069112E0,0E0,0E0,0E0,0E0,0E0,0E0,0E0,0E0,0E0,0E0,0E0,0E0,0E0,0E0,0E0,0E0,0E0],"parents":[2147483647,0,0,1,1,2,2,3,3,4,4,5,5,6,6,8,8,9,9,10,10,11,11,13,13,14,14,15,15,17,17,18,18,19,19,20,20,21,21,24,24,25,25],"right_children":[2,4,6,8,10,12,14,-1,16,18,20,22,-1,24,26,28,-1,30,32,34,36,38,-1,-1,40,42,-1,-1,-1,-1,-1,-1,-1,-1,-1,-1,-1,-1,-1,-1,-1,-1,-1],"split_conditions":[3.8194444E-2,-2.6656473E-1,-6.516891E1,4E0,-4.7360477E1,6E0,7.2883904E-2,-2.8180496E-3,-8.6E1,-2.142E2,4E0,-9.433093E1,1.2055036E-3,1.9287644E3,1.43E2,1.91425E3,-2.3590628E-2,-1E-1,-3.8194444E-2,-3.8582574E2,3.1022845E2,4.832569E3,3.8521275E-2,1.5588062E-2,1.9698438E3,2.993E2,4.3482605E-2,-3.764983E-2,-5.5147562E-2,-4.767862E-2,-2.0054372E-2,2.5547857E-3,-1.711587E-2,-2.4298696E-2,-6.661387E-3,7.7025074E-4,4.2917985E-2,4.2921174E-2,1.7930632E-2,-2.6051823E-2,8.879475E-3,1.5435435E-2,-3.7859469E-3],"split_indices":[25,25,28,0,28,0,25,0,30,34,1,28,0,12,30,12,0,31,25,5,5,4,0,0,12,34,0,0,0,0,0,0,0,0,0,0,0,0,0,0,0,0,0],"split_type":[0,0,0,0,0,0,0,0,0,0,0,0,0,0,0,0,0,0,0,0,0,0,0,0,0,0,0,0,0,0,0,0,0,0,0,0,0,0,0,0,0,0,0],"sum_hessian":[1.5618356E2,8.987204E1,6.631152E1,7.2343507E0,8.263769E1,1.7231934E1,4.9079586E1,1.4937687E0,5.740582E0,1.9302382E1,6.3335308E1,1.602485E1,1.2070822E0,7.6808085E0,4.139878E1,3.9912007E0,1.7493813E0,6.70683E0,1.2595552E1,3.324852E1,3.0086786E1,8.226587E0,7.798264E0,2.814998E0,4.8658104E0,3.9588394E1,1.8103834E0,1.7451339E0,2.2460668E0,2.742333E0,3.9644969E0,4.6790504E0,7.9165015E0,7.7128243E0,2.5535696E1,2.8939013E1,1.1477734E0,1.3625611E0,6.8640256E0,3.414565E0,1.4512453E0,3.522558E1,4.362819E0],"tree_param":{"num_deleted":"0","num_feature":"35","num_nodes":"43","size_leaf_vector":"1"}},{"base_weights":[1.3208238E-2,-3.70141E-1,5.6805664E-1,-1.2089665E0,-3.025586E-1,-4.7866154E-1,6.29748E-1,-8.8815945E-1,-5.461968E-2,3.5969773E-1,-3.5459587E-1,-4.3013208E-3,-2.2311084E-2,-9.8177735E-3,6.7733955E-1,-3.3906277E-2,-1.5542827E-2,4.7745824E-1,4.825028E-3,-1.0778418E0,-3.0405706E-1,6.0197884E-1,1.0834622E0,1.133858E-2,1.731787E-2,-2.1012722E-2,-5.261645E-2,-1.0052339E-2,1.6237687E-2,1.6305428E-2,3.1446002E-2,1.00441E-2,3.7222326E-2],"categories":[],"categories_nodes":[],"categories_segments":[],"categories_sizes":[],"default_left":[0,0,0,0,0,0,0,0,0,0,0,0,0,0,0,0,0,0,0,0,0,0,0,0,0,0,0,0,0,0,0,0,0],"id":10,"left_children":[1,3,5,7,9,11,13,15,-1,17,19,-1,-1,-1,21,-1,-1,23,-1,25,27,29,31,-1,-1,-1,-1,-1,-1,-1,-1,-1,-1],"loss_changes":[3.4317245E1,5.3726854E0,4.2870197E0,1.2278509E0,3.0604868E0,3.204385E-1,2.8595238E0,3.750043E-1,0E0,1.4436239E-1,2.9661388E0,0E0,0E0,0E0,1.7520981E0,0E0,0E0,1.8173993E-2,0E0,1.2343898E0,2.0326886E0,1.255516E0,1.0380888E0,0E0,0E0,0E0,0E0,0E0,0E0,0E0,0E0,0E0,0E0],"parents":[2147483647,0,0,1,1,2,2,3,3,4,4,5,5,6,6,7,7,9,9,10,10,14,14,17,17,19,19,20,20,21,21,22,22],"right_children":[2,4,6,8,10,12,14,16,-1,18,20,-1,-1,-1,22,-1,-1,24,-1,26,28,30,32,-1,-1,-1,-1,-1,-1,-1,-1,-1,-1],"split_conditions":[3.8194444E-2,-2.2030652E-1,-4.16E3,-7.282569E3,-9.17E3,3E0,3.1382977E2,-8.4E1,-5.461968E-2,1.8836538E3,2E-1,-4.3013208E-3,-2.2311084E-2,-9.8177735E-3,5.593158E3,-3.3906277E-2,-1.5542827E-2,1.26E2,4.825028E-3,1.32E2,2.819E2,8.4E3,1.3294203E2,1.133858E-2,1.731787E-2,-2.1012722E-2,-5.261645E-2,-1.0052339E-2,1.6237687E-2,1.6305428E-2,3.1446002E-2,1.00441E-2,3.7222326E-2],"split_indices":[25,25,32,26,32,0,26,24,0,10,15,0,0,0,26,0,0,8,0,8,34,32,5,0,0,0,0,0,0,0,0,0,0],"split_type":[0,0,0,0,0,0,0,0,0,0,0,0,0,0,0,0,0,0,0,0,0,0,0,0,0,0,0,0,0,0,0,0,0],"sum_hessian":[1.6114166E2,9.531858E1,6.582308E1,6.981094E0,8.833749E1,3.6259296E0,6.219715E1,4.7402287E0,2.240865E0,6.3924346E0,8.194505E1,1.6688662E0,1.9570633E0,2.918673E0,5.927848E1,2.741608E0,1.998621E0,3.926936E0,2.4654984E0,5.219379E0,7.672567E1,5.0209713E1,9.068767E0,2.2061152E0,1.7208209E0,3.4801161E0,1.7392629E0,7.4067924E1,2.6577494E0,4.4589355E1,5.620359E0,1.6287626E0,7.440004E0],"tree_param":{"num_deleted":"0","num_feature":"35","num_nodes":"33","size_leaf_vector":"1"}},{"base_weights":[1.6796876E-2,-6.459518E-1,1.928829E-1,6.375524E-1,-8.5550845E-1,4.226739E-1,-1.7386633E-1,8.3455086E-1,2.9480197E-3,-1.1502513E0,-4.2123812E-1,9.7015643E-1,2.5891313E-1,-3.5823932E-1,5.5522215E-1,3.2511268E-2,1.7184956E-2,-9.764649E-1,-5.3880315E-2,-2.3165734E-1,-2.5861882E-2,4.7784808E-1,1.2466311E0,5.918009E-2,5.0156254E-1,-4.805091E-1,1.2106839E-1,7.57092E-1,5.7408432E-3,-1.8467458E-2,-4.0539768E-2,-1.3792466E-2,-4.095236E-3,2.2727739E-2,-1.3124883E-2,4.121323E-2,2.6749354E-2,-8.356755E-3,1.869016E-2,1.3052487E-2,2.3012713E-2,1.4319949E-2,-1.5977316E-2,7.4941246E-3,9.072142E-4,1.1273549E-2,2.6802175E-2],"categories":[],"categories_nodes":[],"categories_segments":[],"categories_sizes":[],"default_left":[0,0,0,0,0,0,0,0,0,0,0,0,0,0,0,0,0,0,0,0,0,0,0,0,0,0,0,0,0,0,0,0,0,0,0,0,0,0,0,0,0,0,0,0,0,0,0],"id":11,"left_children":[1,3,5,7,9,11,13,15,-1,17,19,21,23,25,27,-1,-1,29,-1,31,-1,33,35,37,39,41,43,45,-1,-1,-1,-1,-1,-1,-1,-1,-1,-1,-1,-1,-1,-1,-1,-1,-1,-1,-1],"loss_changes":[1.767492E1,8.605978E0,1.0091324E1,4.7195983E-1,3.4553642E0,6.5728636E0,6.225258E0,1.5291953E-1,0E0,1.6481285E0,9.181397E-1,2.2417736E0,2.7490838E0,2.168682E0,6.727829E-1,0E0,0E0,1.6784906E0,0E0,1.670469E-1,0E0,1.6316508E0,3.6338425E-1,5.970028E0,4.18952E-1,1.4929314E0,8.788708E-2,2.774651E-1,0E0,0E0,0E0,0E0,0E0,0E0,0E0,0E0,0E0,0E0,0E0,0E0,0E0,0E0,0E0,0E0,0E0,0E0,0E0],"parents":[2147483647,0,0,1,1,2,2,3,3,4,4,5,5,6,6,7,7,9,9,10,10,11,11,12,12,13,13,14,14,17,17,19,19,21,21,22,22,23,23,24,24,25,25,26,26,27,27],"right_children":[2,4,6,8,10,12,14,16,-1,18,20,22,24,26,28,-1,-1,30,-1,32,-1,34,36,38,40,42,44,46,-1,-1,-1,-1,-1,-1,-1,-1,-1,-1,-1,-1,-1,-1,-1,-1,-1,-1,-1],"split_conditions":[-4.51E3,-1.029E4,2.4419052E1,2.5E1,3.67E1,-2.45E3,1.233E2,5E0,2.9480197E-3,4.829762E1,-2E-1,7.7E1,5.673077E-1,6E-1,3.685E2,3.2511268E-2,1.7184956E-2,-2E-1,-5.3880315E-2,1.83E2,-2.5861882E-2,7.4E1,7E0,-1.618578E1,8.2E1,-2.609E2,1.26E2,2E-1,5.7408432E-3,-1.8467458E-2,-4.0539768E-2,-1.3792466E-2,-4.095236E-3,2.2727739E-2,-1.3124883E-2,4.121323E-2,2.6749354E-2,-8.356755E-3,1.869016E-2,1.3052487E-2,2.3012713E-2,1.4319949E-2,-1.5977316E-2,7.4941246E-3,9.072142E-4,1.1273549E-2,2.6802175E-2],"split_indices":[32,32,28,24,34,10,34,1,0,28,31,24,3,20,34,0,0,31,0,8,0,24,1,28,24,33,2,20,0,0,0,0,0,0,0,0,0,0,0,0,0,0,0,0,0,0,0],"split_type":[0,0,0,0,0,0,0,0,0,0,0,0,0,0,0,0,0,0,0,0,0,0,0,0,0,0,0,0,0,0,0,0,0,0,0,0,0,0,0,0,0,0,0,0,0,0,0],"sum_hessian":[1.5124826E2,3.1693632E1,1.19554634E2,4.4196544E0,2.7273977E1,7.3492065E1,4.6062565E1,3.1970387E0,1.2226155E0,1.6148792E1,1.1125186E1,1.680786E1,5.6684208E1,3.6805897E1,9.256666E0,1.476924E0,1.7201148E0,1.2922349E1,3.2264428E0,7.886202E0,3.238984E0,6.142671E0,1.0665189E1,3.1159851E1,2.5524357E1,2.9324951E1,7.4809465E0,5.8840985E0,3.3725681E0,6.718541E0,6.2038074E0,2.2085934E0,5.6776085E0,4.718009E0,1.4246618E0,7.6413445E0,3.0238447E0,1.9518572E1,1.164128E1,2.0624504E1,4.899853E0,1.4698049E0,2.7855146E1,3.022272E0,4.4586744E0,1.6484926E0,4.235606E0],"tree_param":{"num_deleted":"0","num_feature":"35","num_nodes":"47","size_leaf_vector":"1"}},{"base_weights":[-2.1594126E-2,-3.980015E-1,5.387412E-1,-1.1880927E0,-3.4337094E-1,3.4564117E-1,8.690276E-1,-7.576407E-1,-5.224762E-2,-3.159977E-1,-3.703052E-2,-4.1626737E-1,4.2334035E-1,6.6385496E-1,1.1731385E0,-7.5135925E-3,-3.0472348E-2,-5.1933104E-1,-1.6779892E-1,-2.1358764E-2,-1.6230777E-3,5.256488E-1,-1.2772828E-1,2.3848448E-2,1.8831125E-2,9.1501796E-1,4.4195514E-2,-1.2380541E-2,-4.0490806E-2,-3.6851272E-3,-1.6864032E-2,-4.7017145E-3,1.8140238E-2,-1.3610462E-2,9.950577E-3,1.819488E-2,3.3055123E-2],"categories":[],"categories_nodes":[],"categories_segments":[],"categories_sizes":[],"default_left":[0,0,0,0,0,0,0,0,0,0,0,0,0,0,0,0,0,0,0,0,0,0,0,0,0,0,0,0,0,0,0,0,0,0,0,0,0],"id":12,"left_children":[1,3,5,7,9,11,13,15,-1,17,-1,19,21,23,25,-1,-1,27,29,-1,-1,31,33,-1,-1,35,-1,-1,-1,-1,-1,-1,-1,-1,-1,-1,-1],"loss_changes":[3.321362E1,4.0249023E0,4.005785E0,1.3097515E0,2.1131477E0,2.391448E0,1.3747005E0,4.4332838E-1,0E0,2.575162E0,0E0,3.9893538E-1,2.061017E0,1.7073154E-2,5.814762E-1,0E0,0E0,3.141264E0,8.7507486E-1,0E0,0E0,1.6677475E0,8.814835E-1,0E0,0E0,2.3493814E-1,0E0,0E0,0E0,0E0,0E0,0E0,0E0,0E0,0E0,0E0,0E0],"parents":[2147483647,0,0,1,1,2,2,3,3,4,4,5,5,6,6,7,7,9,9,11,11,12,12,13,13,14,14,17,17,18,18,21,21,22,22,25,25],"right_children":[2,4,6,8,10,12,14,16,-1,18,-1,20,22,24,26,-1,-1,28,30,-1,-1,32,34,-1,-1,36,-1,-1,-1,-1,-1,-1,-1,-1,-1,-1,-1],"split_conditions":[3.8194444E-2,-2.6656473E-1,1.8641901E-1,-3.0624726E-1,4E-1,-5.68E2,6.8E1,-2E-1,-5.224762E-2,-2.5954282E3,-3.703052E-2,1.2286325E-1,1.5821679E-1,2E0,2E-1,-7.5135925E-3,-3.0472348E-2,-1.1549926E-1,5.52381E-1,-2.1358764E-2,-1.6230777E-3,3.1382977E2,5E-1,2.3848448E-2,1.8831125E-2,1.28E2,4.4195514E-2,-1.2380541E-2,-4.0490806E-2,-3.6851272E-3,-1.6864032E-2,-4.7017145E-3,1.8140238E-2,-1.3610462E-2,9.950577E-3,1.819488E-2,3.3055123E-2],"split_indices":[25,25,25,25,31,33,30,31,0,26,0,25,25,0,31,0,0,25,3,0,0,26,15,0,0,8,0,0,0,0,0,0,0,0,0,0,0],"split_type":[0,0,0,0,0,0,0,0,0,0,0,0,0,0,0,0,0,0,0,0,0,0,0,0,0,0,0,0,0,0,0,0,0,0,0,0,0],"sum_hessian":[1.5727278E2,9.409385E1,6.3178932E1,5.9511333E0,8.8142715E1,3.9998627E1,2.3180307E1,3.4809144E0,2.470219E0,8.564689E1,2.4958315E0,3.6612382E0,3.6337387E1,1.4031832E1,9.148477E0,1.2404344E0,2.2404797E0,3.6001408E1,4.9645477E1,1.962423E0,1.6988151E0,3.0651423E1,5.685965E0,2.579361E0,1.145247E1,5.1355066E0,4.01297E0,3.2036545E1,3.9648645E0,4.4682068E1,4.96341E0,3.1711166E0,2.7480305E1,3.3268306E0,2.3591342E0,2.0970268E0,3.0384798E0],"tree_param":{"num_deleted":"0","num_feature":"35","num_nodes":"37","size_leaf_vector":"1"}},{"base_weights":[-2.8367415E-2,-4.1326326E-1,4.7311747E-1,-1.1294975E0,-3.4951156E-1,5.173841E-1,-1.7170418E-2,-6.5795827E-1,-5.1670745E-2,-3.0223468E-1,-1.2756398E0,4.6678764E-1,3.5739124E-2,-3.1112233E-2,-1.2070605E-2,-3.4698677E-1,5.032607E-1,-4.598601E-2,-2.44264E-2,4.2534682E-1,4.2109277E-2,-2.3074728E-2,-8.334274E-3,3.1740133E-2,1.624856E-3,1.4684181E-2,-6.03555E-3],"categories":[],"categories_nodes":[],"categories_segments":[],"categories_sizes":[],"default_left":[0,0,0,0,0,0,0,0,0,0,0,0,0,0,0,0,0,0,0,0,0,0,0,0,0,0,0],"id":13,"left_children":[1,3,5,7,9,11,-1,13,-1,15,17,19,-1,-1,-1,21,23,-1,-1,25,-1,-1,-1,-1,-1,-1,-1],"loss_changes":[2.9519363E1,3.91119E0,3.1031065E0,1.8511143E0,3.4464483E0,2.1187077E0,0E0,3.532307E-1,0E0,2.7520266E0,3.303423E-1,2.2494717E0,0E0,0E0,0E0,2.079217E0,9.991864E-1,0E0,0E0,2.3040257E0,0E0,0E0,0E0,0E0,0E0,0E0,0E0],"parents":[2147483647,0,0,1,1,2,2,3,3,4,4,5,5,7,7,9,9,10,10,11,11,15,15,16,16,19,19],"right_children":[2,4,6,8,10,12,-1,14,-1,16,18,20,-1,-1,-1,22,24,-1,-1,26,-1,-1,-1,-1,-1,-1,-1],"split_conditions":[3.0363476E-2,-2.6656473E-1,3.685E2,-3.0475917E-1,9.17E3,1.418821E3,-1.7170418E-2,-3.3512264E-1,-5.1670745E-2,5.78E3,4E0,1.64E2,3.5739124E-2,-3.1112233E-2,-1.2070605E-2,-1.6840149E2,-6.79E3,-4.598601E-2,-2.44264E-2,1.41E2,4.2109277E-2,-2.3074728E-2,-8.334274E-3,3.1740133E-2,1.624856E-3,1.4684181E-2,-6.03555E-3],"split_indices":[25,25,34,25,32,27,0,25,0,32,0,24,0,0,0,10,21,0,0,24,0,0,0,0,0,0,0],"split_type":[0,0,0,0,0,0,0,0,0,0,0,0,0,0,0,0,0,0,0,0,0,0,0,0,0,0,0],"sum_hessian":[1.5273335E2,8.642143E1,6.631193E1,6.926967E0,7.949447E1,6.3666687E1,2.6452386E0,3.975769E0,2.9511983E0,7.575973E1,3.7347414E0,5.937798E1,4.288708E0,1.4779387E0,2.4978304E0,7.1826096E1,3.9336283E0,2.2488773E0,1.485864E0,5.7001957E1,2.376021E0,9.970036E0,6.185606E1,1.6991678E0,2.2344604E0,5.1729313E1,5.272646E0],"tree_param":{"num_deleted":"0","num_feature":"35","num_nodes":"27","size_leaf_vector":"1"}},{"base_weights":[4.4809695E-2,-4.0908313E-1,4.951103E-1,-3.449672E-1,-1.2991556E0,2.480859E-2,5.927683E-1,-3.9645055E-1,4.2347986E-1,-5.217922E-2,-1.2921051E-2,1.3064493E-1,-8.848962E-3,8.6036974E-1,4.231033E-1,-4.5795026E-1,2.598862E-1,2.1336319E-2,3.837763E-3,2.9738063E-1,-1.0210169E-2,9.357814E-1,2.3399271E-1,-5.240366E-1,5.1632106E-1,-1.239018E-2,-3.6828842E-2,2.5541281E-2,-1.9111482E-2,1.1742699E-2,9.18627E-4,-5.3364327E-3,3.912698E-3,1.9962061E-2,3.628381E-2,-4.974193E-3,2.1327266E-2,-2.3689631E-2,-8.792743E-3,1.2320565E-2,3.0387582E-2],"categories":[],"categories_nodes":[],"categories_segments":[],"categories_sizes":[],"default_left":[0,0,0,0,0,0,0,0,0,0,0,0,0,0,0,0,0,0,0,0,0,0,0,0,0,0,0,0,0,0,0,0,0,0,0,0,0,0,0,0,0],"id":14,"left_children":[1,3,5,7,9,11,13,15,17,-1,-1,19,-1,21,23,25,27,-1,-1,29,31,33,35,37,39,-1,-1,-1,-1,-1,-1,-1,-1,-1,-1,-1,-1,-1,-1,-1,-1],"loss_changes":[3.1178442E1,4.2909117E0,3.5153446E0,2.8259468E0,1.8626928E0,4.5297357E-1,2.8421535E0,2.7001486E0,3.7416184E-1,0E0,0E0,2.3609337E-1,0E0,1.1355572E0,3.470127E0,2.0570126E0,3.1151738E0,0E0,0E0,1.142216E-1,1.329289E-1,1.535408E0,5.3925955E-1,1.9424623E-1,1.823473E0,0E0,0E0,0E0,0E0,0E0,0E0,0E0,0E0,0E0,0E0,0E0,0E0,0E0,0E0,0E0,0E0],"parents":[2147483647,0,0,1,1,2,2,3,3,4,4,5,5,6,6,7,7,8,8,11,11,13,13,14,14,15,15,16,16,19,19,20,20,21,21,22,22,23,23,24,24],"right_children":[2,4,6,8,10,12,14,16,18,-1,-1,20,-1,22,24,26,28,-1,-1,30,32,34,36,38,40,-1,-1,-1,-1,-1,-1,-1,-1,-1,-1,-1,-1,-1,-1,-1,-1],"split_conditions":[0E0,3.2985632E2,-5.68E2,2.1982E3,1.83E2,9E0,7.75E1,1.0301E3,2E0,-5.217922E-2,-1.2921051E-2,4.047619E-1,-8.848962E-3,1.9698438E3,1.6398301E3,9.95E1,-5.7011604E1,2.1336319E-2,3.837763E-3,8E0,1.32E2,-4.7E1,2.18E2,5E0,4E-1,-1.239018E-2,-3.6828842E-2,2.5541281E-2,-1.9111482E-2,1.1742699E-2,9.18627E-4,-5.3364327E-3,3.912698E-3,1.9962061E-2,3.628381E-2,-4.974193E-3,2.1327266E-2,-2.3689631E-2,-8.792743E-3,1.2320565E-2,3.0387582E-2],"split_indices":[25,27,33,18,8,0,33,33,1,0,0,9,0,12,26,29,26,0,0,0,8,30,2,0,31,0,0,0,0,0,0,0,0,0,0,0,0,0,0,0,0],"split_type":[0,0,0,0,0,0,0,0,0,0,0,0,0,0,0,0,0,0,0,0,0,0,0,0,0,0,0,0,0,0,0,0,0,0,0,0,0,0,0,0,0],"sum_hessian":[1.5234612E2,7.587499E1,7.647112E1,7.090607E1,4.968927E0,1.3170414E1,6.330071E1,6.649925E1,4.4068155E0,3.2310715E0,1.7378556E0,9.93977E0,3.2306437E0,2.4403532E1,3.8897175E1,6.0829647E1,5.6696014E0,2.161701E0,2.2451148E0,4.5008326E0,5.438937E0,2.1737127E1,2.6664045E0,3.4438398E0,3.545334E1,5.7618744E1,3.2109048E0,3.4196024E0,2.249999E0,3.2931447E0,1.2076879E0,2.4688969E0,2.9700403E0,1.1107085E1,1.0630042E1,1.4859582E0,1.1804463E0,1.4891713E0,1.9546685E0,2.9385256E1,6.0680804E0],"tree_param":{"num_deleted":"0","num_feature":"35","num_nodes":"41","size_leaf_vector":"1"}},{"base_weights":[2.5047036E-3,-3.6392632E-1,5.2126926E-1,-6.5471065E-1,-2.1868014E-1,6.029968E-1,9.126785E-2,-6.0392458E-2,-9.4562674E-1,6.850094E-1,-3.4549993E-1,5.65711E-1,4.2501975E-2,2.5935838E-1,-2.2337524E-2,1.4115915E-1,-2.49182E-2,-5.2974846E-2,-7.656997E-1,3.2222405E-2,3.3574685E-1,-5.3722656E-4,-6.19054E-1,5.189802E-1,3.3815295E-2,2.8563779E-2,8.267255E-2,-5.856463E-3,7.6583414E-3,-3.377806E-2,-1.501369E-2,1.5098439E-2,6.5794126E-3,-4.4565913E-3,3.4947414E-2,-5.8341116E-2,-1.6612437E-2,1.4517442E-2,3.312848E-2,-2.4803772E-3,2.1662014E-2],"categories":[],"categories_nodes":[],"categories_segments":[],"categories_sizes":[],"default_left":[0,0,0,0,0,0,0,0,0,0,0,0,0,0,0,0,0,0,0,0,0,0,0,0,0,0,0,0,0,0,0,0,0,0,0,0,0,0,0,0,0],"id":15,"left_children":[1,3,5,7,9,11,13,15,17,19,21,23,-1,25,-1,27,-1,-1,29,-1,31,33,35,37,-1,-1,39,-1,-1,-1,-1,-1,-1,-1,-1,-1,-1,-1,-1,-1,-1],"loss_changes":[2.9263336E1,3.7960768E0,2.2339973E0,5.181616E0,6.9362006E0,1.5439987E0,1.4657947E0,1.5589162E0,2.8363724E0,9.7715855E-1,4.9975367E0,1.2888412E0,0E0,1.050388E0,0E0,3.1149793E-1,0E0,0E0,1.538374E0,0E0,6.844428E-2,4.0750933E0,2.449401E0,9.23316E-1,0E0,0E0,7.4586743E-1,0E0,0E0,0E0,0E0,0E0,0E0,0E0,0E0,0E0,0E0,0E0,0E0,0E0,0E0],"parents":[2147483647,0,0,1,1,2,2,3,3,4,4,5,5,6,6,7,7,8,8,9,9,10,10,11,11,13,13,15,15,18,18,20,20,21,21,22,22,23,23,26,26],"right_children":[2,4,6,8,10,12,14,16,18,20,22,24,-1,26,-1,28,-1,-1,30,-1,32,34,36,38,-1,-1,40,-1,-1,-1,-1,-1,-1,-1,-1,-1,-1,-1,-1,-1,-1],"split_conditions":[3.8194444E-2,-4.51E3,8E0,-8.4E3,-3.56E3,7.177953E1,7E1,5.594225E0,-9.586911E1,3E0,1.7019061E0,1.418821E3,4.2501975E-2,-6.281152E0,-2.2337524E-2,2E0,-2.49182E-2,-5.2974846E-2,-1.4870363E-1,3.2222405E-2,1E1,-5.594225E0,1.28E2,1.131E4,3.3815295E-2,2.8563779E-2,1E1,-5.856463E-3,7.6583414E-3,-3.377806E-2,-1.501369E-2,1.5098439E-2,6.5794126E-3,-4.4565913E-3,3.4947414E-2,-5.8341116E-2,-1.6612437E-2,1.4517442E-2,3.312848E-2,-2.4803772E-3,2.1662014E-2],"split_indices":[25,32,0,32,32,28,24,28,28,1,28,27,0,28,0,1,0,0,25,0,0,28,8,32,0,0,1,0,0,0,0,0,0,0,0,0,0,0,0,0,0],"split_type":[0,0,0,0,0,0,0,0,0,0,0,0,0,0,0,0,0,0,0,0,0,0,0,0,0,0,0,0,0,0,0,0,0,0,0,0,0,0,0,0,0],"sum_hessian":[1.5374368E2,9.0118225E1,6.3625454E1,2.9902454E1,6.021577E1,5.343011E1,1.0195342E1,9.866582E0,2.0035872E1,7.3562965E0,5.2859474E1,5.1251274E1,2.1788383E0,8.545754E0,1.6495876E0,7.8849115E0,1.9816707E0,3.4459622E0,1.658991E1,3.3816664E0,3.97463E0,2.34227E1,2.9436773E1,4.7491024E1,3.7602475E0,1.6474369E0,6.898318E0,1.9794024E0,5.905509E0,6.897585E0,9.692325E0,1.4934582E0,2.4811718E0,2.0860596E1,2.5621054E0,1.2469565E0,2.8189817E1,4.497901E1,2.5120134E0,5.5500946E0,1.3482232E0],"tree_param":{"num_deleted":"0","num_feature":"35","num_nodes":"41","size_leaf_vector":"1"}},{"base_weights":[2.7562287E-2,-2.9669097E-1,2.3739626E-1,-2.3668715E-1,-4.900425E-2,5.2530825E-1,-1.990183E-2,-1.4505453E-1,-1.2289854E0,2.9255584E-1,8.273557E-1,-9.043979E-2,8.428383E-1,-2.3275706E-1,4.1687974E-1,-4.4466484E-2,-2.4793616E-2,3.6424828E-1,-2.2850437E-2,5.8350194E-1,4.5337055E-2,2.6593955E-2,-1.4346184E-1,4.177153E-2,1.4085393E-2,1.8733032E-2,-8.665143E-3,3.3007737E-2,3.2492904E-3,1.950023E-2,2.8796464E-3,3.1640343E-2,7.986802E-3,-1.2915899E-2,2.2783808E-3],"categories":[],"categories_nodes":[],"categories_segments":[],"categories_sizes":[],"default_left":[0,0,0,0,0,0,0,0,0,0,0,0,0,0,0,0,0,0,0,0,0,0,0,0,0,0,0,0,0,0,0,0,0,0,0],"id":16,"left_children":[1,3,5,7,-1,9,11,13,15,17,19,21,23,25,27,-1,-1,29,-1,31,-1,-1,33,-1,-1,-1,-1,-1,-1,-1,-1,-1,-1,-1,-1],"loss_changes":[1.0236857E1,4.7030807E0,6.767174E0,5.137044E0,0E0,3.0063543E0,2.9487195E0,2.5730739E0,3.6466694E-1,1.8795686E0,3.0314074E0,2.3315067E0,6.8600726E-1,2.1839523E0,1.4763489E0,0E0,0E0,1.7575655E0,0E0,2.057682E0,0E0,0E0,2.6831467E0,0E0,0E0,0E0,0E0,0E0,0E0,0E0,0E0,0E0,0E0,0E0,0E0],"parents":[2147483647,0,0,1,1,2,2,3,3,5,5,6,6,7,7,8,8,9,9,10,10,11,11,12,12,13,13,14,14,17,17,19,19,22,22],"right_children":[2,4,6,8,-1,10,12,14,16,18,20,22,24,26,28,-1,-1,30,-1,32,-1,-1,34,-1,-1,-1,-1,-1,-1,-1,-1,-1,-1,-1,-1],"split_conditions":[-1.947064E2,-2.0706331E2,5E0,9.950708E1,-4.900425E-2,-1.34E1,2.18E2,2.0168142E3,1.3478448E2,3E0,7.859E2,-8.47E3,6E0,-1.124E4,1.28E2,-4.4466484E-2,-2.4793616E-2,-6.75E1,-2.2850437E-2,4.0625E-1,4.5337055E-2,2.6593955E-2,1.491E2,4.177153E-2,1.4085393E-2,1.8733032E-2,-8.665143E-3,3.3007737E-2,3.2492904E-3,1.950023E-2,2.8796464E-3,3.1640343E-2,7.986802E-3,-1.2915899E-2,2.2783808E-3],"split_indices":[27,27,0,28,0,34,8,6,28,0,33,32,0,32,8,0,0,34,0,9,0,0,34,0,0,0,0,0,0,0,0,0,0,0,0],"split_type":[0,0,0,0,0,0,0,0,0,0,0,0,0,0,0,0,0,0,0,0,0,0,0,0,0,0,0,0,0,0,0,0,0,0,0],"sum_hessian":[1.5025143E2,5.9015022E1,9.123641E1,5.659248E1,2.4225433E0,4.3007557E1,4.8228855E1,5.191323E1,4.6792483E0,2.4401247E1,1.860631E1,4.4666428E1,3.5624266E0,4.495549E1,6.9577403E0,2.7076528E0,1.9715954E0,2.2908804E1,1.4924431E0,1.385227E1,4.7540393E0,2.2185664E0,4.244786E1,1.3306706E0,2.2317562E0,2.6983352E0,4.2257156E1,2.084566E0,4.873174E0,1.1023697E1,1.1885106E1,5.4806695E0,8.371601E0,1.8346935E1,2.4100925E1],"tree_param":{"num_deleted":"0","num_feature":"35","num_nodes":"35","size_leaf_vector":"1"}},{"base_weights":[2.6275905E-2,-2.7228796E-1,5.284854E-1,-4.8996192E-1,-1.3038698E-1,4.0810212E-1,1.1880285E0,-4.3439147E-1,-5.2125875E-2,6.441912E-2,-3.9517802E-1,4.5948982E-1,-1.1485665E-2,4.18207E-2,1.4181631E-2,-4.9619114E-1,2.4568145E-1,1.2921959E-1,-2.7279688E-2,-2.2015509E-1,-1.1101016E0,-1.2716785E-1,5.2183706E-1,-2.830837E-2,-1.1825941E-2,-8.452239E-3,1.8610865E-2,5.6463336E-3,-1.4540297E-2,-4.8245423E-2,-2.4697643E-3,-4.7640476E-2,-2.712236E-2,1.2544286E-4,-1.2810387E-2,1.9043293E-2,6.894241E-3],"categories":[],"categories_nodes":[],"categories_segments":[],"categories_sizes":[],"default_left":[0,0,0,0,0,0,0,0,0,0,0,0,0,0,0,0,0,0,0,0,0,0,0,0,0,0,0,0,0,0,0,0,0,0,0,0,0],"id":17,"left_children":[1,3,5,7,9,11,13,15,-1,17,19,21,-1,-1,-1,23,25,27,-1,29,31,33,35,-1,-1,-1,-1,-1,-1,-1,-1,-1,-1,-1,-1,-1,-1],"loss_changes":[2.2808851E1,2.9405756E0,4.454544E0,2.5322866E0,2.988817E0,1.9731655E0,1.2162943E0,1.5312715E0,0E0,2.1217847E0,3.047773E0,1.6607428E0,0E0,0E0,0E0,1.4763174E0,6.256943E-1,1.147753E0,0E0,3.78402E0,3.29432E-1,1.7444742E-1,1.3343067E0,0E0,0E0,0E0,0E0,0E0,0E0,0E0,0E0,0E0,0E0,0E0,0E0,0E0,0E0],"parents":[2147483647,0,0,1,1,2,2,3,3,4,4,5,5,6,6,7,7,9,9,10,10,11,11,15,15,16,16,17,17,19,19,20,20,21,21,22,22],"right_children":[2,4,6,8,10,12,14,16,-1,18,20,22,-1,-1,-1,24,26,28,-1,30,32,34,36,-1,-1,-1,-1,-1,-1,-1,-1,-1,-1,-1,-1,-1,-1],"split_conditions":[1.6809216E3,-5.1876776E2,5.593158E3,-5.2456274E2,1.9681418E3,3.685E2,7.85E3,-5.4247577E2,-5.2125875E-2,5.879E2,1.9939333E3,-4.16E3,-1.1485665E-2,4.18207E-2,1.4181631E-2,2.1305E3,1E0,9.2E1,-2.7279688E-2,-9.950708E1,-8.2E1,9E0,5.71E3,-2.830837E-2,-1.1825941E-2,-8.452239E-3,1.8610865E-2,5.6463336E-3,-1.4540297E-2,-4.8245423E-2,-2.4697643E-3,-4.7640476E-2,-2.712236E-2,1.2544286E-4,-1.2810387E-2,1.9043293E-2,6.894241E-3],"split_indices":[26,27,26,27,12,34,32,27,0,17,6,32,0,0,0,23,0,24,0,28,24,0,32,0,0,0,0,0,0,0,0,0,0,0,0,0,0],"split_type":[0,0,0,0,0,0,0,0,0,0,0,0,0,0,0,0,0,0,0,0,0,0,0,0,0,0,0,0,0,0,0,0,0,0,0,0,0],"sum_hessian":[1.5192224E2,9.5307594E1,5.6614643E1,3.751495E1,5.7792645E1,4.801294E1,8.601702E0,3.6044247E1,1.4707016E0,3.3340096E1,2.445255E1,4.5123238E1,2.8897026E0,6.604769E0,1.996933E0,3.3066467E1,2.977781E0,3.1341139E1,1.9989563E0,1.9748617E1,4.7039337E0,4.324816E0,4.079842E1,5.9852643E0,2.7081203E1,1.2470975E0,1.7306834E0,2.8656748E1,2.684391E0,1.6875186E0,1.8061098E1,1.2149054E0,3.4890282E0,3.0759704E0,1.2488456E0,2.9335743E1,1.1462678E1],"tree_param":{"num_deleted":"0","num_feature":"35","num_nodes":"37","size_leaf_vector":"1"}},{"base_weights":[1.5925936E-2,-3.1305912E-1,4.6224928E-1,-1.2456347E0,-2.4353267E-1,8.9562833E-1,3.2979837E-1,-8.181448E-1,-5.194684E-2,1.8805675E-2,-2.7351034E-1,6.138648E-1,1.1689873E0,2.7468675E-1,9.560292E-1,-4.503746E-2,-1.1953773E-2,-5.761805E-1,-1.707816E-1,4.2297732E-2,3.983538E-1,2.345868E-2,4.0978283E-2,3.3886102E-1,-7.3873144E-1,4.0196504E-2,2.1976944E-2,-4.280478E-2,-1.1487395E-2,-3.6100217E-3,-3.0745817E-2,3.1557276E-3,1.621606E-2,-2.2288298E-3,1.2755489E-2,-9.880427E-3,-3.4684557E-2],"categories":[],"categories_nodes":[],"categories_segments":[],"categories_sizes":[],"default_left":[0,0,0,0,0,0,0,0,0,0,0,0,0,0,0,0,0,0,0,0,0,0,0,0,0,0,0,0,0,0,0,0,0,0,0,0,0],"id":18,"left_children":[1,3,5,7,9,11,13,15,-1,-1,17,19,21,23,25,-1,-1,27,29,-1,31,-1,-1,33,35,-1,-1,-1,-1,-1,-1,-1,-1,-1,-1,-1,-1],"loss_changes":[2.275715E1,5.7548246E0,3.7453785E0,1.1392107E0,2.1869178E0,1.1094427E0,1.7175798E0,9.349539E-1,0E0,0E0,2.4918566E0,1.2755466E0,4.78117E-1,3.0544417E0,2.4896169E-1,0E0,0E0,3.2903275E0,2.5819921E0,0E0,2.5474608E-1,0E0,0E0,1.5679479E0,4.4134045E-1,0E0,0E0,0E0,0E0,0E0,0E0,0E0,0E0,0E0,0E0,0E0,0E0],"parents":[2147483647,0,0,1,1,2,2,3,3,4,4,5,5,6,6,7,7,10,10,11,11,12,12,13,13,14,14,17,17,18,18,20,20,23,23,24,24],"right_children":[2,4,6,8,10,12,14,16,-1,-1,18,20,22,24,26,-1,-1,28,30,-1,32,-1,-1,34,36,-1,-1,-1,-1,-1,-1,-1,-1,-1,-1,-1,-1],"split_conditions":[3.0363476E-2,-2.6656473E-1,-6.516891E1,1.05E2,-1.5113E3,-9.433093E1,1.0388784E3,5.52381E-1,-5.194684E-2,1.8805675E-2,-4.78E3,4.832569E3,1.9086E3,8.7472845E2,3E0,-4.503746E-2,-1.1953773E-2,-9.586911E1,9.17E3,4.2297732E-2,1.26E2,2.345868E-2,4.0978283E-2,-3.9377422E1,6E0,4.0196504E-2,2.1976944E-2,-4.280478E-2,-1.1487395E-2,-3.6100217E-3,-3.0745817E-2,3.1557276E-3,1.621606E-2,-2.2288298E-3,1.2755489E-2,-9.880427E-3,-3.4684557E-2],"split_indices":[25,25,28,2,33,28,27,9,0,0,32,4,18,27,0,0,0,28,32,0,8,0,0,28,0,0,0,0,0,0,0,0,0,0,0,0,0],"split_type":[0,0,0,0,0,0,0,0,0,0,0,0,0,0,0,0,0,0,0,0,0,0,0,0,0,0,0,0,0,0,0,0,0,0,0,0,0],"sum_hessian":[1.5478734E2,8.9123924E1,6.566341E1,6.0661077E0,8.3057816E1,1.5235781E1,5.0427628E1,3.3698657E0,2.696242E0,2.6991158E0,8.03587E1,7.6623807E0,7.5734005E0,4.6480927E1,3.9467034E0,1.1843854E0,2.1854804E0,2.024624E1,6.011246E1,1.5143639E0,6.148017E0,2.7218318E0,4.8515687E0,4.3775425E1,2.7054982E0,1.2683713E0,2.678332E0,3.6301699E0,1.6616072E1,5.6867577E1,3.244884E0,2.0647373E0,4.0832796E0,7.5678754E0,3.620755E1,1.4562176E0,1.2492807E0],"tree_param":{"num_deleted":"0","num_feature":"35","num_nodes":"37","size_leaf_vector":"1"}},{"base_weights":[-7.3709292E-3,-3.3325246E-1,4.831748E-1,-6.896028E-1,-2.1615934E-1,4.3090534E-1,3.9870035E-2,-9.091278E-1,7.199039E-2,-1.3258961E-1,-6.465355E-1,3.283561E-2,3.626711E-1,-1.3359276E0,-7.346865E-1,2.4612914E-1,-1.2829471E-2,2.7769625E-1,-3.394248E-1,-1.1187689E0,-3.063951E-1,3.2880682E-1,3.954982E-2,-4.6575103E-2,-2.6822513E-2,-9.658439E-3,-2.5820699E-2,1.0617129E-2,3.301702E-3,1.1685557E-3,2.5245765E-2,-6.3185804E-3,-2.2420082E-2,-5.4561097E-2,-2.1675501E-2,-1.1486505E-2,-3.741968E-3,8.32607E-3,2.4440607E-2],"categories":[],"categories_nodes":[],"categories_segments":[],"categories_sizes":[],"default_left":[0,0,0,0,0,0,0,0,0,0,0,0,0,0,0,0,0,0,0,0,0,0,0,0,0,0,0,0,0,0,0,0,0,0,0,0,0,0,0],"id":19,"left_children":[1,3,5,7,9,11,-1,13,15,17,19,-1,21,23,25,27,-1,29,31,33,35,37,-1,-1,-1,-1,-1,-1,-1,-1,-1,-1,-1,-1,-1,-1,-1,-1,-1],"loss_changes":[2.4015923E1,3.7514734E0,2.5938911E0,3.7312918E0,2.4402196E0,2.5243187E0,0E0,1.18995E0,4.5230305E-1,4.8584423E0,1.7398615E0,0E0,1.6231441E0,3.2984638E-1,6.225629E-1,5.2253768E-2,0E0,2.5820942E0,1.9826164E0,1.1407743E0,8.635235E-2,1.2196145E0,0E0,0E0,0E0,0E0,0E0,0E0,0E0,0E0,0E0,0E0,0E0,0E0,0E0,0E0,0E0,0E0,0E0],"parents":[2147483647,0,0,1,1,2,2,3,3,4,4,5,5,7,7,8,8,9,9,10,10,12,12,13,13,14,14,15,15,17,17,18,18,19,19,20,20,21,21],"right_children":[2,4,6,8,10,12,-1,14,16,18,20,-1,22,24,26,28,-1,30,32,34,36,38,-1,-1,-1,-1,-1,-1,-1,-1,-1,-1,-1,-1,-1,-1,-1,-1,-1],"split_conditions":[3.8194444E-2,-2.142E2,7.5963984E3,1.635E2,1.7867424E2,-2.462E2,3.9870035E-2,-8.334E2,-2.706818E3,5.594225E0,3.501325E2,3.283561E-2,1.5E2,-1.0793651E-1,-3.008E2,-1.25E2,-1.2829471E-2,1.9681418E3,2E-1,1.28E2,8E0,4E-1,3.954982E-2,-4.6575103E-2,-2.6822513E-2,-9.658439E-3,-2.5820699E-2,1.0617129E-2,3.301702E-3,1.1685557E-3,2.5245765E-2,-6.3185804E-3,-2.2420082E-2,-5.4561097E-2,-2.1675501E-2,-1.1486505E-2,-3.741968E-3,8.32607E-3,2.4440607E-2],"split_indices":[25,34,26,33,27,34,0,33,4,28,27,0,24,25,34,24,0,12,31,2,1,31,0,0,0,0,0,0,0,0,0,0,0,0,0,0,0,0,0],"split_type":[0,0,0,0,0,0,0,0,0,0,0,0,0,0,0,0,0,0,0,0,0,0,0,0,0,0,0,0,0,0,0,0,0,0,0,0,0,0,0],"sum_hessian":[1.5003043E2,9.016421E1,5.9866226E1,2.2178696E1,6.798551E1,5.652415E1,3.3420727E0,1.7201178E1,4.9775167E0,5.7040325E1,1.0945187E1,5.1298175E0,5.1394333E1,4.797488E0,1.240369E1,3.7286968E0,1.2488197E0,1.9106236E1,3.793409E1,4.4868965E0,6.45829E0,4.9765278E1,1.6290581E0,3.0507514E0,1.7467368E0,2.9841812E0,9.419509E0,1.9913652E0,1.7373316E0,1.3497743E1,5.608492E0,2.8945618E1,8.988474E0,1.4921709E0,2.9947257E0,4.4667974E0,1.9914929E0,4.51573E1,4.6079783E0],"tree_param":{"num_deleted":"0","num_feature":"35","num_nodes":"39","size_leaf_vector":"1"}},{"base_weights":[-3.6206094E-3,-5.293036E-1,1.6744177E-1,-8.9061683E-1,-2.9431394E-1,-2.8075084E-1,2.666843E-1,6.4227744E-3,-1.0381225E0,1.8463838E-1,-3.6499372E-1,-9.046614E-1,3.726028E-2,1.71317E-1,7.5371915E-1,-8.265331E-3,-1.1309466E0,-1.517199E-2,2.0213181E-2,-6.500233E-1,-2.7418005E-1,-1.1128828E-2,-1.2756445E0,-5.346191E-1,2.4448948E-1,6.02124E-1,7.470526E-2,4.729069E-1,1.2400508E0,-3.640902E-2,-1.8339999E-2,-2.4226837E-2,-1.5350463E-2,-2.9067472E-3,-1.0229862E-2,-4.487367E-2,-3.1143716E-2,1.6971688E-3,-2.4392612E-2,2.6272403E-3,1.4042118E-2,4.2340133E-2,1.2009812E-2,-8.9875853E-4,1.7356364E-2,-9.125254E-3,1.9673238E-2,2.626699E-2,4.385299E-2],"categories":[],"categories_nodes":[],"categories_segments":[],"categories_sizes":[],"default_left":[0,0,0,0,0,0,0,0,0,0,0,0,0,0,0,0,0,0,0,0,0,0,0,0,0,0,0,0,0,0,0,0,0,0,0,0,0,0,0,0,0,0,0,0,0,0,0,0,0],"id":20,"left_children":[1,3,5,7,9,11,13,-1,15,17,19,21,23,25,27,-1,29,-1,-1,31,33,-1,35,37,39,41,43,45,47,-1,-1,-1,-1,-1,-1,-1,-1,-1,-1,-1,-1,-1,-1,-1,-1,-1,-1,-1,-1],"loss_changes":[1.3976375E1,3.2136545E0,5.2234497E0,2.4645624E0,7.945018E-1,4.2309895E0,4.448735E0,0E0,9.060631E-1,1.0670124E0,5.0793815E-1,1.3777909E0,1.6970606E0,3.344266E0,2.085472E0,0E0,4.3154812E-1,0E0,0E0,6.4050436E-2,1.812129E-1,0E0,6.4602375E-2,6.319809E-1,3.6423105E-1,2.3479004E0,3.4734368E0,1.4572742E0,3.3145428E-1,0E0,0E0,0E0,0E0,0E0,0E0,0E0,0E0,0E0,0E0,0E0,0E0,0E0,0E0,0E0,0E0,0E0,0E0,0E0,0E0],"parents":[2147483647,0,0,1,1,2,2,3,3,4,4,5,5,6,6,8,8,9,9,10,10,11,11,12,12,13,13,14,14,16,16,19,19,20,20,22,22,23,23,24,24,25,25,26,26,27,27,28,28],"right_children":[2,4,6,8,10,12,14,-1,16,18,20,22,24,26,28,-1,30,-1,-1,32,34,-1,36,38,40,42,44,46,48,-1,-1,-1,-1,-1,-1,-1,-1,-1,-1,-1,-1,-1,-1,-1,-1,-1,-1,-1,-1],"split_conditions":[-6.8E1,-4.72E3,-1E-1,-3.237E2,-6.5E1,9.9E2,1.435E2,6.4227744E-3,-4E-1,1.9086E3,2.45E1,1.32E2,-5.3E1,-7.1450066E1,1.233E2,-8.265331E-3,1.3478448E2,-1.517199E-2,2.0213181E-2,1E0,1.26E2,-1.1128828E-2,8E0,4.4444445E-1,4.047619E-1,2E0,1.946E3,1.83E2,7.8E1,-3.640902E-2,-1.8339999E-2,-2.4226837E-2,-1.5350463E-2,-2.9067472E-3,-1.0229862E-2,-4.487367E-2,-3.1143716E-2,1.6971688E-3,-2.4392612E-2,2.6272403E-3,1.4042118E-2,4.2340133E-2,1.2009812E-2,-8.9875853E-4,1.7356364E-2,-9.125254E-3,1.9673238E-2,2.626699E-2,4.385299E-2],"split_indices":[24,16,31,34,29,21,22,0,31,23,29,8,29,28,34,0,28,0,0,0,2,0,0,3,9,0,7,2,24,0,0,0,0,0,0,0,0,0,0,0,0,0,0,0,0,0,0,0,0],"split_type":[0,0,0,0,0,0,0,0,0,0,0,0,0,0,0,0,0,0,0,0,0,0,0,0,0,0,0,0,0,0,0,0,0,0,0,0,0,0,0,0,0,0,0,0,0,0,0,0,0],"sum_hessian":[1.5522473E2,3.8058792E1,1.1716594E2,1.4888172E1,2.317062E1,2.1207432E1,9.59585E1,1.7484471E0,1.3139725E1,2.9588847E0,2.0211735E1,7.09776E0,1.4109672E1,8.035851E1,1.5599992E1,1.4688616E0,1.1670863E1,1.2256254E0,1.7332593E0,4.7349014E0,1.5476833E1,2.9925861E0,4.105174E0,3.7109036E0,1.0398768E1,1.4624102E1,6.573441E1,1.0014671E1,5.5853205E0,9.95339E0,1.7174736E0,1.9876692E0,2.7472324E0,4.303338E0,1.1173495E1,1.8555852E0,2.2495887E0,1.2137597E0,2.497144E0,6.192139E0,4.206629E0,2.7993217E0,1.182478E1,5.4505844E1,1.1228568E1,1.8951294E0,8.119542E0,2.299694E0,3.2856266E0],"tree_param":{"num_deleted":"0","num_feature":"35","num_nodes":"49","size_leaf_vector":"1"}},{"base_weights":[1.1581045E-2,-3.7471065E-1,3.8371885E-1,-8.89492E-1,-2.2818528E-1,7.592343E-1,2.8863007E-1,-1.165752E0,-3.1562725E-1,-1.4184409E-2,-4.9390498E-1,-2.639712E-3,8.3376426E-1,-5.3325987E-1,3.5793847E-1,-2.6505796E-2,-4.406631E-2,-4.194493E-1,-3.6836101E-3,-2.1964995E-2,6.013691E-2,-7.737251E-1,8.4997475E-2,7.364749E-1,3.9633382E-2,-2.151124E-2,-8.268035E-3,3.8602403E-1,-1.96915E-2,-9.948095E-3,-1.62502E-2,2.4299286E-2,-9.7273773E-4,-5.502013E-2,-1.9940494E-2,-2.0850632E-2,1.8430602E-2,1.6319394E-2,2.7507111E-2,1.5033059E-2,5.1084105E-3],"categories":[],"categories_nodes":[],"categories_segments":[],"categories_sizes":[],"default_left":[0,0,0,0,0,0,0,0,0,0,0,0,0,0,0,0,0,0,0,0,0,0,0,0,0,0,0,0,0,0,0,0,0,0,0,0,0,0,0,0,0],"id":21,"left_children":[1,3,5,7,9,11,13,15,17,19,21,-1,23,25,27,-1,-1,29,-1,-1,31,33,35,37,-1,-1,-1,39,-1,-1,-1,-1,-1,-1,-1,-1,-1,-1,-1,-1,-1],"loss_changes":[2.21636E1,5.685995E0,2.782033E0,2.6151295E0,3.3556578E0,1.0053434E0,3.5975876E0,8.330469E-1,1.06427014E-1,1.7544794E0,4.2713094E0,0E0,5.919552E-1,2.1348476E-1,1.6774817E0,0E0,0E0,2.0489395E-2,0E0,0E0,2.0718098E0,1.9312248E0,3.6222112E0,3.788433E-1,0E0,0E0,0E0,1.3940935E0,0E0,0E0,0E0,0E0,0E0,0E0,0E0,0E0,0E0,0E0,0E0,0E0,0E0],"parents":[2147483647,0,0,1,1,2,2,3,3,4,4,5,5,6,6,7,7,8,8,9,9,10,10,12,12,13,13,14,14,17,17,20,20,21,21,22,22,23,23,27,27],"right_children":[2,4,6,8,10,12,14,16,18,20,22,-1,24,26,28,-1,-1,30,-1,-1,32,34,36,38,-1,-1,-1,40,-1,-1,-1,-1,-1,-1,-1,-1,-1,-1,-1,-1,-1],"split_conditions":[0E0,-2.194E2,-6.516891E1,0E0,1.1E1,-1.2027006E2,-5.35E1,2E0,4E0,-1.115E2,8.648686E1,-2.639712E-3,4.78E3,2.2931948E3,2.1982E3,-2.6505796E-2,-4.406631E-2,6E0,-3.6836101E-3,-2.1964995E-2,-7.9190735E1,1.35E1,-4.51E3,-9.433093E1,3.9633382E-2,-2.151124E-2,-8.268035E-3,8E0,-1.96915E-2,-9.948095E-3,-1.62502E-2,2.4299286E-2,-9.7273773E-4,-5.502013E-2,-1.9940494E-2,-2.0850632E-2,1.8430602E-2,1.6319394E-2,2.7507111E-2,1.5033059E-2,5.1084105E-3],"split_indices":[26,34,28,31,29,28,29,0,0,29,28,0,32,26,23,0,0,1,0,0,28,29,32,28,0,0,0,0,0,0,0,0,0,0,0,0,0,0,0,0,0],"split_type":[0,0,0,0,0,0,0,0,0,0,0,0,0,0,0,0,0,0,0,0,0,0,0,0,0,0,0,0,0,0,0,0,0,0,0,0,0,0,0,0,0],"sum_hessian":[1.5397752E2,7.555165E1,7.842587E1,1.662759E1,5.892406E1,1.5705355E1,6.2720516E1,1.1154596E1,5.4729943E0,3.2696686E1,2.6227373E1,1.2684212E0,1.44369335E1,4.825708E0,5.789481E1,5.9791565E0,5.1754394E0,3.4812403E0,1.9917542E0,2.984054E0,2.9712633E1,1.765833E1,8.569042E0,1.2243819E1,2.1931143E0,2.7125924E0,2.1131155E0,5.6395226E1,1.4995843E0,2.2415082E0,1.239732E0,3.179608E0,2.6533026E1,1.4991626E0,1.6159168E1,3.4516532E0,5.1173887E0,6.118082E0,6.125737E0,3.669161E1,1.9703615E1],"tree_param":{"num_deleted":"0","num_feature":"35","num_nodes":"41","size_leaf_vector":"1"}},{"base_weights":[1.7009955E-2,-2.6830912E-1,4.344018E-1,-4.943706E-1,-1.295747E-1,1.2310268E0,3.704139E-1,-1.077913E-1,-7.4346876E-1,5.283862E-1,-1.9691649E-1,4.347593E-2,2.2470327E-2,1.8509749E-1,6.27917E-1,-5.37807E-1,1.2487484E-1,-1.029487E0,-2.626537E-1,2.2741236E-2,5.6671384E-3,-4.741598E-1,-3.8992837E-2,3.415096E-1,-1.0577337E-1,5.428018E-1,3.9868504E-2,-5.308182E-3,-3.8122706E-2,-1.4199705E-3,1.7942416E-2,-9.255321E-3,-3.507705E-2,-1.0553539E-2,-5.1591042E-3,-1.4295939E-3,-1.724468E-2,-2.7273933E-3,4.005344E-2,5.7818727E-3,2.4807693E-2,6.5373424E-3,-1.3527265E-2,2.7506666E-2,1.1721097E-2],"categories":[],"categories_nodes":[],"categories_segments":[],"categories_sizes":[],"default_left":[0,0,0,0,0,0,0,0,0,0,0,0,0,0,0,0,0,0,0,0,0,0,0,0,0,0,0,0,0,0,0,0,0,0,0,0,0,0,0,0,0,0,0,0,0],"id":22,"left_children":[1,3,5,7,9,11,13,15,17,19,21,-1,-1,23,25,27,29,31,33,-1,-1,35,37,39,41,43,-1,-1,-1,-1,-1,-1,-1,-1,-1,-1,-1,-1,-1,-1,-1,-1,-1,-1,-1],"loss_changes":[1.788446E1,2.7912679E0,3.0625067E0,3.2554178E0,2.4657407E0,3.6367893E-1,2.6885138E0,1.347086E0,2.804885E0,3.8892567E-1,2.2023168E0,0E0,0E0,1.5070424E0,1.3383064E0,1.226606E0,7.1785927E-1,1.261406E0,5.7116687E-2,0E0,0E0,7.8124905E-1,2.3081372E0,1.5377593E0,1.309315E0,1.1731324E0,0E0,0E0,0E0,0E0,0E0,0E0,0E0,0E0,0E0,0E0,0E0,0E0,0E0,0E0,0E0,0E0,0E0,0E0,0E0],"parents":[2147483647,0,0,1,1,2,2,3,3,4,4,5,5,6,6,7,7,8,8,9,9,10,10,13,13,14,14,15,15,16,16,17,17,18,18,21,21,22,22,23,23,24,24,25,25],"right_children":[2,4,6,8,10,12,14,16,18,20,22,-1,-1,24,26,28,30,32,34,-1,-1,36,38,40,42,44,-1,-1,-1,-1,-1,-1,-1,-1,-1,-1,-1,-1,-1,-1,-1,-1,-1,-1,-1],"split_conditions":[3.3204384E-2,-3.89E3,-3.1749942E2,-7.78E3,-3.56E3,8.5332885E-2,1.6254579E-1,-3E-1,1.41E2,1.32E2,1.258E2,4.347593E-2,2.2470327E-2,9E0,8.334E2,-1.8891147E2,3.3E1,1.91425E3,5E0,2.2741236E-2,5.6671384E-3,-6.79E3,0E0,6E-1,2.1305E3,4E0,3.9868504E-2,-5.308182E-3,-3.8122706E-2,-1.4199705E-3,1.7942416E-2,-9.255321E-3,-3.507705E-2,-1.0553539E-2,-5.1591042E-3,-1.4295939E-3,-1.724468E-2,-2.7273933E-3,4.005344E-2,5.7818727E-3,2.4807693E-2,6.5373424E-3,-1.3527265E-2,2.7506666E-2,1.1721097E-2],"split_indices":[25,32,27,32,32,25,25,31,2,2,17,0,0,1,33,27,29,12,1,0,0,16,25,15,18,1,0,0,0,0,0,0,0,0,0,0,0,0,0,0,0,0,0,0,0],"split_type":[0,0,0,0,0,0,0,0,0,0,0,0,0,0,0,0,0,0,0,0,0,0,0,0,0,0,0,0,0,0,0,0,0,0,0,0,0,0,0,0,0,0,0,0,0],"sum_hessian":[1.499783E2,8.910439E1,6.0873913E1,3.3789528E1,5.5314865E1,4.3904634E0,5.6483448E1,1.3296991E1,2.0492538E1,5.072223E0,5.024264E1,2.8843086E0,1.5061549E0,3.2945526E1,2.3537922E1,4.622498E0,8.674493E0,1.2777554E1,7.7149854E0,2.9519634E0,2.12026E0,1.8160564E1,3.2082077E1,2.1413357E1,1.1532171E1,2.1147722E1,2.3901997E0,3.1806479E0,1.4418501E0,6.425975E0,2.2485185E0,2.1266541E0,1.0650899E1,3.745594E0,3.9693913E0,3.4958887E0,1.4664676E1,3.1003983E1,1.0780932E0,1.649676E1,4.9165964E0,5.9700403E0,5.562131E0,5.9675884E0,1.5180134E1],"tree_param":{"num_deleted":"0","num_feature":"35","num_nodes":"45","size_leaf_vector":"1"}},{"base_weights":[-1.6430007E-2,-3.276174E-1,4.7457E-1,-9.697758E-1,-2.744598E-1,-2.7339336E-1,5.360777E-1,-5.568839E-1,-4.5171E-2,-1.0860219E0,-2.3385718E-1,-1.2440621E-2,-1.7084263E-3,7.0930403E-1,2.4925044E-1,-3.3974745E-3,-3.149793E-2,-4.746843E-2,-1.1380399E-2,-2.830018E-2,-3.756557E-1,3.350365E-1,7.9818404E-1,3.4354246E-1,6.526142E-2,-3.8692271E-3,3.3429023E-2,-4.2885137E-3,-1.6365763E-2,-7.981151E-3,2.142573E-2,1.2170082E-2,2.6720624E-2,8.263308E-3,2.4791144E-2,2.6165142E-3,9.518833E-4],"categories":[],"categories_nodes":[],"categories_segments":[],"categories_sizes":[],"default_left":[0,0,0,0,0,0,0,0,0,0,0,0,0,0,0,0,0,0,0,0,0,0,0,0,0,0,0,0,0,0,0,0,0,0,0,0,0],"id":23,"left_children":[1,3,5,7,9,11,13,15,-1,17,19,-1,-1,21,23,-1,-1,-1,-1,25,27,29,31,33,35,-1,-1,-1,-1,-1,-1,-1,-1,-1,-1,-1,-1],"loss_changes":[2.3671429E1,3.2102137E0,2.779602E0,1.5115294E0,2.8648777E0,1.3932571E-1,2.7432451E0,9.135784E-1,0E0,1.3959765E0,2.4374638E0,0E0,0E0,1.1238937E0,3.6342096E-1,0E0,0E0,0E0,0E0,3.9553716E0,1.9489398E0,1.5710768E0,9.761524E-1,4.3466783E-1,5.0720554E-3,0E0,0E0,0E0,0E0,0E0,0E0,0E0,0E0,0E0,0E0,0E0,0E0],"parents":[2147483647,0,0,1,1,2,2,3,3,4,4,5,5,6,6,7,7,9,9,10,10,13,13,14,14,19,19,20,20,21,21,22,22,23,23,24,24],"right_children":[2,4,6,8,10,12,14,16,-1,18,20,-1,-1,22,24,-1,-1,-1,-1,26,28,30,32,34,36,-1,-1,-1,-1,-1,-1,-1,-1,-1,-1,-1,-1],"split_conditions":[3.8194444E-2,-2.6656473E-1,-3.49E3,7.1450066E1,-9.95E1,3.1022845E2,1.3294203E2,-3.0475917E-1,-4.5171E-2,-1.9691429E2,1.7019061E0,-1.2440621E-2,-1.7084263E-3,8.966189E-2,1.596E2,-3.3974745E-3,-3.149793E-2,-4.746843E-2,-1.1380399E-2,-5.594225E0,-6.92E1,-3.916207E2,-6.25E1,1E-1,6E-1,-3.8692271E-3,3.3429023E-2,-4.2885137E-3,-1.6365763E-2,-7.981151E-3,2.142573E-2,1.2170082E-2,2.6720624E-2,8.263308E-3,2.4791144E-2,2.6165142E-3,9.518833E-4],"split_indices":[25,25,32,28,29,5,11,25,0,5,28,0,0,25,34,0,0,0,0,28,34,11,34,31,15,0,0,0,0,0,0,0,0,0,0,0,0],"split_type":[0,0,0,0,0,0,0,0,0,0,0,0,0,0,0,0,0,0,0,0,0,0,0,0,0,0,0,0,0,0,0,0,0,0,0,0,0],"sum_hessian":[1.5472305E2,9.47227E1,6.000035E1,7.109817E0,8.7612885E1,4.5329523E0,5.54674E1,4.1310463E0,2.9787705E0,4.0517654E0,8.356112E1,2.6871884E0,1.8457637E0,3.449014E1,2.097726E1,2.2392132E0,1.8918333E0,2.3074586E0,1.7443068E0,3.416054E1,4.9400578E1,6.7103333E0,2.7779804E1,1.3812046E1,7.165215E0,3.1475924E1,2.6846173E0,2.0922674E1,2.8477903E1,2.607109E0,4.1032243E0,5.4009233E0,2.2378881E1,1.2242408E1,1.5696385E0,4.233286E0,2.9319289E0],"tree_param":{"num_deleted":"0","num_feature":"35","num_nodes":"37","size_leaf_vector":"1"}},{"base_weights":[-3.6030967E-2,-3.203235E-1,3.750731E-1,-1.1155263E-1,-4.8404935E-1,-4.731869E-1,4.2845336E-1,-1.8326363E-1,3.598542E-2,-3.832393E-1,-1.3198292E0,-1.1919631E-2,-1.6782857E-2,6.91039E-5,5.291081E-1,4.40901E-2,-5.3091127E-1,-1.2083217E0,-2.9952645E-1,-2.4571251E-2,-4.6248294E-2,1.507495E-1,-3.312519E-2,8.105433E-1,4.1778573E-1,2.914742E-2,-7.265472E-4,-3.871972E-2,-9.772274E-3,-4.3339785E-2,-2.5342248E-2,-1.3793346E-2,1.9113171E-3,-1.7709729E-3,2.1039702E-2,-2.9615246E-4,2.7005076E-2,1.5994137E-2,-4.747511E-3],"categories":[],"categories_nodes":[],"categories_segments":[],"categories_sizes":[],"default_left":[0,0,0,0,0,0,0,0,0,0,0,0,0,0,0,0,0,0,0,0,0,0,0,0,0,0,0,0,0,0,0,0,0,0,0,0,0,0,0],"id":24,"left_children":[1,3,5,7,9,11,13,15,-1,17,19,-1,-1,21,23,25,27,29,31,-1,-1,33,-1,35,37,-1,-1,-1,-1,-1,-1,-1,-1,-1,-1,-1,-1,-1,-1],"loss_changes":[1.7620235E1,3.040865E0,2.8113108E0,3.717065E0,4.15536E0,1.95992E-3,2.502716E0,2.9544823E0,0E0,3.0503397E0,4.6595E-1,0E0,0E0,1.8707213E0,1.4386215E0,1.4389057E0,2.2611718E0,2.2883654E-1,2.3722649E0,0E0,0E0,1.146801E0,0E0,9.725914E-1,2.2599401E0,0E0,0E0,0E0,0E0,0E0,0E0,0E0,0E0,0E0,0E0,0E0,0E0,0E0,0E0],"parents":[2147483647,0,0,1,1,2,2,3,3,4,4,5,5,6,6,7,7,9,9,10,10,13,13,14,14,15,15,16,16,17,17,18,18,21,21,23,23,24,24],"right_children":[2,4,6,8,10,12,14,16,-1,18,20,-1,-1,22,24,26,28,30,32,-1,-1,34,-1,36,38,-1,-1,-1,-1,-1,-1,-1,-1,-1,-1,-1,-1,-1,-1],"split_conditions":[6.733672E2,5.594225E0,-4.16E3,5.78E3,4.66E3,4E0,1.32E2,6E0,3.598542E-2,-2.452E2,1.26E2,-1.1919631E-2,-1.6782857E-2,5.2459013E-1,-6.516891E1,-4.6474834E3,-5.56E3,-5.593158E3,5E0,-2.4571251E-2,-4.6248294E-2,4.8672363E1,-3.312519E-2,-1.2027006E2,1.9335E3,2.914742E-2,-7.265472E-4,-3.871972E-2,-9.772274E-3,-4.3339785E-2,-2.5342248E-2,-1.3793346E-2,1.9113171E-3,-1.7709729E-3,2.1039702E-2,-2.9615246E-4,2.7005076E-2,1.5994137E-2,-4.747511E-3],"split_indices":[26,28,32,32,32,1,2,1,0,34,2,0,0,9,28,26,32,26,1,0,0,28,0,28,13,0,0,0,0,0,0,0,0,0,0,0,0,0,0],"split_type":[0,0,0,0,0,0,0,0,0,0,0,0,0,0,0,0,0,0,0,0,0,0,0,0,0,0,0,0,0,0,0,0,0,0,0,0,0,0,0],"sum_hessian":[1.505601E2,8.902107E1,6.1539032E1,3.9201904E1,4.981917E1,3.5967653E0,5.794227E1,3.725045E1,1.9514542E0,4.458703E1,5.232143E0,2.2117867E0,1.3849787E0,1.1043111E1,4.689916E1,2.257453E1,1.4675919E1,3.9833462E0,4.060368E1,1.7499671E0,3.482176E0,9.793128E0,1.2499825E0,1.3114971E1,3.3784187E1,1.4578259E0,2.1116705E1,3.0080285E0,1.166789E1,2.2339008E0,1.7494454E0,2.8155535E1,1.2448147E1,7.1558533E0,2.6372747E0,1.3004006E0,1.181457E1,2.815379E1,5.630396E0],"tree_param":{"num_deleted":"0","num_feature":"35","num_nodes":"39","size_leaf_vector":"1"}},{"base_weights":[4.831657E-2,-2.949811E-1,2.8343013E-1,6.273255E-1,-3.5341737E-1,4.561263E-1,-1.749723E-2,3.1680755E-2,6.7047304E-3,-7.164046E-1,-1.6063032E-1,4.8983112E-2,5.31759E-1,3.1535987E-2,-6.2303904E-2,-4.2659077E-1,-1.1063194E0,3.3547607E-1,-2.4727988E-1,1.345075E-2,-6.656624E-2,9.652316E-1,4.6251327E-1,-2.5806656E-1,1.5175618E-1,-8.514593E-3,-4.2921092E-2,-3.5895914E-2,-1.905389E-2,2.3305234E-2,-1.4446373E-2,-9.212288E-3,1.8081157E-2,6.175915E-3,-6.1721443E-3,2.6265182E-2,3.9425187E-2,1.6591335E-2,-4.7391938E-4,-8.6926725E-3,-6.037056E-3,-7.3664817E-3,7.5968527E-3],"categories":[],"categories_nodes":[],"categories_segments":[],"categories_sizes":[],"default_left":[0,0,0,0,0,0,0,0,0,0,0,0,0,0,0,0,0,0,0,0,0,0,0,0,0,0,0,0,0,0,0,0,0,0,0,0,0,0,0,0,0,0,0],"id":25,"left_children":[1,3,5,7,9,11,13,-1,-1,15,17,19,21,-1,23,25,27,29,31,-1,33,35,37,39,41,-1,-1,-1,-1,-1,-1,-1,-1,-1,-1,-1,-1,-1,-1,-1,-1,-1,-1],"loss_changes":[1.2413688E1,3.391931E0,4.7441034E0,6.27586E-1,4.107597E0,1.7832642E0,1.6047754E0,0E0,0E0,2.2568274E0,1.6664366E0,4.2734876E-1,1.42313E0,0E0,1.3502339E0,1.6594224E0,2.908554E-1,2.1209054E0,1.6904271E0,0E0,2.7795386E-1,9.294605E-2,1.8349724E0,2.4457574E-2,6.274675E-1,0E0,0E0,0E0,0E0,0E0,0E0,0E0,0E0,0E0,0E0,0E0,0E0,0E0,0E0,0E0,0E0,0E0,0E0],"parents":[2147483647,0,0,1,1,2,2,3,3,4,4,5,5,6,6,9,9,10,10,11,11,12,12,14,14,15,15,16,16,17,17,18,18,20,20,21,21,22,22,23,23,24,24],"right_children":[2,4,6,8,10,12,14,-1,-1,16,18,20,22,-1,24,26,28,30,32,-1,34,36,38,40,42,-1,-1,-1,-1,-1,-1,-1,-1,-1,-1,-1,-1,-1,-1,-1,-1,-1,-1],"split_conditions":[4.944238E-1,-1.124E4,1.4714286E3,5E0,-4.66E3,-5.7E1,-1.03E2,3.1680755E-2,6.7047304E-3,-6.8E3,-7.177953E1,-1.6E2,-1.4E3,3.1535987E-2,6.92E1,5.559375E1,1E1,8E0,1.491E2,1.345075E-2,2E0,4E0,1E1,2.18E2,-4.16E3,-8.514593E-3,-4.2921092E-2,-3.5895914E-2,-1.905389E-2,2.3305234E-2,-1.4446373E-2,-9.212288E-3,1.8081157E-2,6.175915E-3,-6.1721443E-3,2.6265182E-2,3.9425187E-2,1.6591335E-2,-4.7391938E-4,-8.6926725E-3,-6.037056E-3,-7.3664817E-3,7.5968527E-3],"split_indices":[3,32,10,1,32,24,24,0,0,32,28,24,32,0,34,28,0,1,34,0,0,1,1,2,32,0,0,0,0,0,0,0,0,0,0,0,0,0,0,0,0,0,0],"split_type":[0,0,0,0,0,0,0,0,0,0,0,0,0,0,0,0,0,0,0,0,0,0,0,0,0,0,0,0,0,0,0,0,0,0,0,0,0,0,0,0,0,0,0],"sum_hessian":[1.53595E2,6.2423203E1,9.11718E1,3.661399E0,5.8761803E1,5.7895283E1,3.3276516E1,1.6976842E0,1.9637147E0,2.0289087E1,3.8472717E1,9.095812E0,4.8799473E1,1.2486452E0,3.202787E1,1.1758615E1,8.530474E0,5.6777825E0,3.2794933E1,1.9764724E0,7.11934E0,6.543539E0,4.225593E1,1.6718176E1,1.5309696E1,1.0407129E1,1.351485E0,7.030517E0,1.4999564E0,3.689557E0,1.9882255E0,3.0699125E1,2.0958087E0,2.3910062E0,4.7283335E0,5.484244E0,1.0592952E0,3.5517757E1,6.738174E0,1.0470157E1,6.2480187E0,3.0857458E0,1.222395E1],"tree_param":{"num_deleted":"0","num_feature":"35","num_nodes":"43","size_leaf_vector":"1"}},{"base_weights":[1.0988289E-2,-2.1910132E-1,3.8803926E-1,8.107924E-2,-4.6068743E-1,3.4598255E-1,4.1483074E-2,1.9076064E-2,4.4651624E-2,-6.800679E-1,-1.3082553E-1,3.1087247E-1,3.7808124E-2,5.0522053E-1,-1.186914E-1,-6.047694E-1,-4.189711E-2,1.2800704E-1,-6.7613983E-1,2.627354E-1,2.9240483E-2,2.3697322E-2,6.7999437E-3,-4.0377155E-2,-1.8157329E-3,8.709472E-3,-1.9440273E-2,1.4300256E-2,-7.393284E-3,-4.6411537E-2,-1.3760464E-2,9.3755545E-3,-7.54792E-3],"categories":[],"categories_nodes":[],"categories_segments":[],"categories_sizes":[],"default_left":[0,0,0,0,0,0,0,0,0,0,0,0,0,0,0,0,0,0,0,0,0,0,0,0,0,0,0,0,0,0,0,0,0],"id":26,"left_children":[1,3,5,7,9,11,-1,13,-1,15,17,19,-1,21,23,25,-1,27,29,31,-1,-1,-1,-1,-1,-1,-1,-1,-1,-1,-1,-1,-1],"loss_changes":[1.2795863E1,6.646552E0,2.2905245E0,3.5687685E0,3.6649942E0,1.6865869E0,0E0,2.6384983E0,0E0,1.5592623E0,2.8883045E0,1.6329737E0,0E0,6.718836E-1,2.183862E0,1.0926628E0,0E0,1.8290309E0,1.1757271E0,1.2505507E0,0E0,0E0,0E0,0E0,0E0,0E0,0E0,0E0,0E0,0E0,0E0,0E0,0E0],"parents":[2147483647,0,0,1,1,2,2,3,3,4,4,5,5,7,7,9,9,10,10,11,11,13,13,14,14,15,15,17,17,18,18,19,19],"right_children":[2,4,6,8,10,12,-1,14,-1,16,18,20,-1,22,24,26,-1,28,30,32,-1,-1,-1,-1,-1,-1,-1,-1,-1,-1,-1,-1,-1],"split_conditions":[1.6398301E3,5.594225E0,1.131E4,1.2042E3,6.6E1,1.64E2,4.1483074E-2,-2.948915E3,4.4651624E-2,3.56E3,9.950708E1,1.418821E3,3.7808124E-2,-8.66E1,-2.6887415E3,8.233272E0,-4.189711E-2,9.9E2,1.9086E3,2.896E2,2.9240483E-2,2.3697322E-2,6.7999437E-3,-4.0377155E-2,-1.8157329E-3,8.709472E-3,-1.9440273E-2,1.4300256E-2,-7.393284E-3,-4.6411537E-2,-1.3760464E-2,9.3755545E-3,-7.54792E-3],"split_indices":[26,28,32,33,29,24,0,26,0,32,28,27,0,34,26,28,0,21,23,34,0,0,0,0,0,0,0,0,0,0,0,0,0],"split_type":[0,0,0,0,0,0,0,0,0,0,0,0,0,0,0,0,0,0,0,0,0,0,0,0,0,0,0,0,0,0,0,0,0],"sum_hessian":[1.4729536E2,9.150048E1,5.5794884E1,4.0831776E1,5.0668705E1,5.3660908E1,2.133976E0,3.9205803E1,1.6259732E0,3.0366657E1,2.030205E1,5.18055E1,1.8554101E0,8.59823E0,3.060757E1,2.7645723E1,2.7209322E0,1.3819278E1,6.482773E0,4.8432903E1,3.3725948E0,4.161505E0,4.436725E0,1.2848923E0,2.932268E1,1.2476342E0,2.639809E1,7.141855E0,6.677423E0,1.1731031E0,5.3096695E0,4.419449E1,4.238415E0],"tree_param":{"num_deleted":"0","num_feature":"35","num_nodes":"33","size_leaf_vector":"1"}},{"base_weights":[1.0010735E-2,-3.0725777E-1,3.6386898E-1,-7.971387E-1,-2.654802E-1,-1.6544811E-1,4.4891968E-1,-4.970033E-1,-4.1926373E-2,-6.8330646E-1,-2.1331835E-1,2.970032E-1,-8.2142293E-1,8.229321E-1,3.3162674E-1,-6.4691175E-3,-2.2595229E-2,-4.0578667E-2,-4.913375E-1,2.08046E-1,-2.4348131E-1,1.5426105E-1,2.4033418E-2,-3.4881767E-2,-7.755846E-3,3.909123E-1,3.436096E-2,1.3745716E-1,4.5764786E-1,-2.3116851E-3,-1.8350406E-2,1.7648809E-2,-1.1220346E-2,-8.80573E-3,1.3221239E-3,2.7700092E-3,5.5825445E-3,-1.9828558E-3,1.651997E-2,-2.8647926E-2,6.399961E-3,4.0339876E-2,1.0492871E-2],"categories":[],"categories_nodes":[],"categories_segments":[],"categories_sizes":[],"default_left":[0,0,0,0,0,0,0,0,0,0,0,0,0,0,0,0,0,0,0,0,0,0,0,0,0,0,0,0,0,0,0,0,0,0,0,0,0,0,0,0,0,0,0],"id":27,"left_children":[1,3,5,7,9,11,13,15,-1,17,19,21,23,25,27,-1,-1,-1,29,31,33,35,-1,-1,-1,37,-1,39,41,-1,-1,-1,-1,-1,-1,-1,-1,-1,-1,-1,-1,-1,-1],"loss_changes":[1.7282265E1,1.6400003E0,3.283495E0,1.0708923E0,1.618681E0,3.1026218E0,2.7243452E0,2.9904592E-1,0E0,9.963553E-1,8.536463E-1,4.2118466E-1,7.811127E-1,2.0317402E0,1.1662097E0,0E0,0E0,0E0,3.235917E-1,1.0210888E0,8.985503E-1,7.779442E-3,0E0,0E0,0E0,4.798512E-1,0E0,1.5953586E0,2.7295642E0,0E0,0E0,0E0,0E0,0E0,0E0,0E0,0E0,0E0,0E0,0E0,0E0,0E0,0E0],"parents":[2147483647,0,0,1,1,2,2,3,3,4,4,5,5,6,6,7,7,9,9,10,10,11,11,12,12,13,13,14,14,18,18,19,19,20,20,21,21,25,25,27,27,28,28],"right_children":[2,4,6,8,10,12,14,16,-1,18,20,22,24,26,28,-1,-1,-1,30,32,34,36,-1,-1,-1,38,-1,40,42,-1,-1,-1,-1,-1,-1,-1,-1,-1,-1,-1,-1,-1,-1],"split_conditions":[0E0,-2.6656473E-1,-4.16E3,-7.282569E3,-8.25E1,1.3294203E2,-1.082E2,-2E-1,-4.1926373E-2,-2.1719048E2,-7.1E1,4.44E1,2.18E2,-4.621E2,-2.29E1,-6.4691175E-3,-2.2595229E-2,-4.0578667E-2,-2.3542888E3,1.83E2,8.66E1,1.32E2,2.4033418E-2,-3.4881767E-2,-7.755846E-3,1.05E2,3.436096E-2,4.4444445E-1,9.7E0,-2.3116851E-3,-1.8350406E-2,1.7648809E-2,-1.1220346E-2,-8.80573E-3,1.3221239E-3,2.7700092E-3,5.5825445E-3,-1.9828558E-3,1.651997E-2,-2.8647926E-2,6.399961E-3,4.0339876E-2,1.0492871E-2],"split_indices":[25,25,32,26,29,5,33,31,0,5,29,34,2,33,34,0,0,0,26,2,34,2,0,0,0,8,0,9,34,0,0,0,0,0,0,0,0,0,0,0,0,0,0],"split_type":[0,0,0,0,0,0,0,0,0,0,0,0,0,0,0,0,0,0,0,0,0,0,0,0,0,0,0,0,0,0,0,0,0,0,0,0,0,0,0,0,0,0,0],"sum_hessian":[1.537379E2,8.106678E1,7.267112E1,6.228128E0,7.4838646E1,1.0047224E1,6.2623898E1,4.2742605E0,1.9538677E0,8.171712E0,6.666694E1,5.9249535E0,4.12227E0,1.4807037E1,4.7816856E1,2.1247325E0,2.1495278E0,1.6866077E0,6.485104E0,4.414092E0,6.2252846E1,4.7192645E0,1.2056891E0,2.49992E0,1.6223505E0,6.4226866E0,8.384352E0,1.8902117E1,2.8914742E1,1.4967057E0,4.9883986E0,2.669249E0,1.7448432E0,5.3023094E1,9.229752E0,1.734384E0,2.9848804E0,1.6787896E0,4.743897E0,1.1523864E0,1.774973E1,3.0111606E0,2.5903582E1],"tree_param":{"num_deleted":"0","num_feature":"35","num_nodes":"43","size_leaf_vector":"1"}},{"base_weights":[-1.513812E-2,-3.2433626E-1,4.6524328E-1,-1.3153353E-1,-4.877184E-1,-2.5027984E-1,5.518585E-1,5.3409857E-1,-2.5821552E-1,-5.511337E-1,2.201064E-2,-6.468922E-1,9.218442E-3,3.873314E-2,4.9976102E-1,2.7144859E-2,4.1564137E-1,-9.366513E-1,-1.4360945E-1,-9.588502E-1,-4.9041095E-1,-2.2904312E-2,-1.283893E-2,6.372488E-1,3.0966493E-1,1.4730378E-2,8.8600805E-3,-1.399919E-2,-3.680273E-2,3.922614E-3,-1.1405909E-2,-3.631265E-2,-2.1870473E-2,-3.9802127E-2,-1.3935664E-2,1.1995814E-2,2.3679802E-2,7.3397597E-3,3.8196467E-2],"categories":[],"categories_nodes":[],"categories_segments":[],"categories_sizes":[],"default_left":[0,0,0,0,0,0,0,0,0,0,0,0,0,0,0,0,0,0,0,0,0,0,0,0,0,0,0,0,0,0,0,0,0,0,0,0,0,0,0],"id":28,"left_children":[1,3,5,7,9,11,13,15,17,19,-1,21,-1,-1,23,-1,25,27,29,31,33,-1,-1,35,37,-1,-1,-1,-1,-1,-1,-1,-1,-1,-1,-1,-1,-1,-1],"loss_changes":[2.2073095E1,2.8415499E0,3.6205025E0,3.5223308E0,3.8281794E0,1.4247072E0,1.9359455E0,2.5597823E-1,2.7096725E0,1.1053333E0,0E0,6.289661E-2,0E0,0E0,1.2527285E0,0E0,3.3115745E-2,6.3041115E-1,1.9574666E0,2.5456572E-1,8.1994534E-1,0E0,0E0,9.849882E-1,1.260944E0,0E0,0E0,0E0,0E0,0E0,0E0,0E0,0E0,0E0,0E0,0E0,0E0,0E0,0E0],"parents":[2147483647,0,0,1,1,2,2,3,3,4,4,5,5,6,6,7,7,8,8,9,9,11,11,14,14,16,16,17,17,18,18,19,19,20,20,23,23,24,24],"right_children":[2,4,6,8,10,12,14,16,18,20,-1,22,-1,-1,24,-1,26,28,30,32,34,-1,-1,36,38,-1,-1,-1,-1,-1,-1,-1,-1,-1,-1,-1,-1,-1,-1],"split_conditions":[3.8194444E-2,8.233272E0,-5.68E2,-3.6137932E3,2.462E2,2.08E2,-4.39E2,5.8E1,-9.586911E1,1.8989E3,2.201064E-2,1.2286325E-1,9.218442E-3,3.873314E-2,1.5821679E-1,2.7144859E-2,-1.517486E-1,-1.3478448E2,4E0,3E0,-2.452E2,-2.2904312E-2,-1.283893E-2,1E-1,9.9E2,1.4730378E-2,8.8600805E-3,-1.399919E-2,-3.680273E-2,3.922614E-3,-1.1405909E-2,-3.631265E-2,-2.1870473E-2,-3.9802127E-2,-1.3935664E-2,1.1995814E-2,2.3679802E-2,7.3397597E-3,3.8196467E-2],"split_indices":[25,28,33,26,34,2,33,2,28,18,0,25,0,0,25,0,25,28,24,1,34,0,0,31,16,0,0,0,0,0,0,0,0,0,0,0,0,0,0],"split_type":[0,0,0,0,0,0,0,0,0,0,0,0,0,0,0,0,0,0,0,0,0,0,0,0,0,0,0,0,0,0,0,0,0,0,0,0,0,0,0],"sum_hessian":[1.4840573E2,9.031004E1,5.80957E1,4.150805E1,4.880199E1,6.252794E0,5.1842907E1,6.585242E0,3.4922806E1,4.6445427E1,2.3565638E0,3.6443918E0,2.608402E0,3.2564654E0,4.858644E1,1.4338725E0,5.151369E0,4.9431953E0,2.9979612E1,5.828888E0,4.061654E1,2.2157247E0,1.4286671E0,2.805809E1,2.0528349E1,2.9777024E0,2.173667E0,1.9861751E0,2.9570203E0,1.390229E1,1.6077322E1,2.5791547E0,3.2497334E0,1.0686773E0,3.9547863E1,1.1097778E1,1.6960312E1,1.9348394E1,1.1799543E0],"tree_param":{"num_deleted":"0","num_feature":"35","num_nodes":"39","size_leaf_vector":"1"}},{"base_weights":[7.4526267E-3,-1.9946525E-1,3.5131782E-1,-2.7577186E-1,1.04356736E-1,2.7127838E-1,4.0667262E-2,-3.7804553E-1,-1.0959862E-1,-8.70401E-1,2.7898964E-1,5.4679096E-2,4.2402637E-1,-3.0994272E-1,-7.3751855E-1,-1.9875685E-2,-4.886615E-2,-1.5405637E-2,-4.0349476E-2,1.6259928E-1,4.029749E-2,-1.0832912E-2,3.588186E-2,8.120614E-1,2.8451064E-1,-2.1474076E-2,-6.7795473E-3,-4.0245596E-2,-1.6009863E-2,-4.843041E-5,-2.7473457E-2,1.1940512E-2,-1.8124096E-4,4.0574274E-3,-9.224087E-3,3.3085797E-2,1.8362135E-2,-1.1809526E-3,1.6315546E-2],"categories":[],"categories_nodes":[],"categories_segments":[],"categories_sizes":[],"default_left":[0,0,0,0,0,0,0,0,0,0,0,0,0,0,0,0,0,0,0,0,0,0,0,0,0,0,0,0,0,0,0,0,0,0,0,0,0,0,0],"id":29,"left_children":[1,3,5,7,9,11,-1,13,15,17,19,21,23,25,27,-1,29,-1,-1,31,-1,33,-1,35,37,-1,-1,-1,-1,-1,-1,-1,-1,-1,-1,-1,-1,-1,-1],"loss_changes":[1.0611853E1,2.1616392E0,4.4668846E0,1.2611675E0,3.2184684E0,1.7187207E0,0E0,1.104394E0,9.5398974E-1,4.1791153E-1,1.9587408E0,1.6184912E0,1.6275783E0,1.3088088E0,8.225167E-1,0E0,1.0563911E0,0E0,0E0,5.769682E-1,0E0,8.9477015E-1,0E0,3.98314E-1,1.8988303E0,0E0,0E0,0E0,0E0,0E0,0E0,0E0,0E0,0E0,0E0,0E0,0E0,0E0,0E0],"parents":[2147483647,0,0,1,1,2,2,3,3,4,4,5,5,7,7,8,8,9,9,10,10,11,11,12,12,13,13,14,14,16,16,19,19,21,21,23,23,24,24],"right_children":[2,4,6,8,10,12,-1,14,16,18,20,22,24,26,28,-1,30,-1,-1,32,-1,34,-1,36,38,-1,-1,-1,-1,-1,-1,-1,-1,-1,-1,-1,-1,-1,-1],"split_conditions":[3.8194444E-2,2.04E2,4E-1,1.258E2,1.05E2,1.32E2,4.0667262E-2,2.0168142E3,-8.7472845E2,5.8E1,-1E1,1.64E2,5.4409265E2,-3.916207E2,-2.45E3,-1.9875685E-2,-2.887538E-2,-1.5405637E-2,-4.0349476E-2,-1.28E2,4.029749E-2,9.9E1,3.588186E-2,2.08E2,1.3E1,-2.1474076E-2,-6.7795473E-3,-4.0245596E-2,-1.6009863E-2,-4.843041E-5,-2.7473457E-2,1.1940512E-2,-1.8124096E-4,4.0574274E-3,-9.224087E-3,3.3085797E-2,1.8362135E-2,-1.1809526E-3,1.6315546E-2],"split_indices":[25,22,31,17,2,8,0,12,27,2,24,24,27,5,4,0,25,0,0,24,0,24,0,2,24,0,0,0,0,0,0,0,0,0,0,0,0,0,0],"split_type":[0,0,0,0,0,0,0,0,0,0,0,0,0,0,0,0,0,0,0,0,0,0,0,0,0,0,0,0,0,0,0,0,0,0,0,0,0,0,0],"sum_hessian":[1.4894524E2,9.3015785E1,5.5929443E1,7.435127E1,1.8664513E1,5.1918545E1,4.0109005E0,4.594579E1,2.8405487E1,2.7752628E0,1.5889249E1,2.1527695E1,3.0390848E1,3.8784264E1,7.161526E0,2.7131724E0,2.5692314E1,1.702904E0,1.072359E0,1.4426776E1,1.4624733E0,2.0452814E1,1.0748801E0,7.909659E0,2.248119E1,6.51887E0,3.2265392E1,1.6663285E0,5.4951973E0,2.445933E1,1.2329853E0,5.9644914E0,8.462284E0,1.3740586E1,6.712228E0,3.0391243E0,4.8705344E0,1.0034504E1,1.2446686E1],"tree_param":{"num_deleted":"0","num_feature":"35","num_nodes":"39","size_leaf_vector":"1"}},{"base_weights":[2.520827E-2,-2.795011E-1,2.9166886E-1,-1.1009349E0,-1.9941103E-1,-1.12740934E-1,3.826753E-1,-7.2788787E-1,-4.339532E-2,-1.4601284E-1,-1.0466284E0,7.714696E-3,-2.7373114E-1,2.6988548E-1,5.998447E-1,-4.1687664E-2,-9.102244E-3,-4.3678188E-1,3.324763E-2,-2.4217853E-2,-3.9882522E-2,2.5869082E-3,-3.4688377E-1,2.2218406E-1,3.691647E-2,3.579133E-2,5.222078E-1,4.579294E-3,-2.1435397E-2,6.0803355E-3,-4.9787187E-3,-2.2210676E-2,-5.2467817E-3,1.134716E-2,7.849377E-4,2.326069E-2,1.150827E-2],"categories":[],"categories_nodes":[],"categories_segments":[],"categories_sizes":[],"default_left":[0,0,0,0,0,0,0,0,0,0,0,0,0,0,0,0,0,0,0,0,0,0,0,0,0,0,0,0,0,0,0,0,0,0,0,0,0],"id":30,"left_children":[1,3,5,7,9,11,13,15,-1,17,19,-1,21,23,25,-1,-1,27,29,-1,-1,-1,31,33,-1,-1,35,-1,-1,-1,-1,-1,-1,-1,-1,-1,-1],"loss_changes":[1.2222194E1,4.5984015E0,2.9597368E0,6.961856E-1,2.8851912E0,8.900718E-1,1.5899992E0,8.541156E-1,0E0,3.151169E0,1.4889622E-1,0E0,2.7632403E-1,1.9587283E0,9.662323E-1,0E0,0E0,3.7847605E0,1.2681905E0,0E0,0E0,0E0,5.722197E-1,1.2657952E0,0E0,0E0,6.6939354E-1,0E0,0E0,0E0,0E0,0E0,0E0,0E0,0E0,0E0,0E0],"parents":[2147483647,0,0,1,1,2,2,3,3,4,4,5,5,6,6,7,7,9,9,10,10,12,12,13,13,14,14,17,17,18,18,22,22,23,23,26,26],"right_children":[2,4,6,8,10,12,14,16,-1,18,20,-1,22,24,26,-1,-1,28,30,-1,-1,-1,32,34,-1,-1,36,-1,-1,-1,-1,-1,-1,-1,-1,-1,-1],"split_conditions":[-3.0363476E-2,-2.2030652E-1,-3.46E3,-3.0475917E-1,4.66E3,1.2356909E1,-8.3E2,-3.3512264E-1,-4.339532E-2,-3.89E3,8E0,7.714696E-3,4.090909E-1,1.64E2,1.4880953E-3,-4.1687664E-2,-9.102244E-3,-9.17E3,5E-1,-2.4217853E-2,-3.9882522E-2,2.5869082E-3,1.41E2,7E1,3.691647E-2,3.579133E-2,-1.55E3,4.579294E-3,-2.1435397E-2,6.0803355E-3,-4.9787187E-3,-2.2210676E-2,-5.2467817E-3,1.134716E-2,7.849377E-4,2.326069E-2,1.150827E-2],"split_indices":[25,25,32,25,32,27,21,25,0,32,1,0,3,24,25,0,0,32,20,0,0,0,2,24,0,0,32,0,0,0,0,0,0,0,0,0,0],"split_type":[0,0,0,0,0,0,0,0,0,0,0,0,0,0,0,0,0,0,0,0,0,0,0,0,0,0,0,0,0,0,0,0,0,0,0,0,0],"sum_hessian":[1.5033212E2,7.0130226E1,8.02019E1,6.117033E0,6.40132E1,1.4728454E1,6.547344E1,3.090975E0,3.0260582E0,6.0328087E1,3.6851087E0,4.4482484E0,1.0280206E1,4.324029E1,2.2233149E1,1.1191005E0,1.9718745E0,2.2953217E1,3.737487E1,2.2045412E0,1.4805675E0,1.7332993E0,8.546906E0,4.1312084E1,1.9282087E0,2.4068034E0,1.9826344E1,7.365843E0,1.5587375E1,2.0195879E1,1.7178991E1,2.4991102E0,6.047796E0,2.2949009E1,1.8363077E1,6.8519435E0,1.29744005E1],"tree_param":{"num_deleted":"0","num_feature":"35","num_nodes":"37","size_leaf_vector":"1"}},{"base_weights":[-4.4553176E-2,-4.0578505E-1,1.4405826E-1,-4.3534073E-1,1.6602881E-2,-4.585985E-2,1.6939265E-1,-2.3849274E-1,-6.266775E-1,2.4981567E-1,-3.6744192E-1,-5.825614E-2,-7.435773E-1,-1.0011086E0,-4.801991E-1,2.8917417E-1,-1.4929851E-2,-6.4512855E-1,3.1383634E-1,2.6545119E-2,-4.254175E-3,-3.4053378E-2,-1.3850562E-2,-2.0439515E-2,-4.5480717E-2,-2.1715354E-2,-9.1525735E-3,-2.3723985E-3,1.1710601E-2,1.8500555E-2,-2.4985198E-2,1.6889807E-2,-5.4370374E-3],"categories":[],"categories_nodes":[],"categories_segments":[],"categories_sizes":[],"default_left":[0,0,0,0,0,0,0,0,0,0,0,0,0,0,0,0,0,0,0,0,0,0,0,0,0,0,0,0,0,0,0,0,0],"id":31,"left_children":[1,3,5,7,-1,-1,9,11,13,15,17,19,21,23,25,27,-1,29,31,-1,-1,-1,-1,-1,-1,-1,-1,-1,-1,-1,-1,-1,-1],"loss_changes":[1.0324864E1,1.4977245E0,4.2456484E0,1.8864126E0,0E0,0E0,4.2479935E0,2.275539E0,1.3525743E0,2.528225E0,2.4479122E0,1.4754592E0,6.7360663E-1,1.0640206E0,7.6931477E-1,3.0299401E0,0E0,2.2184327E0,4.768573E-1,0E0,0E0,0E0,0E0,0E0,0E0,0E0,0E0,0E0,0E0,0E0,0E0,0E0,0E0],"parents":[2147483647,0,0,1,1,2,2,3,3,6,6,7,7,8,8,9,9,10,10,11,11,12,12,13,13,14,14,15,15,17,17,18,18],"right_children":[2,4,6,8,-1,-1,10,12,14,16,18,20,22,24,26,28,-1,30,32,-1,-1,-1,-1,-1,-1,-1,-1,-1,-1,-1,-1,-1,-1],"split_conditions":[-8.014572E-2,4.45E3,-1.3478448E2,2.5791489E1,1.6602881E-2,-4.585985E-2,1.61E3,-1.1549926E-1,1.953E3,1.07E2,6.855792E-2,-1.64E2,1.3294203E2,5.35E1,3.8E1,-6.601E2,-1.4929851E-2,-3.916207E2,1.5821679E-1,2.6545119E-2,-4.254175E-3,-3.4053378E-2,-1.3850562E-2,-2.0439515E-2,-4.5480717E-2,-2.1715354E-2,-9.1525735E-3,-2.3723985E-3,1.1710601E-2,1.8500555E-2,-2.4985198E-2,1.6889807E-2,-5.4370374E-3],"split_indices":[25,16,28,28,0,0,16,25,23,29,25,24,11,29,29,22,0,11,25,0,0,0,0,0,0,0,0,0,0,0,0,0,0],"split_type":[0,0,0,0,0,0,0,0,0,0,0,0,0,0,0,0,0,0,0,0,0,0,0,0,0,0,0,0,0,0,0,0,0],"sum_hessian":[1.5135526E2,5.187953E1,9.9475716E1,5.0381763E1,1.4977671E0,1.3956113E0,9.808011E1,2.4943966E1,2.5437798E1,8.5347664E1,1.2732444E1,1.846601E1,6.4779587E0,6.9889765E0,1.8448822E1,8.113672E1,4.210947E0,9.049291E0,3.6831527E0,1.4247409E0,1.7041267E1,2.5849292E0,3.8930292E0,4.454683E0,2.534294E0,7.5837374E0,1.0865085E1,1.7492495E1,6.3644222E1,1.1422763E0,7.907015E0,2.4409578E0,1.242195E0],"tree_param":{"num_deleted":"0","num_feature":"35","num_nodes":"33","size_leaf_vector":"1"}},{"base_weights":[-1.2477316E-2,-2.194529E-1,3.1180602E-1,-2.8969692E-3,-3.6856833E-1,-2.4270467E-2,3.5783347E-1,-7.1011996E-1,9.897977E-2,-1.0703635E0,-3.3554575E-1,6.1368495E-1,2.1863413E-1,-1.1352063E-2,-3.8463194E-2,5.0800886E-2,3.7848108E-2,-4.211991E-2,-2.0201562E-2,-2.8437746E-1,-7.9886717E-1,3.5645586E-1,8.623677E-1,1.10964835E-1,7.7546906E-1,4.4414955E-3,-7.5771287E-3,-7.5293155E-3,-2.6096154E-2,-3.0460864E-2,-1.3460102E-2,1.7212167E-2,-2.806016E-4,3.9885793E-2,2.215215E-2,7.078712E-3,-8.219794E-3,2.9811017E-2,9.784457E-3],"categories":[],"categories_nodes":[],"categories_segments":[],"categories_sizes":[],"default_left":[0,0,0,0,0,0,0,0,0,0,0,0,0,0,0,0,0,0,0,0,0,0,0,0,0,0,0,0,0,0,0,0,0,0,0,0,0,0,0],"id":32,"left_children":[1,3,5,7,9,-1,11,13,15,17,19,21,23,-1,-1,25,-1,-1,-1,27,29,31,33,35,37,-1,-1,-1,-1,-1,-1,-1,-1,-1,-1,-1,-1,-1,-1],"loss_changes":[9.906418E0,2.9090486E0,2.9954972E0,2.6611893E0,1.2005105E0,0E0,1.9562349E0,8.3388853E-1,1.802131E0,2.1696043E-1,1.1887188E0,1.2122841E0,2.1481318E0,0E0,0E0,9.214706E-1,0E0,0E0,0E0,8.8110733E-1,3.3555603E-1,7.733004E-1,4.6990204E-1,1.462534E0,5.374932E-1,0E0,0E0,0E0,0E0,0E0,0E0,0E0,0E0,0E0,0E0,0E0,0E0,0E0,0E0],"parents":[2147483647,0,0,1,1,2,2,3,3,4,4,6,6,7,7,8,8,9,9,10,10,11,11,12,12,15,15,19,19,20,20,21,21,22,22,23,23,24,24],"right_children":[2,4,6,8,10,-1,12,14,16,18,20,22,24,-1,-1,26,-1,-1,-1,28,30,32,34,36,38,-1,-1,-1,-1,-1,-1,-1,-1,-1,-1,-1,-1,-1,-1],"split_conditions":[6.733672E2,1.7019061E0,-4.66E3,-9.95E1,-3E-1,-2.4270467E-2,4.9478583E2,6E0,0E0,7E0,4.66E3,-7.02E1,5.593158E3,-1.1352063E-2,-3.8463194E-2,1.8891147E2,3.7848108E-2,-4.211991E-2,-2.0201562E-2,1.9698438E3,4E0,2E0,-1.5E1,5.63E3,3E-1,4.4414955E-3,-7.5771287E-3,-7.5293155E-3,-2.6096154E-2,-3.0460864E-2,-1.3460102E-2,1.7212167E-2,-2.806016E-4,3.9885793E-2,2.215215E-2,7.078712E-3,-8.219794E-3,2.9811017E-2,9.784457E-3],"split_indices":[26,28,32,29,31,0,27,0,28,0,32,34,26,0,0,27,0,0,0,12,0,0,24,32,31,0,0,0,0,0,0,0,0,0,0,0,0,0,0],"split_type":[0,0,0,0,0,0,0,0,0,0,0,0,0,0,0,0,0,0,0,0,0,0,0,0,0,0,0,0,0,0,0,0,0,0,0,0,0,0,0],"sum_hessian":[1.4739348E2,8.998951E1,5.7403965E1,3.6737976E1,5.3251534E1,2.1989648E0,5.5204998E1,4.5506387E0,3.2187336E1,2.2519448E0,5.0999588E1,1.9331821E1,3.5873177E1,2.9854264E0,1.5652124E0,3.100679E1,1.1805453E0,1.0857627E0,1.1661819E0,4.607278E1,4.9268093E0,9.622239E0,9.709582E0,3.0161161E1,5.7120175E0,2.3518797E1,7.487994E0,4.3721497E1,2.3512812E0,2.9272294E0,1.9995799E0,6.000955E0,3.621284E0,1.832229E0,7.877353E0,2.2797676E1,7.363485E0,3.7631352E0,1.9488823E0],"tree_param":{"num_deleted":"0","num_feature":"35","num_nodes":"39","size_leaf_vector":"1"}},{"base_weights":[4.7334775E-2,-1.9962482E-1,4.2343694E-1,-4.9620688E-1,-8.600693E-2,-3.4779277E-1,4.6702114E-1,-4.0862393E-1,-3.2183286E-2,-2.054876E-1,1.8598278E-1,-4.642864E-3,-1.617915E-2,5.9026974E-1,1.9701424E-1,-3.1770434E-2,-3.3834553E-1,-4.5081742E-2,-4.3050945E-1,4.819726E-1,1.0247115E-2,7.1398664E-1,2.2214498E-1,3.2611805E-1,-9.548081E-3,-1.1870665E-2,7.973109E-4,-4.133914E-3,4.5536324E-2,5.6455587E-4,-1.7000303E-2,4.2603028E-4,2.8266001E-2,-1.9417829E-3,1.1874689E-2,3.5747055E-2,1.9061754E-2,1.0679968E-2,-2.0370847E-2,1.3811463E-2,6.602831E-3],"categories":[],"categories_nodes":[],"categories_segments":[],"categories_sizes":[],"default_left":[0,0,0,0,0,0,0,0,0,0,0,0,0,0,0,0,0,0,0,0,0,0,0,0,0,0,0,0,0,0,0,0,0,0,0,0,0,0,0,0,0],"id":33,"left_children":[1,3,5,7,9,11,13,15,-1,17,19,-1,-1,21,23,-1,25,27,29,31,33,35,37,39,-1,-1,-1,-1,-1,-1,-1,-1,-1,-1,-1,-1,-1,-1,-1,-1,-1],"loss_changes":[1.403688E1,3.0701797E0,2.029585E0,1.2312431E0,2.1515064E0,1.1221233E-1,1.8764191E0,9.735024E-1,0E0,1.657142E0,1.0514307E0,0E0,0E0,1.7559681E0,1.2032676E0,0E0,4.211502E-1,3.9258025E0,1.1707582E0,1.6200972E0,3.7233415E-1,1.0155668E0,1.2221164E0,1.9468594E-1,0E0,0E0,0E0,0E0,0E0,0E0,0E0,0E0,0E0,0E0,0E0,0E0,0E0,0E0,0E0,0E0,0E0],"parents":[2147483647,0,0,1,1,2,2,3,3,4,4,5,5,6,6,7,7,9,9,10,10,13,13,14,14,16,16,17,17,18,18,19,19,20,20,21,21,22,22,23,23],"right_children":[2,4,6,8,10,12,14,16,-1,18,20,-1,-1,22,24,-1,26,28,30,32,34,36,38,40,-1,-1,-1,-1,-1,-1,-1,-1,-1,-1,-1,-1,-1,-1,-1,-1,-1],"split_conditions":[3.3204384E-2,1.9224833E3,-8.811E2,9.416E2,1.83E2,9E0,1.37064E2,-8.334E2,-3.2183286E-2,-6.92E1,2E0,-4.642864E-3,-1.617915E-2,8.811E2,8.3E1,-3.1770434E-2,2.1982E3,5.52381E-1,-1.3478E3,-8.4E1,1.13E2,1.32E2,-2.45E3,-7.89E1,-9.548081E-3,-1.1870665E-2,7.973109E-4,-4.133914E-3,4.5536324E-2,5.6455587E-4,-1.7000303E-2,4.2603028E-4,2.8266001E-2,-1.9417829E-3,1.1874689E-2,3.5747055E-2,1.9061754E-2,1.0679968E-2,-2.0370847E-2,1.3811463E-2,6.602831E-3],"split_indices":[25,12,33,33,2,0,11,33,0,34,24,0,0,33,24,0,18,9,33,24,24,2,10,34,0,0,0,0,0,0,0,0,0,0,0,0,0,0,0,0,0],"split_type":[0,0,0,0,0,0,0,0,0,0,0,0,0,0,0,0,0,0,0,0,0,0,0,0,0,0,0,0,0,0,0,0,0,0,0,0,0,0,0,0,0],"sum_hessian":[1.5093486E2,9.1137955E1,5.9796906E1,2.5150282E1,6.598767E1,3.1611886E0,5.663572E1,2.1982008E1,3.168274E0,4.5864567E1,2.0123108E1,1.6644017E0,1.496787E0,3.8804314E1,1.7831406E1,2.0064511E0,1.9975557E1,2.6846903E1,1.9017662E1,7.4317036E0,1.2691404E1,2.8973228E1,9.831084E0,1.4288217E1,3.543188E0,1.7255608E1,2.7199488E0,2.5429592E1,1.4173107E0,4.4429383E0,1.4574724E1,3.7367678E0,3.694936E0,1.0695025E1,1.9963788E0,3.8941765E0,2.5079052E1,8.612361E0,1.2187238E0,6.1570077E0,8.131209E0],"tree_param":{"num_deleted":"0","num_feature":"35","num_nodes":"41","size_leaf_vector":"1"}},{"base_weights":[1.7282674E-3,-1.9850792E-1,2.9338482E-1,-1.7487437E-1,-4.6088472E-2,1.936477E-1,9.4015914E-1,-3.864302E-1,-7.9096705E-2,1.3160177E-1,5.4272616E-1,1.9892512E-2,1.124986E0,-9.7877645E-1,-1.321304E-1,-1.1552036E-1,4.0229313E-2,3.9197215E-1,7.849901E-2,4.7121402E-2,1.1280763E0,3.86275E-2,1.6768755E-2,-4.0098418E-2,-9.842215E-3,-2.1739984E-2,-6.059852E-4,-8.911567E-3,1.999175E-3,-5.4239533E-3,1.609647E-2,1.6219502E-2,1.340628E-3,-1.1265041E-2,2.1660397E-2,4.1216817E-2,2.210555E-2],"categories":[],"categories_nodes":[],"categories_segments":[],"categories_sizes":[],"default_left":[0,0,0,0,0,0,0,0,0,0,0,0,0,0,0,0,0,0,0,0,0,0,0,0,0,0,0,0,0,0,0,0,0,0,0,0,0],"id":34,"left_children":[1,3,5,7,-1,9,11,13,15,17,19,-1,21,23,25,27,-1,29,31,33,35,-1,-1,-1,-1,-1,-1,-1,-1,-1,-1,-1,-1,-1,-1,-1,-1],"loss_changes":[8.615958E0,2.7388334E0,3.8558812E0,1.7409446E0,0E0,1.1225555E0,3.3498192E-1,4.023677E0,3.0865471E0,6.110767E-1,2.268983E0,0E0,3.5635996E-1,1.8266783E0,1.2496678E0,1.9192772E0,0E0,6.3073695E-1,5.760478E-1,1.2677308E0,2.4401665E-1,0E0,0E0,0E0,0E0,0E0,0E0,0E0,0E0,0E0,0E0,0E0,0E0,0E0,0E0,0E0,0E0],"parents":[2147483647,0,0,1,1,2,2,3,3,5,5,6,6,7,7,8,8,9,9,10,10,12,12,13,13,14,14,15,15,17,17,18,18,19,19,20,20],"right_children":[2,4,6,8,-1,10,12,14,16,18,20,-1,22,24,26,28,-1,30,32,34,36,-1,-1,-1,-1,-1,-1,-1,-1,-1,-1,-1,-1,-1,-1,-1,-1],"split_conditions":[3.0363476E-2,1.3957143E2,2.2030652E-1,-7.7E1,-4.6088472E-2,5.3E1,7.8E1,-4.422E2,1.435E2,4.9979348E-2,1.6863528E2,1.9892512E-2,1E1,1.32E2,1.9086E3,1.9625476E3,4.0229313E-2,1.9224833E3,-1.7489008E2,6E0,9.4E1,3.86275E-2,1.6768755E-2,-4.0098418E-2,-9.842215E-3,-2.1739984E-2,-6.059852E-4,-8.911567E-3,1.999175E-3,-5.4239533E-3,1.609647E-2,1.6219502E-2,1.340628E-3,-1.1265041E-2,2.1660397E-2,4.1216817E-2,2.210555E-2],"split_indices":[25,28,25,30,0,29,30,17,22,25,27,0,1,2,23,6,0,12,27,1,29,0,0,0,0,0,0,0,0,0,0,0,0,0,0,0,0],"split_type":[0,0,0,0,0,0,0,0,0,0,0,0,0,0,0,0,0,0,0,0,0,0,0,0,0,0,0,0,0,0,0,0,0,0,0,0,0],"sum_hessian":[1.4733331E2,8.737686E1,5.9956455E1,8.597114E1,1.405721E0,5.2058598E1,7.8978596E0,2.6697546E1,5.9273594E1,4.4318954E1,7.739643E0,3.3438408E0,4.5540185E0,7.9333425E0,1.8764204E1,5.7880867E1,1.3927284E0,7.399587E0,3.6919365E1,4.249621E0,3.4900224E0,3.4387295E0,1.115289E0,5.0505238E0,2.8828187E0,2.8944175E0,1.5869785E1,2.8958786E1,2.892208E1,1.486291E0,5.913296E0,2.414723E0,3.4504642E1,2.6404872E0,1.6091335E0,1.9890606E0,1.5009618E0],"tree_param":{"num_deleted":"0","num_feature":"35","num_nodes":"37","size_leaf_vector":"1"}},{"base_weights":[3.1991333E-2,-2.0124926E-1,4.2471862E-1,-4.7703603E-1,-3.9171048E-2,4.824418E-1,-2.84316E-1,-8.6134416E-1,-1.8282413E-1,-6.014502E-1,4.927842E-2,-3.4835854E-1,5.3917134E-1,-1.9788932E-2,-1.16361E-1,-2.4694684E-1,-1.0211357E0,5.281482E-1,-3.161975E-1,-1.3196424E-2,-2.8302113E-2,2.5856372E-2,8.3915815E-3,-1.7091522E-2,-5.129227E-3,4.236778E-1,9.5646954E-1,1.0919877E-3,-7.2487155E-3,-2.362666E-2,3.0547974E-3,-4.0089123E-2,-1.7783003E-2,2.8501263E-2,9.5590774E-4,-6.393199E-3,-2.2828858E-2,-6.602387E-4,3.666938E-2,1.4753102E-2,-1.0389388E-3,2.393846E-2,3.8812194E-2],"categories":[],"categories_nodes":[],"categories_segments":[],"categories_sizes":[],"default_left":[0,0,0,0,0,0,0,0,0,0,0,0,0,0,0,0,0,0,0,0,0,0,0,0,0,0,0,0,0,0,0,0,0,0,0,0,0,0,0,0,0,0,0],"id":35,"left_children":[1,3,5,7,9,11,13,15,17,19,21,23,25,-1,27,29,31,33,35,-1,-1,-1,37,-1,-1,39,41,-1,-1,-1,-1,-1,-1,-1,-1,-1,-1,-1,-1,-1,-1,-1,-1],"loss_changes":[1.3988333E1,4.28115E0,2.342455E0,3.993535E0,3.009841E0,2.5003366E0,2.663033E-1,1.4816189E0,1.9331701E0,4.1295552E-1,1.7380737E0,1.24791384E-1,2.3367634E0,0E0,6.0659733E-2,6.301931E-1,1.5609512E0,6.7325485E-1,7.669538E-1,0E0,0E0,0E0,1.8451793E0,0E0,0E0,1.2129593E0,4.6418E-1,0E0,0E0,0E0,0E0,0E0,0E0,0E0,0E0,0E0,0E0,0E0,0E0,0E0,0E0,0E0,0E0],"parents":[2147483647,0,0,1,1,2,2,3,3,4,4,5,5,6,6,7,7,8,8,9,9,10,10,11,11,12,12,14,14,15,15,16,16,17,17,18,18,22,22,25,25,26,26],"right_children":[2,4,6,8,10,12,14,16,18,20,22,24,26,-1,28,30,32,34,36,-1,-1,-1,38,-1,-1,40,42,-1,-1,-1,-1,-1,-1,-1,-1,-1,-1,-1,-1,-1,-1,-1,-1],"split_conditions":[1.6398301E3,-6.8E1,3.251E2,-5.28E3,-2.219E2,-4.16E3,2.2931948E3,-3.237E2,1E0,4E0,-1.029E4,3E0,8.7472845E2,-1.9788932E-2,1E0,1E0,1.24E1,8E0,8E0,-1.3196424E-2,-2.8302113E-2,2.5856372E-2,2.69E2,-1.7091522E-2,-5.129227E-3,1.3255E3,9E1,1.0919877E-3,-7.2487155E-3,-2.362666E-2,3.0547974E-3,-4.0089123E-2,-1.7783003E-2,2.8501263E-2,9.5590774E-4,-6.393199E-3,-2.2828858E-2,-6.602387E-4,3.666938E-2,1.4753102E-2,-1.0389388E-3,2.393846E-2,3.8812194E-2],"split_indices":[26,24,34,32,34,32,26,34,0,0,32,0,27,0,1,0,34,1,1,0,0,0,8,0,0,33,24,0,0,0,0,0,0,0,0,0,0,0,0,0,0,0,0],"split_type":[0,0,0,0,0,0,0,0,0,0,0,0,0,0,0,0,0,0,0,0,0,0,0,0,0,0,0,0,0,0,0,0,0,0,0,0,0,0,0,0,0,0,0],"sum_hessian":[1.5251784E2,9.571907E1,5.6798767E1,3.5359028E1,6.0360043E1,5.2552383E1,4.2463827E0,1.5248383E1,2.0110647E1,8.125527E0,5.2234516E1,3.3262074E0,4.9226177E1,1.2222899E0,3.0240924E0,3.1997824E0,1.20486E1,3.1299353E0,1.6980711E1,5.6734977E0,2.45203E0,2.4061337E0,4.9828384E1,1.3812993E0,1.9449081E0,3.871324E1,1.05129385E1,1.3944608E0,1.6296318E0,1.2054672E0,1.994315E0,6.8193636E0,5.229237E0,1.6423419E0,1.4875935E0,1.3905502E1,3.0752087E0,4.8706833E1,1.1215506E0,3.3699158E1,5.0140805E0,7.3805757E0,3.1323628E0],"tree_param":{"num_deleted":"0","num_feature":"35","num_nodes":"43","size_leaf_vector":"1"}},{"base_weights":[-1.8289289E-2,-2.0494853E-1,3.7070453E-1,-9.680408E-1,-1.6735227E-1,6.959905E-1,2.3432103E-1,-5.16917E-3,-1.2562898E0,2.884691E-1,-2.2116804E-1,3.1598902E-1,8.6196053E-1,-1.2651305E-1,3.4528336E-1,-4.4238843E-2,-2.7527452E-2,-3.0331645E-2,5.653244E-1,-5.092379E-1,-1.5734091E-1,1.236435E-2,6.13628E-3,3.883206E-2,7.7188915E-1,-4.6319214E-1,7.161237E-2,3.0361536E-1,3.577446E-2,2.2574283E-2,-3.2804683E-3,-1.9503465E-2,2.028173E-2,-5.456189E-3,1.7878009E-2,1.7297179E-2,2.7583431E-2,-1.5198847E-3,-2.2158552E-2,7.2746016E-3,-2.6818283E-3,3.5203826E-2,7.815094E-3],"categories":[],"categories_nodes":[],"categories_segments":[],"categories_sizes":[],"default_left":[0,0,0,0,0,0,0,0,0,0,0,0,0,0,0,0,0,0,0,0,0,0,0,0,0,0,0,0,0,0,0,0,0,0,0,0,0,0,0,0,0,0,0],"id":36,"left_children":[1,3,5,7,9,11,13,-1,15,17,19,21,23,25,27,-1,-1,-1,29,31,33,-1,-1,-1,35,37,39,41,-1,-1,-1,-1,-1,-1,-1,-1,-1,-1,-1,-1,-1,-1,-1],"loss_changes":[1.0543421E1,2.7987127E0,2.0726056E0,1.0302811E0,2.3031747E0,8.468442E-1,1.3387489E0,0E0,1.12487316E-1,3.629932E0,1.532794E0,3.840974E-2,2.7355433E-1,5.3104496E-1,8.645234E-1,0E0,0E0,0E0,1.0499904E0,2.574555E0,1.2812072E0,0E0,0E0,0E0,1.828289E-1,3.307907E-1,1.4157414E-1,8.8646746E-1,0E0,0E0,0E0,0E0,0E0,0E0,0E0,0E0,0E0,0E0,0E0,0E0,0E0,0E0,0E0],"parents":[2147483647,0,0,1,1,2,2,3,3,4,4,5,5,6,6,8,8,9,9,10,10,11,11,12,12,13,13,14,14,18,18,19,19,20,20,24,24,25,25,26,26,27,27],"right_children":[2,4,6,8,10,12,14,-1,16,18,20,22,24,26,28,-1,-1,-1,30,32,34,-1,-1,-1,36,38,40,42,-1,-1,-1,-1,-1,-1,-1,-1,-1,-1,-1,-1,-1,-1,-1],"split_conditions":[7.2883904E-2,3.7588653E-1,2.948915E3,2E-1,-1.28E2,-3.916207E2,3.9214285E3,-5.16917E-3,1.37064E2,-2.11E2,-2.219E2,4.047619E-1,1.9793651E3,4E-1,3.0700203E1,-4.4238843E-2,-2.7527452E-2,-3.0331645E-2,0E0,-9E0,2.819E2,1.236435E-2,6.13628E-3,3.883206E-2,5.5E1,-5.645E2,5.673077E-1,5.2459013E-1,3.577446E-2,2.2574283E-2,-3.2804683E-3,-1.9503465E-2,2.028173E-2,-5.456189E-3,1.7878009E-2,1.7297179E-2,2.7583431E-2,-1.5198847E-3,-2.2158552E-2,7.2746016E-3,-2.6818283E-3,3.5203826E-2,7.815094E-3],"split_indices":[25,3,26,20,24,11,26,0,11,24,34,9,26,15,28,0,0,0,31,24,34,0,0,0,24,11,9,3,0,0,0,0,0,0,0,0,0,0,0,0,0,0,0],"split_type":[0,0,0,0,0,0,0,0,0,0,0,0,0,0,0,0,0,0,0,0,0,0,0,0,0,0,0,0,0,0,0,0,0,0,0,0,0,0,0,0,0,0,0],