tree
version=v4
num_class=1
num_tree_per_iteration=1
label_index=0
max_feature_idx=34
objective=binary sigmoid:1
feature_names=team_blue team_red ov_games_played_blue ov_winrate_blue ov_avg_gold_diff_blue ov_avg_gold_diff_at14_blue ov_avg_game_time_blue ov_median_game_time_blue ov_games_played_red ov_winrate_red ov_avg_gold_diff_red ov_avg_gold_diff_at14_red ov_avg_game_time_red ov_median_game_time_red ln_games_played_blue ln_winrate_lastN_blue ln_avg_gold_diff_lastN_blue ln_avg_gold_diff_at14_lastN_blue ln_avg_game_time_lastN_blue ln_games_played_red ln_winrate_lastN_red ln_avg_gold_diff_lastN_red ln_avg_gold_diff_at14_lastN_red ln_avg_game_time_lastN_red ov_games_played_diff ov_winrate_diff ov_avg_gold_diff_diff ov_avg_gold_diff_at14_diff ov_avg_game_time_diff ov_median_game_time_diff ln_games_played_diff ln_winrate_lastN_diff ln_avg_gold_diff_lastN_diff ln_avg_gold_diff_at14_lastN_diff ln_avg_game_time_lastN_diff
feature_infos=[0:10] [0:10] [42:269] [0.22413793103448271:0.71100917431192656] [-6063.7931034482763:4832.5688073394494] [-739.39007092198585:854.32110091743118] [1822.9761904761904:2049.0344827586205] [1802.5:1986.5] [42:269] [0.22413793103448271:0.71100917431192656] [-6063.7931034482763:4832.5688073394494] [-739.39007092198585:854.32110091743118] [1822.9761904761904:2049.0344827586205] [1802.5:1986.5] [42:269] [0.10000000000000001:0.59999999999999998] [-10350:4450] [-1646.4000000000001:587.89999999999998] [1806.8:2198.1999999999998] [42:269] [0.10000000000000001:0.59999999999999998] [-10350:4450] [-1646.4000000000001:587.89999999999998] [1806.8:2198.1999999999998] [-227:227] [-0.48687124327744385:0.48687124327744385] [-10896.361910787726:10896.361910787726] [-1593.7111718394171:1593.7111718394171] [-193.83801717408232:193.83801717408232] [-176.5:176.5] [-227:227] [-0.5:0.5] [-14800:14800] [-2234.3000000000002:2234.3000000000002] [-391.39999999999986:391.39999999999986]
tree_sizes=2269 2043 2122 2135 2251 2233 2358 2132 2349 2126 2241

Tree=0
num_leaves=21
num_cat=0
split_feature=2 10 24 33 23 6 28 24 18 34 28 28 34 32 33 33 23 34 34 16
split_gain=20.6398 13.5542 9.50791 4.12912 4.05442 5.03104 4.05368 4.35223 3.2278 2.77273 2.55651 2.47909 2.46411 2.26909 2.17172 1.97813 1.68626 0.523374 0.374903 0.183085
threshold=195.50000000000003 837.08040593286489 -30.999999999999996 497.35000000000008 1959.7000000000003 1968.9927969858161 104.17622012550272 -126.49999999999999 1959.7000000000003 -1.0000000180025095e-35 -95.10002471232734 -6.7886413269196728 -220.64999999999995 6530.0000000000009 -452.09999999999997 -125.89999999999996 1934.6500000000003 31.250000000000004 -25.050000000000065 -3869.9999999999995
decision_type=2 2 2 2 2 2 2 2 2 2 2 2 2 2 2 2 2 2 2 2
left_child=2 3 6 9 8 -6 7 15 -4 18 -5 -3 -9 -12 -10 -1 17 -14 -2 -18
right_child=1 11 4 10 5 -7 -8 12 14 -11 13 -13 16 -15 -16 -17 19 -19 -20 -21
leaf_value=0.27803547900559283 0.33468135222407547 0.30212700145753085 0.32633844852344424 0.33054264332391931 0.24960890384106418 0.30457879356547146 0.23539561625879987 0.24213376740891038 0.27862361504347966 0.35680460180020612 0.28155918988536255 0.27287228474101521 0.24900483911881802 0.31728353448843638 0.30935056100135583 0.31275143392527344 0.28986804091782792 0.26998128270897642 0.31885687701759613 0.27776474971831161
leaf_weight=5.6285359412431717 5.873254895210267 7.3415686190128353 7.8310065269470241 6.3626928031444576 5.6285359412431699 4.8943790793418884 5.6285359412431708 6.6074117571115485 7.0968496650457373 7.5862875729799262 5.8732548952102643 11.991228744387625 4.8943790793418938 5.3838169872760773 7.5862875729799262 4.8943790793418867 4.8943790793418884 5.1390980333089828 8.3204444348812103 5.1390980333089811
leaf_count=23 24 30 32 26 23 20 23 27 29 31 24 49 20 22 31 20 20 21 34 21
internal_value=0.293627 0.311457 0.279876 0.324939 0.295892 0.275556 0.267428 0.272383 0.305574 0.336709 0.310163 0.284189 0.263783 0.298289 0.294227 0.293802 0.271111 0.25935 0.325687 0.28327
internal_weight=134.595 58.7325 75.8629 39.3998 33.0371 10.5229 42.8258 37.1973 22.5141 21.78 17.6198 19.3328 26.6744 11.2571 14.6831 10.5229 20.067 10.0335 14.1937 10.0335
internal_count=550 240 310 161 135 43 175 152 92 89 72 79 109 46 60 43 82 41 58 41
is_linear=0
shrinkage=1


Tree=1
num_leaves=18
num_cat=0
split_feature=25 15 28 29 34 24 24 28 32 12 11 0 1 28 25 24 25
split_gain=47.0599 4.91084 3.41543 3.07199 2.99859 2.77633 2.96903 5.50041 4.70448 2.37458 2.1854 1.50857 0.708241 0.698591 0.506491 0.177147 0.153722
threshold=0.031783929722759542 0.25000000000000006 -55.347449712643645 -108.74999999999999 251.05000000000021 -107.99999999999999 -55.999999999999993 1.0000000180025095e-35 -1.0000000180025095e-35 1965.3447315096255 -388.72322361546497 8.5000000000000018 4.5000000000000009 -5.9376883127354168 0.13307664557664561 7.5000000000000009 -0.0021645021645022018
decision_type=2 2 2 2 2 2 2 2 2 2 2 2 2 2 2 2 2
left_child=1 9 3 -2 5 -3 11 8 -8 -1 13 16 -12 -4 -14 -9 -7
right_child=2 4 10 -5 -6 6 7 15 -10 -11 12 -13 14 -15 -16 -17 -18
leaf_value=-0.028369357302007528 0.020263770195294274 0.0018794539635126493 0.015464897437772865 0.059026089129631747 0.0090053485680307681 -0.021885098198976292 -0.014129719663394713 -0.02332079790760468 0.036059022909696224 -0.063001428373854501 0.041093894470679092 -0.05454383197785017 0.018484676126111464 -0.0015085916839585936 0.032726292032566905 -0.033598336922961644 -0.034625184560242432
leaf_weight=8.8428858220577222 5.842883735895156 8.3141929954290372 9.0195281505584699 8.7515257447957975 6.614279016852378 6.8758513629436502 7.5811508446931839 9.8001091629266757 4.8861412256956154 5.6515910327434531 5.8499830365180996 5.4020613878965369 13.427821174263956 6.1153444647788993 7.8020363450050345 9.5706217586994153 4.9084106981754276
leaf_count=36 24 34 37 36 27 28 31 40 20 23 24 22 55 25 32 39 20
internal_value=-0.000847902 -0.0209548 0.0268472 0.0437816 -0.0160888 -0.0190533 -0.022685 -0.0152344 0.00521925 -0.0421488 0.0208979 -0.0362546 0.0277675 0.00834236 0.0239069 -0.0286052 -0.0275311
internal_weight=135.256 78.4473 56.8091 14.5944 63.9528 57.3385 49.0243 31.838 12.4673 14.4945 42.2147 17.1863 27.0798 15.1349 21.2299 19.3707 11.7843
internal_count=553 320 233 60 261 234 200 130 51 59 173 70 111 62 87 79 48
is_linear=0
shrinkage=0.04


Tree=2
num_leaves=19
num_cat=0
split_feature=26 28 28 28 28 29 0 12 29 32 26 26 0 23 24 11 24 25
split_gain=45.6911 4.62075 4.252 5.31262 2.56706 2.81444 2.31078 1.88514 1.86143 1.77455 1.99861 1.3328 1.25169 1.43576 0.86221 0.508459 0.262007 0.110876
threshold=542.79621789867736 104.17622012550272 -95.10002471232734 -60.038574432066291 -64.82615456027132 -25.499999999999996 8.5000000000000018 1968.9927969858161 -108.74999999999999 1610.0000000000002 -1811.4925488900897 2144.1192971629785 7.5000000000000009 1959.7000000000003 -55.999999999999993 135.00301449275364 81.000000000000014 -0.15498268850249772
decision_type=2 2 2 2 2 2 2 2 2 2 2 2 2 2 2 2 2 2
left_child=1 2 -1 -4 8 -6 7 9 -2 10 17 -7 13 -13 -8 -11 -15 -5
right_child=4 -3 3 6 5 11 14 -9 -10 15 -12 12 -14 16 -16 -17 -18 -19
leaf_value=-0.047467501855122295 0.022594573071051331 -0.051965006839054563 0.02479688410043324 -0.0093026242189339012 0.00021527785994571465 0.046353219126400121 -0.037792026090498747 0.010480578672418629 0.053827966498677007 -0.018401466427926505 0.014647068352248875 0.043011387474377348 0.0097823661102285301 0.014428546475493255 -0.018408099374239827 -0.035371272287273367 0.027614285611106199 -0.018073880356240409
leaf_weight=6.3859114348888388 5.3382671475410453 6.4189306497573844 5.3880586326122275 7.3896421641111329 7.5650685876607886 5.5889357626438132 9.1148357838392275 5.3956588953733435 9.3844714462757093 9.3467928171157819 5.1371345967054429 8.0126697719097191 8.0706422179937345 7.5168001651763898 8.0854398608207685 5.6395927667617789 6.051188126206398 7.6132029294967642
leaf_count=26 22 26 22 30 31 23 37 22 39 38 21 33 33 31 33 23 25 31
internal_value=0.00113301 -0.019211 -0.0161281 -0.0128936 0.0280489 0.0228905 -0.0164811 -0.0111057 0.0427748 -0.0145353 -0.0065094 0.0276447 0.0239835 0.029109 -0.0289127 -0.0250544 0.0206041 -0.0140202
internal_weight=133.443 75.9152 69.4963 63.1104 57.528 42.8053 57.7223 40.522 14.7227 35.1264 20.14 35.2402 29.6513 21.5807 17.2003 14.9864 13.568 15.0028
internal_count=546 309 283 257 237 176 235 165 61 143 82 145 122 89 70 61 56 61
is_linear=0
shrinkage=0.04


Tree=3
num_leaves=19
num_cat=0
split_feature=26 0 32 32 32 26 24 20 33 32 33 24 26 26 17 32 29 23
split_gain=32.4856 7.37396 5.73837 7.38444 5.53207 3.94172 2.84261 2.29741 2.44672 1.48863 2.57536 2.14753 1.39319 1.16301 0.840365 0.70442 0.551728 0.424503
threshold=-342.48175733002432 6.5000000000000009 -4719.9999999999991 -8434.9999999999982 -3284.9999999999995 5448.1809553938638 35.500000000000007 0.25000000000000006 -513.79999999999984 -694.99999999999989 245.90000000000001 91.000000000000014 -2462.4623156686353 3179.9192068971252 1.0000000180025095e-35 -6179.9999999999991 -11.249999999999998 2054.6500000000005
decision_type=2 2 2 2 2 2 2 2 2 2 2 2 2 2 2 2 2 2
left_child=2 5 3 -1 -4 9 12 -3 -9 -2 -11 13 14 16 -6 -5 -12 -8
right_child=1 7 4 15 6 -7 17 8 -10 10 11 -13 -14 -15 -16 -17 -18 -19
leaf_value=-0.0065632751777958392 0.010969801805095339 -0.022334275525213106 0.016003517492593048 -0.047770365781061516 -0.031455773990497281 0.055052838876477543 0.0046879959509565682 -0.0045791105389830448 0.02798343364405851 0.047402112088109738 0.027683251545677946 -0.0015977665077004486 -0.045833534147174317 0.039923639831493218 -0.011846323965606 -0.071792589484927907 0.0078311577147316836 -0.0099289338679489723
leaf_weight=7.1411420106887844 12.796698898077009 5.6149752587080011 8.8337404429912549 5.938056394457818 7.6633623838424674 7.4175502359867087 4.912111967802046 9.5621931701898575 5.8621703982353202 8.2007560580968875 5.0677516311407116 5.089621737599372 5.6943296492099789 7.2640104591846457 8.1253486126661283 5.2038573622703526 5.3355086594820049 7.8638665676116943
leaf_count=29 53 23 36 24 31 31 20 39 24 34 21 21 23 30 33 21 22 32
internal_value=0.00128869 0.0195021 -0.0200749 -0.0389503 -0.0119738 0.0276991 -0.0193046 -0.000244736 0.00753725 0.0229705 0.0278019 0.0205629 -0.0282224 0.0271735 -0.0216175 -0.059349 0.0178862 -0.00399592
internal_weight=133.587 72.2112 61.3758 18.2831 43.0928 51.1719 34.259 21.0393 15.4244 43.7543 30.9576 22.7569 21.483 17.6673 15.7887 11.1419 10.4033 12.776
internal_count=547 298 249 74 175 212 139 86 63 181 128 94 87 73 64 45 43 52
is_linear=0
shrinkage=0.04


Tree=4
num_leaves=20
num_cat=0
split_feature=26 31 18 23 28 26 27 23 24 27 9 28 28 2 31 24 27 11 28
split_gain=45.302 5.18541 4.87567 6.01495 5.42835 3.50991 2.63026 2.08444 1.97871 1.58596 2.24385 1.57191 3.26406 1.81173 1.39066 0.988511 0.706059 0.584431 0.271555
threshold=1454.2631947044158 -0.10000000000000001 1934.6500000000003 1934.6500000000003 3.648065476190482 -1660.3758320670531 1.0000000180025095e-35 1972.6000000000001 -1.0000000180025095e-35 -525.99082962531577 0.55984432234432246 -55.347449712643645 -92.802372899308793 243.50000000000003 -0.10000000000000001 -1.0000000180025095e-35 373.76416861826704 135.00301449275364 25.105270276839978
decision_type=2 2 2 2 2 2 2 2 2 2 2 2 2 2 2 2 2 2 2
left_child=2 -2 4 6 7 14 -4 -1 -7 10 -6 12 -3 15 -5 18 -17 -10 -13
right_child=1 11 3 5 9 8 -8 -9 17 -11 -12 13 -14 -15 -16 16 -18 -19 -20
leaf_value=0.0045541926623311252 -0.0046251879536276597 0.023752578164517958 0.037532931364492893 -0.042654205395383143 -0.01194564103426516 -0.020216720298267422 -0.00050130010438051214 -0.027660770189253562 -0.0037587410513290143 -0.054655040214211567 -0.043198045952748433 0.036766622711482635 0.06403357695433258 0.047602447940793984 -0.017161869325920544 0.025881625037432777 0.00659308146205889 0.014926090870304571 0.022848331104615951
leaf_weight=8.0556883811950666 6.5392596721649161 6.6936666220426559 4.9109730720520002 8.9194209575653058 6.1617539674043682 8.6332420855760557 6.6425475925207138 5.1799438148736945 4.8772999048233086 8.4191710650920886 10.913023218512533 7.9617509394884092 7.0708029866218549 6.4776208251714698 6.6702788323163942 5.8040231913328189 7.958057776093483 5.3245365023612976 6.288298487663269
leaf_count=33 27 28 20 36 25 35 27 21 20 34 44 33 30 27 27 24 33 22 26
internal_value=-4.40278e-05 0.028269 -0.0184056 -0.00946807 -0.0289126 -0.0179034 0.0153194 -0.00775135 -0.00602035 -0.0397419 -0.0321543 0.0328096 0.0447355 0.0279341 -0.0320035 0.0232431 0.0150185 0.00560115 0.0309054
internal_weight=139.501 54.7935 84.7079 45.9783 38.7296 34.4248 11.5535 13.2356 18.8351 25.4939 17.0748 48.2542 13.7645 34.4898 15.5897 28.0121 13.7621 10.2018 14.25
internal_count=572 228 344 187 157 140 47 54 77 103 69 201 58 143 63 116 57 42 59
is_linear=0
shrinkage=0.04


Tree=5
num_leaves=20
num_cat=0
split_feature=26 26 0 24 33 22 26 29 29 26 16 26 8 5 5 16 34 27 24
split_gain=29.655 8.54287 5.88455 3.03624 2.46809 5.40003 2.32937 2.43188 2.29388 1.89878 1.88401 1.8119 2.32632 1.57691 1.16718 0.563425 0.11198 0.0849708 0.0141981
threshold=542.79621789867736 -5744.2748996363907 7.5000000000000009 49.000000000000007 -513.79999999999984 1.0000000180025095e-35 -342.48175733002432 25.500000000000004 76.000000000000014 -4694.1401683422955 -6824.9999999999991 5448.1809553938638 130.00000000000003 -478.06034482758622 135.00301449275364 -444.99999999999994 -25.050000000000065 331.91730020703937 -30.999999999999996
decision_type=2 2 2 2 2 2 2 2 2 2 2 2 2 2 2 2 2 2 2
left_child=1 -1 11 -4 5 -3 8 -8 9 -6 -7 12 -2 -11 -15 -14 -17 -16 -18
right_child=2 4 3 -5 6 10 7 -9 -10 13 -12 -13 15 14 17 16 18 -19 -20
leaf_value=-0.063725378156032936 0.0063853426798705102 -0.052719154376907655 -0.027254157286980232 0.013991341600661254 0.0042603662847843721 0.0064353963153186569 0.026074908811950986 -0.010412847966827525 0.012805265062595175 -0.0059199530468757016 -0.022670571956917903 0.047279190328166819 0.040522282784792897 -0.03745560086499914 -0.013302326490078262 0.019388999035422568 0.02410904389787253 -0.022821795670621411 0.033353742881752288
leaf_weight=5.723072722554206 8.8094334602355939 7.1917144209146509 4.895617410540579 6.7683879733085632 5.9301046431064561 6.1664938330650338 5.8059640228748304 5.697225958108902 4.8931424021720877 9.6342624574899656 7.9140080362558356 7.4767761081457129 8.0873177200555748 8.9384312927723002 7.4091329723596573 5.9905274659395209 5.7533917725086194 5.1340794712305069 6.2146230936050522
leaf_count=23 37 29 20 28 24 25 24 23 20 39 32 32 34 36 30 25 24 21 26
internal_value=-0.00102853 -0.0164493 0.0218697 -0.00297729 -0.0127745 -0.024392 -0.0080754 0.00765576 -0.0124856 -0.015934 -0.00963966 0.0288104 0.0247339 -0.0199112 -0.026 0.0307863 0.0261792 -0.0175177 0.0292438
internal_weight=134.434 80.4376 53.9961 11.664 74.7146 21.2722 53.4423 11.5032 41.9392 37.046 14.0805 42.3321 34.8553 31.1159 21.4816 26.0459 17.9585 12.5432 11.968
internal_count=552 326 226 48 303 86 217 47 170 150 57 178 146 126 87 109 75 51 50
is_linear=0
shrinkage=0.04


Tree=6
num_leaves=21
num_cat=0
split_feature=25 26 27 32 31 32 26 31 26 26 24 17 22 25 28 5 34 21 20 24
split_gain=37.7984 3.53349 2.51863 2.32905 5.66177 2.487 1.54417 1.78501 1.43896 1.4217 2.46055 1.24518 0.843295 0.460549 0.448922 0.360656 0.341433 0.185942 0.0206569 0.00726285
threshold=0.036773989898989869 -342.48175733002432 -183.79285714285712 -4719.9999999999991 -0.24999999999999994 -2104.9999999999995 5448.1809553938638 0.25000000000000006 -3487.4666696795771 2957.7384944284026 67.500000000000014 -216.84999999999999 173.75000000000003 0.11843871546664629 43.368949759621849 135.00301449275364 -31.249999999999996 -444.99999999999994 0.55000000000000016 31.000000000000004
decision_type=2 2 2 2 2 2 2 2 2 2 2 2 2 2 2 2 2 2 2 2
left_child=1 3 -3 4 12 17 7 9 -7 13 19 18 -1 16 15 -10 -2 -5 -4 -11
right_child=6 2 11 5 -6 8 -8 -9 14 10 -12 -13 -14 -15 -16 -17 -18 -19 -20 -21
leaf_value=-0.013620500530919098 0.028171714319928313 -0.028791090396501844 -0.0070667548004398183 0.0039215755773889735 -0.072212584364147084 -0.039178684929016903 0.040907977991983556 0.042538023399991208 -0.028811401135764417 0.021778024567738499 -0.013161169737216274 0.019120948141131137 -0.034448955816300357 0.033096824230803679 -0.0078059072515412964 -0.015516540572225694 0.014140896221707651 -0.0068837580446399847 -0.0018158360389105563 0.01468658072588154
leaf_weight=8.1775635033845919 5.6380941122770301 5.4504805654287365 5.4470348060131073 4.889491081237793 5.2425871640443793 8.4393318891525251 7.4052784591913214 5.452679529786109 8.4532296657562345 6.4397210776805895 5.4905560612678519 5.0525333732366535 6.210234358906745 7.5887848436832419 5.4336567819118491 8.6289031058549863 9.6926978975534457 4.9448206275701505 4.9116067588329315 6.2280123680830002
leaf_count=33 24 22 22 20 21 34 32 23 34 27 23 21 25 32 22 35 40 20 20 26
internal_value=-0.00254105 -0.0197953 -0.00535564 -0.0247147 -0.0362652 -0.0190579 0.023387 0.0205125 -0.0246323 0.0174915 0.00878114 0.00267324 -0.0228887 0.0242179 -0.0190024 -0.0223298 0.0195618 -0.00110475 -0.00496315 0.0186073
internal_weight=135.217 81.2815 20.8617 60.4198 19.6304 40.7894 53.9358 46.5305 30.9551 41.0779 18.1583 15.4112 14.3878 22.9196 22.5158 17.0821 15.3308 9.83431 10.3586 12.6677
internal_count=556 329 85 244 79 165 227 195 125 172 76 63 58 96 91 69 64 40 42 53
is_linear=0
shrinkage=0.04


Tree=7
num_leaves=19
num_cat=0
split_feature=27 6 27 27 28 8 16 28 1 31 12 24 24 31 12 34 9 5
split_gain=16.1464 7.49833 5.82962 4.81906 4.1588 4.16663 3.79805 3.28275 2.88115 2.7552 2.50107 3.6821 3.50277 2.53802 1.30858 1.22118 1.07417 0.197156
threshold=523.72623810821881 2032.9243452044468 -197.98739223373198 957.66627444429889 -36.580308432702161 130.00000000000003 -1999.9999999999998 -3.6480654761904812 8.5000000000000018 1.0000000180025095e-35 1918.3666356877327 -48.999999999999993 -107.99999999999999 -0.24999999999999994 1981.8885416666669 -168.04999999999993 0.40767045454545464 135.00301449275364
decision_type=2 2 2 2 2 2 2 2 2 2 2 2 2 2 2 2 2 2
left_child=1 2 10 8 5 -4 16 -8 9 -2 15 12 -12 -14 -5 -1 -6 -17
right_child=3 -3 4 14 6 -7 7 -9 -10 -11 11 -13 13 -15 -16 17 -18 -19
leaf_value=-0.011490375037004482 0.0088760920015565955 -0.049245689072569279 -0.026085908487066999 0.06106453630131492 0.017288989876901768 0.015144394184131896 0.0064566031981387233 0.048697632025001311 -0.011337791419878019 0.041548128213566057 0.0027832677898996677 0.015387117013564374 -0.0070400728466801388 -0.045855950726912099 0.030393460373541986 -0.039241217175875039 -0.0059197540341149914 -0.024962763314831934
leaf_weight=7.7206340283155468 10.513699203729635 6.2312738001346579 9.519988954067232 5.9201864302158338 4.8340514153242138 6.5451083928346625 5.1181162446737289 7.7823394536972028 5.0492207258939734 7.2675459384918204 9.3247228711843508 8.9677882641553897 4.9527866840362567 6.7249858081340754 4.7344686686992645 6.229426831007002 9.1376319080591184 5.2150447368621826
leaf_count=31 44 25 39 26 20 27 21 33 21 31 38 37 20 27 20 25 37 21
internal_value=0.00141298 -0.00672629 -0.00380523 0.0254273 0.00690064 -0.00903921 0.0165789 0.032249 0.0148059 0.0224548 -0.013242 -0.00584936 -0.0151075 -0.0297359 0.0478111 -0.0245939 0.00182393 -0.0330843
internal_weight=131.789 98.3039 92.0726 33.4851 42.9372 16.0651 26.8721 12.9005 22.8305 17.7812 49.1354 29.9703 21.0025 11.6778 10.6547 19.1651 13.9717 11.4445
internal_count=543 401 376 142 177 66 111 54 96 75 199 122 85 47 46 77 57 46
is_linear=0
shrinkage=0.04


Tree=8
num_leaves=21
num_cat=0
split_feature=26 32 33 31 33 34 28 18 8 28 27 24 26 34 34 18 34 6 3 26
split_gain=35.2758 5.19862 4.76104 4.322 4.19477 3.37227 2.62707 1.77275 1.70358 1.42641 1.36402 1.16592 1.02404 0.668514 0.562758 0.513304 0.210944 0.161103 0.132532 0.121377
threshold=-1.0000000180025095e-35 -3589.9999999999995 409.40000000000009 0.35000000000000009 93.200000000000017 -231.69999999999979 3.648065476190482 1972.6000000000001 127.00000000000001 -46.314515123219728 176.08825317797715 -77.499999999999986 -4610.1542974371587 -25.050000000000065 220.65000000000001 1934.6500000000003 168.04999999999998 1918.3666356877327 0.42676767676767685 -1660.3758320670531
decision_type=2 2 2 2 2 2 2 2 2 2 2 2 2 2 2 2 2 2 2 2
left_child=4 -2 9 7 5 -1 10 -4 -7 -3 -6 -8 -10 -11 17 -14 -9 -15 -17 -12
right_child=1 2 3 -5 6 8 11 16 12 13 19 -13 15 14 -16 18 -18 -19 -20 -21
leaf_value=-0.053986563799337264 -0.0076353521947426627 0.053378273702871536 -0.012426089427869449 0.041763643153807657 0.017890891702438832 -0.0028690623327472602 -0.0076199318384438412 0.0066852383026697838 -0.039359167396553332 0.018416779022786819 -0.00097767791364419994 -0.034443444663378904 -0.031177771462300292 0.032053443132144831 0.024941693880695746 -0.020691167399627917 0.01868130820536211 0.046353998452535281 -0.0095833511587937199 -0.010445027790800266
leaf_weight=7.4743356704711905 9.2633423209190351 5.8315728753805152 7.7532390505075517 5.8006329238414756 5.3723376989364686 5.6935312747955313 4.9407064914703369 7.4042196273803693 8.9675196260213834 7.0542688667774192 4.9255323410034206 6.743414029479025 6.4879577308893266 4.9721234589815193 8.2105051279067975 5.4604427814483625 5.0315363109111786 6.6265121251344681 5.3966028094291687 6.1758172661066011
leaf_count=30 38 26 32 25 22 23 20 31 36 30 20 27 26 21 35 22 21 28 22 25
internal_value=-0.000440354 0.0198858 0.0242981 0.0112894 -0.0209187 -0.0293762 -0.00891833 0.00233554 -0.023504 0.0345166 0.00114083 -0.0234433 -0.027817 0.0302731 0.0342934 -0.0216189 0.0118605 0.0405685 -0.0155383 -0.0066048
internal_weight=135.586 67.948 58.6846 25.9896 67.6382 39.4804 28.1578 20.189 32.0061 32.695 16.4737 11.6841 26.3125 26.8634 19.8091 17.345 12.4358 11.5986 10.857 11.1013
internal_count=560 287 249 109 273 159 114 84 129 140 67 47 106 114 84 70 52 49 44 45
is_linear=0
shrinkage=0.04


Tree=9
num_leaves=19
num_cat=0
split_feature=26 25 25 26 24 32 32 9 5 5 28 2 1 32 9 25 17 27
split_gain=40.3703 4.56544 4.4207 3.58596 3.50692 2.83125 4.84409 3.40618 1.8799 1.62418 1.40148 1.12152 0.933951 1.14326 0.868241 0.673412 0.232979 0.226737
threshold=-1.0000000180025095e-35 -0.17930324826188732 -0.038938492063492057 5448.1809553938638 -68.999999999999986 -4334.9999999999991 -7699.9999999999991 0.63915843330980959 -1.0000000180025095e-35 -388.72322361546497 54.079216287142579 162.00000000000003 8.5000000000000018 -694.99999999999989 0.4694341181330029 0.14349576264713881 -1.0000000180025095e-35 -176.08825317797709
decision_type=2 2 2 2 2 2 2 2 2 2 2 2 2 2 2 2 2 2
left_child=1 4 5 9 -1 6 -3 8 -7 -2 11 -11 13 -13 -12 -15 -10 -4
right_child=3 2 17 -5 -6 7 -8 -9 16 10 14 12 -14 15 -16 -17 -18 -19
leaf_value=-0.057923867160894052 -0.0012841767334924852 0 -0.044876114369781533 0.049690823013945867 -0.021194937806888855 0.021128583103690632 -0.049515936654366363 -0.029035755964919998 -0.008919708844075773 0.0039559625701543434 0.048077339529237255 0.016018112938939792 0.0091436497167684989 0.043130959162685958 0.022776489144430388 0.024132423490954943 0.001820194187699167 -0.028923059183131917
leaf_weight=7.9801352471113232 4.8891108781099311 6.9512769877910614 5.2330716252326965 7.6021202504634848 9.7279888540506345 8.8238952904939669 5.9668738394975644 5.2377103716135016 5.7114827483892432 7.501601129770278 5.1517130583524686 13.204956173896784 8.3900043070316297 6.8029723614454332 5.3024849444627762 8.1801369935274106 6.4003881514072445 5.142215281724928
leaf_count=32 20 28 21 34 39 36 24 21 23 31 22 56 35 30 22 35 26 21
internal_value=0.00147263 -0.0204099 -0.014042 0.0234638 -0.0379727 -0.00775216 -0.0230765 -3.58871e-05 0.00702824 0.0200412 0.0220265 0.0187101 0.0216266 0.0252002 0.0356271 0.0330255 -0.00291407 -0.037355
internal_weight=134.2 67.175 49.4669 67.0251 17.7081 39.0916 12.9182 26.1735 20.9358 59.423 54.5339 44.0797 36.5781 28.1881 10.4542 14.9831 12.1119 10.3753
internal_count=556 271 200 285 71 158 52 106 85 251 231 187 156 121 44 65 49 42
is_linear=0
shrinkage=0.04


Tree=10
num_leaves=20
num_cat=0
split_feature=25 28 28 25 33 28 32 5 28 23 33 32 9 27 6 25 17 24 5
split_gain=25.6718 7.21535 6.4127 4.61255 2.8023 2.27431 2.2627 2.87099 2.05026 1.78626 1.45611 1.5552 1.20544 1.43984 0.947827 0.841147 0.578154 0.23483 0.11325
threshold=0.03026492364508496 15.350101446718329 -11.373847226193901 -0.11691970938897168 -497.34999999999997 54.079216287142579 -5869.9999999999991 -651.94503546099281 -64.82615456027132 2054.6500000000005 287.00000000000006 9905.0000000000018 0.50950697787799393 331.91730020703937 1925.6238472261941 0.20400327498768128 1.0000000180025095e-35 76.500000000000014 1.0000000180025095e-35
decision_type=2 2 2 2 2 2 2 2 2 2 2 2 2 2 2 2 2 2 2
left_child=1 2 3 -1 -2 8 -3 -8 17 -9 15 16 -5 -14 -11 -10 -12 -6 -16
right_child=4 6 -4 12 5 -7 7 9 10 14 11 -13 13 -15 18 -17 -18 -19 -20
leaf_value=0.010662961595950182 -0.0038867659448883897 -0.046270139609340566 0.028126067153447717 -0.0086362184882250951 0.026172210953224331 0.044896682539733765 -0.042975794199955626 0.0032353746080675699 0.031233408657821725 -0.0060888898639136196 0.005477659320757936 0.025903952438494474 -0.047585526357729224 -0.0160774620643718 -0.031435542215879998 0.010707249762785087 -0.011849089081928934 0.040116035706133486 -0.021108944271347876
leaf_weight=9.1272140145301801 6.7124759703874579 7.702997460961341 8.7269430160522443 5.4876062572002438 6.83271576464176 6.9174278080463401 7.9519947022199622 6.1690417528152492 9.0059082210063917 5.7402401715517071 7.7326384484767932 4.5631650984287253 5.4323403239250165 4.9309594631195068 6.9619828909635526 6.0885822474956504 5.0347773879766464 6.3527403175830841 7.7185699939727783
leaf_count=37 28 31 36 22 30 30 32 25 39 23 32 20 22 20 28 26 21 29 31
internal_value=0.000179025 -0.0151854 -0.00125775 -0.0116841 0.0199447 0.0230663 -0.026203 -0.0216121 0.0196677 -0.0150726 0.0140441 0.00582227 -0.0248043 -0.0329797 -0.0207992 0.0232189 -0.00104177 0.0331937 -0.0262786
internal_weight=135.19 75.9499 33.7051 24.9781 59.2404 52.528 42.2448 34.5418 45.6105 26.5898 32.4251 17.3306 15.8509 10.3633 20.4208 15.0945 12.7674 13.1855 14.6806
internal_count=562 307 137 101 255 227 170 139 197 107 138 73 64 42 82 65 53 59 59
is_linear=0
shrinkage=0.04


end of trees

feature_importances:
ov_avg_game_time_diff=24
ov_avg_gold_diff_diff=23
ov_games_played_diff=20
ln_avg_gold_diff_lastN_diff=16
ov_winrate_diff=12
ln_avg_game_time_lastN_diff=12
ov_avg_gold_diff_at14_diff=11
ln_avg_gold_diff_at14_lastN_diff=10
ov_avg_gold_diff_at14_blue=8
ln_avg_game_time_lastN_red=7
ln_winrate_lastN_diff=7
ov_median_game_time_diff=6
team_blue=5
ov_winrate_red=5
ov_avg_game_time_blue=4
ov_avg_game_time_red=4
ln_avg_gold_diff_lastN_blue=4
ln_avg_gold_diff_at14_lastN_blue=4
ln_avg_game_time_lastN_blue=4
team_red=3
ov_games_played_blue=3
ov_games_played_red=3
ov_avg_gold_diff_at14_red=3
ln_winrate_lastN_red=2
ln_avg_gold_diff_at14_lastN_red=2
ov_winrate_blue=1
ov_avg_gold_diff_red=1
ln_winrate_lastN_blue=1
ln_avg_gold_diff_lastN_red=1

parameters:
[boosting: gbdt]
[objective: binary]
[metric: auc,binary_logloss]
[tree_learner: serial]
[device_type: cpu]
[data_sample_strategy: bagging]
[data: ]
[valid: ]
[num_iterations: 500]
[learning_rate: 0.04]
[num_leaves: 63]
[num_threads: 0]
[seed: 42]
[deterministic: 0]
[force_col_wise: 0]
[force_row_wise: 0]
[histogram_pool_size: -1]
[max_depth: 11]
[min_data_in_leaf: 20]
[min_sum_hessian_in_leaf: 0.001]
[bagging_fraction: 0.7]
[pos_bagging_fraction: 1]
[neg_bagging_fraction: 1]
[bagging_freq: 1]
[bagging_seed: 400]
[bagging_by_query: 0]
[feature_fraction: 0.7]
[feature_fraction_bynode: 1]
[feature_fraction_seed: 30056]
[extra_trees: 0]
[extra_seed: 12879]
[early_stopping_round: 0]
[early_stopping_min_delta: 0]
[first_metric_only: 0]
[max_delta_step: 0]
[lambda_l1: 0.1]
[lambda_l2: 0]
[linear_lambda: 0]
[min_gain_to_split: 0]
[drop_rate: 0.1]
[max_drop: 50]
[skip_drop: 0.5]
[xgboost_dart_mode: 0]
[uniform_drop: 0]
[drop_seed: 17869]
[top_rate: 0.2]
[other_rate: 0.1]
[min_data_per_group: 100]
[max_cat_threshold: 32]
[cat_l2: 10]
[cat_smooth: 10]
[max_cat_to_onehot: 4]
[top_k: 20]
[monotone_constraints: ]
[monotone_constraints_method: basic]
[monotone_penalty: 0]
[feature_contri: ]
[forcedsplits_filename: ]
[refit_decay_rate: 0.9]
[cegb_tradeoff: 1]
[cegb_penalty_split: 0]
[cegb_penalty_feature_lazy: ]
[cegb_penalty_feature_coupled: ]
[path_smooth: 0]
[interaction_constraints: ]
[verbosity: -1]
[saved_feature_importance_type: 0]
[use_quantized_grad: 0]
[num_grad_quant_bins: 4]
[quant_train_renew_leaf: 0]
[stochastic_rounding: 1]
[linear_tree: 0]
[max_bin: 255]
[max_bin_by_feature: ]
[min_data_in_bin: 3]
[bin_construct_sample_cnt: 200000]
[data_random_seed: 175]
[is_enable_sparse: 1]
[enable_bundle: 1]
[use_missing: 1]
[zero_as_missing: 0]
[feature_pre_filter: 1]
[pre_partition: 0]
[two_round: 0]
[header: 0]
[label_column: ]
[weight_column: ]
[group_column: ]
[ignore_column: ]
[categorical_feature: ]
[forcedbins_filename: ]
[precise_float_parser: 0]
[parser_config_file: ]
[objective_seed: 16083]
[num_class: 1]
[is_unbalance: 0]
[scale_pos_weight: 1]
[sigmoid: 1]
[boost_from_average: 1]
[reg_sqrt: 0]
[alpha: 0.9]
[fair_c: 1]
[poisson_max_delta_step: 0.7]
[tweedie_variance_power: 1.5]
[lambdarank_truncation_level: 30]
[lambdarank_norm: 1]
[label_gain: ]
[lambdarank_position_bias_regularization: 0]
[eval_at: ]
[multi_error_top_k: 1]
[auc_mu_weights: ]
[num_machines: 1]
[local_listen_port: 12400]
[time_out: 120]
[machine_list_filename: ]
[machines: ]
[gpu_platform_id: -1]
[gpu_device_id: -1]
[gpu_use_dp: 0]
[num_gpu: 1]

end of parameters

pandas_categorical:[]
