tree
version=v4
num_class=1
num_tree_per_iteration=1
label_index=0
max_feature_idx=34
objective=binary sigmoid:1
feature_names=team_blue team_red ov_games_played_blue ov_winrate_blue ov_avg_gold_diff_blue ov_avg_gold_diff_at14_blue ov_avg_game_time_blue ov_median_game_time_blue ov_games_played_red ov_winrate_red ov_avg_gold_diff_red ov_avg_gold_diff_at14_red ov_avg_game_time_red ov_median_game_time_red ln_games_played_blue ln_winrate_lastN_blue ln_avg_gold_diff_lastN_blue ln_avg_gold_diff_at14_lastN_blue ln_avg_game_time_lastN_blue ln_games_played_red ln_winrate_lastN_red ln_avg_gold_diff_lastN_red ln_avg_gold_diff_at14_lastN_red ln_avg_game_time_lastN_red ov_games_played_diff ov_winrate_diff ov_avg_gold_diff_diff ov_avg_gold_diff_at14_diff ov_avg_game_time_diff ov_median_game_time_diff ln_games_played_diff ln_winrate_lastN_diff ln_avg_gold_diff_lastN_diff ln_avg_gold_diff_at14_lastN_diff ln_avg_game_time_lastN_diff
feature_infos=[0:10] [0:10] [38:229] [0.21052631578947359:0.7458563535911602] [-6313.1578947368425:5549.7237569060771] [-877.60344827586209:930.62983425414359] [1822.9761904761904:2041.8684210526319] [1802.5:1966] [38:229] [0.21052631578947359:0.7458563535911602] [-6313.1578947368425:5549.7237569060771] [-877.60344827586209:930.62983425414359] [1822.9761904761904:2041.8684210526319] [1802.5:1966] [38:229] [0.10000000000000001:0.90000000000000002] [-10010:7710] [-1378.3:972.5] [1765:2248] [38:229] [0.10000000000000001:0.90000000000000002] [-10010:7710] [-1378.3:972.5] [1765:2248] [-191:191] [-0.53533003780168664:0.53533003780168664] [-11862.88165164292:11862.88165164292] [-1808.2332825300057:1808.2332825300057] [-181.85097001763734:181.85097001763734] [-163.5:163.5] [-191:191] [-0.80000000000000004:0.80000000000000004] [-17720:17720] [-2350.8000000000002:2350.8000000000002] [-483:483]
tree_sizes=1651 1922 1698 1570 1927 1710 1405 1717 1694 1613 1720 1816 1618 1820 1671 2018 1696 1725

Tree=0
num_leaves=15
num_cat=0
split_feature=32 34 7 10 33 32 34 34 24 33 8 10 23 28
split_gain=29.0648 8.99718 8.16217 4.22983 3.73081 8.34019 2.6041 3.7336 2.31038 2.49702 0.668398 0.265388 0.146746 0.112122
threshold=4700.0000000000009 221.59999999999982 1870.5000000000002 1.0000000180025095e-35 622.20000000000016 -5229.9999999999991 164.50000000000003 -83.29999999999994 -65.499999999999986 -861.29999999999984 109.00000000000001 -2530.9986130374477 2155.6000000000004 85.665893619692511
decision_type=2 2 2 2 2 2 2 2 2 2 2 2 2 2
left_child=2 11 4 6 5 -1 7 -4 -5 -10 -3 -2 -6 -8
right_child=1 10 3 8 12 -7 13 -9 9 -11 -12 -13 -14 -15
leaf_value=0.26768838900555258 0.34591840406285757 0.29284526828007879 0.26275961444674822 0.22518696020042922 0.26192334358022323 0.33119293028328939 0.26707627884824581 0.3058301132425934 0.23740188120826061 0.27739393415368596 0.27012720510452237 0.32457732737809264 0.27766361274618229 0.24751798217954252
leaf_weight=8.3292027115821856 9.7990620136260969 5.1445075571537 8.8191558122634905 10.044038563966753 5.1445075571537 10.77896821498871 6.8593434095382673 9.3091089129447955 6.6143668591976192 9.7990620136260969 5.6344606578350067 21.557936429977421 5.6344606578350067 5.6344606578350067
leaf_count=34 40 21 36 41 21 44 28 38 27 40 23 88 23 23
internal_value=0.286214 0.319864 0.269762 0.258814 0.290693 0.303757 0.272368 0.285049 0.244355 0.259158 0.281104 0.333064 0.268369 0.25573
internal_weight=129.103 42.136 86.9667 57.0795 29.8871 19.1082 30.6221 18.1283 26.4575 16.4134 10.779 31.357 10.779 12.4938
internal_count=527 172 355 233 122 78 125 74 108 67 44 128 44 51
is_linear=0
shrinkage=1


Tree=1
num_leaves=17
num_cat=0
split_feature=25 0 32 11 28 1 29 28 28 8 25 1 28 8 28 2
split_gain=37.5558 10.8219 3.24556 3.59103 2.36201 5.21131 2.14439 2.32676 1.87156 1.36868 1.4613 0.899198 0.880514 0.713879 0.642978 0.509933
threshold=-0.039171750538481952 6.5000000000000009 4965.0000000000009 -1.0000000180025095e-35 34.21099624060151 4.5000000000000009 -16.999999999999996 -85.143462051847095 -49.756881347686537 139.00000000000003 -0.12022765246449461 1.5000000000000002 -43.165685327676208 109.00000000000001 -90.925485008818654 114.50000000000001
decision_type=2 2 2 2 2 2 2 2 2 2 2 2 2 2 2 2
left_child=4 6 3 13 5 11 7 14 -7 -6 15 -1 -9 -3 -2 -11
right_child=1 2 -4 -5 9 8 -8 12 -10 10 -12 -13 -14 -15 -16 -17
leaf_value=0.017092334257546051 0.027803207006399818 -0.041856620745374135 0.02351463311237887 0.01222565856760595 -0.010258482695516992 -0.049041312016150369 0.057138403990159993 0.0052949283078069379 -0.01012752708852031 -0.062944840006045708 -0.015894455519320234 -0.0074254452807780971 0.028148817331820109 -0.011200772123667865 0.057525046162293418 -0.033621837073956551
leaf_weight=7.3602554649114609 8.278435066342352 5.4027436077594793 9.0559234917163831 8.1062412708997726 4.9134095013141659 9.0816163122653943 14.132417947053908 9.9931538701057416 5.9058264046907434 8.3912044763565152 5.6228424906730607 5.6402296721935272 8.2893461734056526 4.8985251933336258 7.5350747108459428 9.0951938778161985
leaf_count=30 34 22 37 33 20 37 58 41 24 34 23 23 34 20 31 37
internal_value=0.00278646 0.0256482 0.000306565 -0.0114768 -0.0279289 -0.0164125 0.039678 0.0308765 -0.0356126 -0.0382968 -0.0433781 0.00632761 0.0168387 -0.0300024 0.044842 -0.0506073
internal_weight=131.702 75.6919 27.4634 18.4075 56.0106 27.9879 48.2284 34.096 14.9874 28.0227 23.1092 13.0005 18.2825 10.3013 15.8135 17.4864
internal_count=538 310 112 75 228 114 198 140 61 114 94 53 75 42 65 71
is_linear=0
shrinkage=0.05


Tree=2
num_leaves=15
num_cat=0
split_feature=25 2 31 1 1 31 25 28 15 5 10 26 3 28
split_gain=49.9734 10.4264 6.61444 2.26768 1.91147 1.5357 1.38466 6.80532 1.93037 1.19933 1.13636 0.968926 0.731504 0.0569749
threshold=-0.058394069491990656 114.50000000000001 1.0000000180025095e-35 4.5000000000000009 8.5000000000000018 0.15000000000000005 -0.12722301698198299 25.282678297138549 0.25000000000000006 -340.81264555193292 -339.74007070076931 3325.3483325171173 0.44702380952380955 45.708771439673463
decision_type=2 2 2 2 2 2 2 2 2 2 2 2 2 2
left_child=6 3 10 -2 11 9 7 -1 -9 -5 -3 -4 -8 -10
right_child=1 2 4 5 -6 -7 12 8 13 -11 -12 -13 -14 -15
leaf_value=0.014082914574007347 0.023302878940348132 -0.011250366392762024 0.070689891187070197 0 0.021467760211739698 0.0093945503358375138 -0.061166183505744182 -0.061210137915502671 -0.033467044929326298 -0.029976681685878404 0.017937664833871769 0.042572619337354962 -0.032214084188786067 -0.017258488491335953
leaf_weight=6.3698968142271069 5.8793083727359798 5.8829758167266846 8.9461251348257047 5.1434635818004635 8.9869647920131666 6.0765332579612723 10.842251390218737 8.4181726723909396 6.6410413384437543 8.1191922575235349 5.3818308413028699 23.487608194351196 9.5971719026565534 7.666885644197464
leaf_count=26 24 24 37 21 37 25 44 34 27 33 22 97 39 31
internal_value=2.2276e-05 0.0249237 0.0373849 -0.00135194 0.0464394 -0.00987029 -0.0387594 -0.0293394 -0.0418016 -0.0190872 0.00261228 0.0523601 -0.0499418 -0.0268031
internal_weight=127.439 77.904 52.6855 25.2185 41.4207 19.3392 49.5354 29.096 22.7261 13.2627 11.2648 32.4337 20.4394 14.3079
internal_count=521 320 217 103 171 79 201 118 92 54 46 134 83 58
is_linear=0
shrinkage=0.05


Tree=3
num_leaves=14
num_cat=0
split_feature=26 0 33 32 11 33 27 20 18 27 33 3 24
split_gain=37.9175 17.6924 3.46108 3.36924 3.83268 3.2277 2.33879 1.36285 1.26881 1.13566 0.976227 0.945936 0.240427
threshold=-1138.019711486698 6.5000000000000009 509.55000000000007 10820.000000000002 -423.6710526315789 49.5 976.67093367709947 0.45000000000000007 1929.5000000000002 299.75584287280367 1083.5000000000002 0.44702380952380955 -115.49999999999999
decision_type=2 2 2 2 2 2 2 2 2 2 2 2 2
left_child=2 3 7 4 6 11 -2 -1 12 -7 -6 -3 -9
right_child=1 5 -4 -5 10 9 -8 8 -10 -11 -12 -13 -14
leaf_value=-0.061428244207427152 -0.014967421815715566 -0.0079448982947342602 0 0.066782881373586137 0.043994823459591714 0.02088886398798346 0.025772817265759525 -0.0084162798880891357 -0.042679408110665867 -0.0065016609293864318 0.015917570748672057 -0.035396843951743924 -0.025598921470539306
leaf_weight=8.4124833792448026 6.2955998182296735 6.1270453929901185 5.6586643755435935 7.6491465121507636 22.582321941852573 5.8230341672897321 5.756318211555481 5.4285171627998343 22.778255954384804 7.335840567946434 6.0632376968860617 10.099133014678953 10.110378101468084
leaf_count=34 26 25 23 32 94 24 24 22 92 30 25 41 41
internal_value=-0.00386646 0.0181796 -0.036399 0.0365269 0.0292551 -0.012051 0.00459189 -0.0407829 -0.034676 0.00588526 0.0389579 -0.0263841 -0.0207703
internal_weight=130.12 77.7317 52.3883 48.3466 40.6975 29.3851 12.0519 46.7296 38.3172 13.1589 28.6456 16.2262 15.5389
internal_count=533 321 212 201 169 120 50 189 155 54 119 66 63
is_linear=0
shrinkage=0.05


Tree=4
num_leaves=17
num_cat=0
split_feature=25 0 25 8 8 26 26 0 23 26 9 24 24 0 26 26
split_gain=47.5204 9.51063 3.79742 2.42896 1.7492 2.99096 1.58228 2.44793 1.56193 0.856019 0.823161 0.424703 1.36362 0.202836 0.139827 0.282697
threshold=-0.039171750538481952 6.5000000000000009 0.093429879080687353 166.50000000000003 109.00000000000001 1763.6144320609894 -2234.9378857891293 5.5000000000000009 1929.5000000000002 -1987.8570786459134 0.44002844500632116 60.500000000000007 18.500000000000004 6.5000000000000009 -3197.6314709186759 -4556.5508599083905
decision_type=2 2 2 2 2 2 2 2 2 2 2 2 2 2 2 2
left_child=6 4 3 8 5 -2 7 14 -3 -8 -7 12 -6 -11 15 -1
right_child=1 2 -4 -5 11 10 9 -9 -10 13 -12 -13 -14 -15 -16 -17
leaf_value=-0.030611747889838944 -0.0066724679640067577 -0.0077728581108495332 0.022947301916875853 0.0087314459829615533 0.04175374539581754 0.047268050930864065 -0.0058852457515474023 -0.062383741470529303 -0.044710454062917432 -0.040980296837906716 0.015902756700102005 0.057818268327300915 0.010180235250164418 -0.019506753335890265 -0.043685447878133617 -0.011399871121763109
leaf_weight=9.9187816232442838 6.3310160934925106 6.6303956806659752 9.0239894986152631 6.3960959017276755 17.344859167933471 5.7225233167409879 5.6664228439331081 14.913890361785887 5.6430486291646957 5.6933532357215864 6.2397056818008423 7.0760008096694937 5.7330791205167762 7.4321693331003189 5.4713930338621166 5.6926414817571631
leaf_count=40 26 27 37 26 73 24 23 60 23 23 26 30 24 30 22 23
internal_value=-0.00417132 0.0212431 -0.00197681 -0.0148323 0.0343888 0.0199021 -0.0393274 -0.0459774 -0.0272215 -0.0246572 0.0337821 0.0420958 0.0348664 -0.0314169 -0.0318458 -0.0250152
internal_weight=130.929 76.1407 27.6935 18.6695 48.4472 18.2932 54.7887 35.9967 12.2734 18.7919 11.9622 30.1539 23.0779 13.1255 21.0828 15.6114
internal_count=537 316 113 76 203 76 221 145 50 76 50 127 97 53 85 63
is_linear=0
shrinkage=0.05


Tree=5
num_leaves=15
num_cat=0
split_feature=26 34 34 34 26 11 27 9 27 4 33 3 13 33
split_gain=28.9807 6.56809 5.34572 4.3374 2.8802 2.81313 5.01242 2.27936 2.249 0.877683 0.723289 0.711025 0.68714 0.557358
threshold=-1.0000000180025095e-35 169.95000000000007 230.00000000000003 76.999999999999901 -2234.9378857891293 -423.6710526315789 1184.0585295556432 0.44002844500632116 733.37022509582471 -339.74007070076931 1083.5000000000002 0.44002844500632116 1909.5000000000002 -1.0000000180025095e-35
decision_type=2 2 2 2 2 2 2 2 2 2 2 2 2 2
left_child=1 3 5 4 11 6 9 -4 13 -2 -10 -1 -6 -7
right_child=2 -3 7 -5 12 8 -8 -9 10 -11 -12 -13 -14 -15
leaf_value=-0.035096262453171892 -0.017991735597659049 -0.054381874550050814 0.018210191508924306 0.016711118626862521 0.0024886239090374895 0.031296152064975984 0.047894964869431872 -0.015887227906017837 0.031874879671532817 0.0081120807987681617 0.0039730406008900111 -0.0118456989938473 -0.016027340825931432 0.059398268923910147
leaf_weight=18.903105050325394 5.4009812623262414 10.961974769830702 9.227727875113489 9.324975520372389 12.782386526465421 7.7565584927797326 6.3209518939256659 8.3640165627002698 4.7496917992830259 5.3330339938402185 5.2346919476985931 6.466114103794097 6.6996737420558921 14.823991551995277
leaf_count=76 22 44 38 38 52 33 27 34 20 22 22 26 27 63
internal_value=0.00301678 -0.0205486 0.0258949 -0.0127506 -0.0192159 0.0341536 0.0158874 0.00174705 0.0428127 -0.00501028 0.0193949 -0.0300337 -0.00410633 0.0516936
internal_weight=132.35 65.1382 67.2116 54.1763 44.8513 49.6199 17.055 17.5917 32.5649 10.734 9.98438 25.3692 19.4821 22.5806
internal_count=544 263 281 219 181 209 71 72 138 44 42 102 79 96
is_linear=0
shrinkage=0.05


Tree=6
num_leaves=12
num_cat=0
split_feature=25 15 9 6 5 25 26 32 25 29 21
split_gain=38.6649 6.10625 3.30257 2.12662 1.93488 1.84274 1.64476 1.54806 1.08274 1.00986 0.934405
threshold=-0.069223985890652553 0.45000000000000007 0.41919511167298779 1904.7795146268888 162.67912895927606 -0.019016157240035522 1138.0197114866985 -9339.9999999999982 0.071389990528008221 76.250000000000014 -6619.9999999999991
decision_type=2 2 2 2 2 2 2 2 2 2 2
left_child=3 5 10 -1 -4 -2 -6 9 -7 -5 -3
right_child=1 2 4 7 6 8 -8 -9 -10 -11 -12
leaf_value=-0.012820320285496407 0.016379812263044469 0.025343671932833309 0.037572951117552378 -0.0041207841321769575 -0.0058748090150955419 -0.021558756698908457 0.019579811957513151 -0.048083329048274712 0.002571651198099283 -0.034450820852191137 0.058505515512207312
leaf_weight=9.8998913913965207 9.3145726174116152 6.6558758616447475 10.320964381098745 5.474579036235804 8.3393485099077242 8.6570892781019229 19.085502758622169 27.936894163489345 7.9687320888042441 6.4858071208000183 9.8086902499198896
leaf_count=40 38 28 44 22 34 35 81 112 33 26 42
internal_value=-0.00180769 0.0195806 0.028983 -0.0360393 0.0197122 -0.000229381 0.0117293 -0.0412241 -0.0102197 -0.0223429 0.0476047
internal_weight=129.948 80.1508 54.2104 49.7972 37.7458 25.9404 27.4249 39.8973 16.6258 11.9604 16.4646
internal_count=535 335 229 200 159 106 115 160 68 48 70
is_linear=0
shrinkage=0.05


Tree=7
num_leaves=15
num_cat=0
split_feature=31 34 9 27 28 15 28 28 2 16 24 31 33 28
split_gain=17.699 7.84407 5.99909 3.70792 3.22273 3.02215 2.92185 2.59141 2.45351 1.64804 1.56614 0.507221 0.364779 0.29742
threshold=0.15000000000000005 221.59999999999982 0.50959620464715083 299.75584287280367 31.354591877385477 0.25000000000000006 -38.942741320126508 -85.143462051847095 166.50000000000003 -2964.9999999999995 48.500000000000007 -0.4499999999999999 442.00000000000006 -34.210996240601496
decision_type=2 2 2 2 2 2 2 2 2 2 2 2 2 2
left_child=2 7 3 4 6 11 -1 -2 13 -6 -3 -4 -9 -7
right_child=1 10 5 -5 9 8 -8 12 -10 -11 -12 -13 -14 -15
leaf_value=-0.0058207211057192372 0.052793635079806167 -0.031683283585631071 -0.029296081773690971 -0.03688405174529024 -0.023141578441945532 0.0023625664224544715 0.034977241707554368 0.0094660556162295337 -0.035753229732983539 0.0042620774614767756 0.0037102360515776154 -0.066082103005054169 0.026687308486173813 -0.010926711935112488
leaf_weight=6.6540692150592831 11.992641970515246 4.9307962954044324 5.2253508865833282 5.9147358536720267 10.424926847219467 4.9752889722585705 9.8150345087051374 7.4075800478458467 13.657872781157495 9.5599745959043503 5.7580843716859818 5.4918037354946119 12.826890230178831 11.927761286497114
leaf_count=27 52 20 21 24 42 20 41 32 55 39 24 22 55 48
internal_value=-0.00338337 0.0223537 -0.0167552 -0.00324425 0.00291943 -0.0301002 0.0188177 0.0344453 -0.0206333 -0.0102161 -0.0135028 -0.0526041 0.021361 -0.00682235
internal_weight=126.563 42.916 83.6468 42.3687 36.454 41.2781 16.4691 32.2271 30.5609 19.9849 10.6889 10.7172 20.2345 16.9031
internal_count=522 183 339 173 149 166 68 139 123 81 44 43 87 68
is_linear=0
shrinkage=0.05


Tree=8
num_leaves=15
num_cat=0
split_feature=31 24 28 28 28 27 11 24 32 27 34 21 31 28
split_gain=19.5582 5.6281 4.90468 3.93398 2.64996 2.76994 1.84796 1.23439 1.11016 1.11899 1.0751 1.04382 0.783656 1.08761
threshold=0.15000000000000005 -59.499999999999993 -56.677189453421185 -61.390847139974305 18.376149425287739 299.75584287280367 162.67912895927606 109.50000000000001 -10819.999999999998 -563.10659417299291 92.400000000000105 -2964.9999999999995 0.25000000000000006 -40.643425604519955
decision_type=2 2 2 2 2 2 2 2 2 2 2 2 2 2
left_child=1 6 11 -3 5 -5 -1 12 -8 -10 -6 -2 -4 -14
right_child=2 3 7 4 10 -7 8 -9 9 -11 -12 -13 13 -15
leaf_value=-0.053492093527658262 0.059337386387923421 -0.042785471412520683 -0.010620988571036912 0.015262218703298273 -0.00073724208262242392 -0.023051108995779362 -0.042237913374028498 0.026703807487746152 0 -0.026611783780078047 -0.0247610211960347 0.026400376875459111 -0.0097931460868041793 0.016062037318878026
leaf_weight=9.9596911519765872 6.7540019899606696 6.1967852115631095 6.3407302498817506 21.563605621457103 7.9162144958972958 4.9431398063898078 5.7173547148704555 6.58715796470642 6.9167348891496685 7.6951178014278367 12.3791666328907 9.2351429313421232 4.7508879303932252 12.674202933907504
leaf_count=40 30 25 26 89 32 20 23 29 28 31 50 40 20 54
internal_value=-0.00408907 -0.0185368 0.0216144 -0.00830384 -0.00283419 0.00735728 -0.0354447 0.00902487 -0.0242751 -0.0146711 -0.0161 0.0432814 0.00304252 0.00859243
internal_weight=129.63 83.2878 46.3421 52.9989 46.8021 26.5067 30.2889 30.353 20.3292 14.6119 20.2954 15.9891 23.7658 17.4251
internal_count=537 338 199 216 191 109 122 129 82 59 82 70 100 74
is_linear=0
shrinkage=0.05


Tree=9
num_leaves=14
num_cat=0
split_feature=26 18 29 26 34 22 27 34 28 34 5 34 5
split_gain=20.7565 5.29214 3.58983 4.37138 2.39049 1.91367 1.73923 1.65442 1.55233 1.03542 0.569041 0.51392 0.0564042
threshold=-1138.019711486698 2155.6000000000004 -28.499999999999996 985.73412417269913 -156.64999999999995 -110.99999999999999 -811.47045956436034 -369.69999999999987 -85.143462051847095 317.90000000000003 -750.6075493806494 -309.39999999999981 -530.80582524271836
decision_type=2 2 2 2 2 2 2 2 2 2 2 2 2
left_child=4 2 3 -2 7 9 10 -1 -5 -3 -6 -9 -4
right_child=1 5 12 8 6 -7 -8 11 -10 -11 -12 -13 -14
leaf_value=-0.030836503053679229 -0.015724565101646548 0.019873608148917546 0.022858861395420496 0.03525445982567086 -0.025841671746862055 -0.021578421051223574 -0.043826235059408893 0.0095876609549233535 0.0097022518531004742 -0.0074987619943078596 -0.003000297997581293 -0.0080048181117451222 0.044756285720893678
leaf_weight=6.7092184424400356 8.639720678329466 6.5202615112066287 5.1116501688957241 13.233539953827856 6.2440421283245087 8.9370213747024518 17.711798027157784 4.9422198534011885 13.190053492784502 5.3053407967090607 5.7379297465086001 12.135616362094876 14.749790742993353
leaf_count=27 35 27 21 59 25 36 71 20 57 22 23 49 64
internal_value=-0.000753929 0.0159771 0.0240054 0.0135287 -0.0243826 -0.00515805 -0.033801 -0.0115343 0.0235006 0.00757645 -0.0163622 -0.00238835 0.0407262
internal_weight=129.168 75.6874 54.9248 35.0633 53.4808 20.7626 29.6938 23.7871 26.4236 11.8256 11.982 17.0778 19.8614
internal_count=536 321 236 151 215 85 119 96 116 49 48 69 85
is_linear=0
shrinkage=0.05


Tree=10
num_leaves=15
num_cat=0
split_feature=26 28 28 25 17 17 25 25 2 32 11 25 6 27
split_gain=25.1877 6.40073 1.98225 2.6188 2.45334 1.82373 2.3583 1.83551 1.59286 1.28388 1.03253 0.95238 0.759586 0.247907
threshold=-1138.019711486698 -75.23511904761925 -4.3947580093803245 0.1117475625964947 -61.499999999999993 -110.99999999999999 -0.12722301698198299 -0.25127447439559603 109.00000000000001 -9269.9999999999982 -340.81264555193292 -0.11174756259649467 1885.2222369659103 976.67093367709947
decision_type=2 2 2 2 2 2 2 2 2 2 2 2 2 2
left_child=5 12 3 10 8 7 -7 -1 -4 -9 -3 -11 -2 -5
right_child=1 2 4 13 -6 6 -8 9 -10 11 -12 -13 -14 -15
leaf_value=-0.05961397696326403 0.029743404691684263 -0.030981416765865324 -0.0065698534483967092 0.0059367121738497387 0.043737365001128001 0.0039099238369828433 -0.029831472485053159 -0.008964980178710209 0.017879303533109844 -0.024068670927552521 -0.0010456645525875764 -0.053847037089503537 0.060477546773061754 0.020327287919905439
leaf_weight=6.2142692953348151 11.451646670699121 6.1767139136791229 9.3329866081476229 12.484105527400972 5.9112411439418784 9.2259472012519854 9.6650137305259687 8.6898005604743975 17.657283648848534 14.463371232151987 5.5340533554554003 4.9723709374666205 5.5156860500574103 4.8078511059284201
leaf_count=25 51 25 38 54 26 37 39 35 74 58 23 20 24 21
internal_value=-0.00140926 0.0164178 0.00853527 -0.000868857 0.0167536 -0.0277313 -0.0137334 -0.0346838 0.0093137 -0.0271461 -0.0184235 -0.0341939 0.0428226 0.0111037
internal_weight=132.102 78.8716 61.9042 29.0027 32.9015 53.2308 18.891 34.3398 26.9903 28.1255 11.7108 19.4357 16.9673 17.292
internal_count=550 336 261 123 138 214 76 138 112 113 48 78 75 75
is_linear=0
shrinkage=0.05


Tree=11
num_leaves=16
num_cat=0
split_feature=25 34 25 15 29 12 29 33 24 24 33 24 29 24 17
split_gain=21.9831 4.88025 4.10432 4.03266 2.38187 2.91523 1.43757 1.19272 1.50561 1.17668 0.82727 0.621103 0.598175 0.564667 0.0170189
threshold=-0.071389990528008193 235.60000000000005 0.088409505669509322 0.25000000000000006 1.0000000180025095e-35 1912.0555814314548 57.750000000000007 -388.5499999999999 -9.4999999999999982 109.50000000000001 -807.24999999999989 -32.499999999999993 84.000000000000014 56.000000000000007 1.0000000180025095e-35
decision_type=2 2 2 2 2 2 2 2 2 2 2 2 2 2 2
left_child=3 2 7 6 14 11 -1 10 -9 13 -2 -6 -3 -4 -5
right_child=1 12 9 4 5 -7 -8 8 -10 -11 -12 -13 -14 -15 -16
leaf_value=-0.060141541922339774 0.0083520013562034534 -0.02004057762663837 0.027664867383320475 0.0061136150820713872 0 -0.055122808645738014 -0.022374817787946519 -0.006729319591725025 0.023019522756711229 0.0077659078877939137 -0.014349026585415287 -0.01910881995422805 0.00019364992204387487 0.049322878931127724 0.00052860891042099583
leaf_weight=9.161100044846533 7.5905711650848389 7.2767902314662916 14.946408033370977 4.9909300506114942 5.9931472688913354 4.9918016344308844 6.4511304199695578 4.7806369811296454 16.745749384164814 4.6530435532331458 6.4202767312526685 12.227469071745876 5.6474887877702713 11.010335668921469 4.9638335555791855
leaf_count=37 31 30 66 20 24 20 26 20 71 21 26 49 23 49 20
internal_value=-0.00047789 0.0157076 0.0211821 -0.0266035 -0.0157017 -0.0242133 -0.0471232 0.00902842 0.0161854 0.034402 -0.00198025 -0.0130578 -0.0114609 0.0385262 0.00408761
internal_weight=127.851 79.0713 66.147 48.7794 33.1672 23.2124 15.6122 35.5372 21.5264 30.6098 14.0108 18.2206 12.9243 25.9567 9.95476
internal_count=533 337 284 196 133 93 63 148 91 136 57 73 53 115 40
is_linear=0
shrinkage=0.05


Tree=12
num_leaves=14
num_cat=0
split_feature=26 34 34 0 0 22 31 33 34 26 26 34 26
split_gain=21.7488 3.6936 6.91201 3.38939 3.09575 3.02029 4.82394 2.75434 1.48198 0.409082 0.389653 0.112423 0.0719488
threshold=367.60575589459103 169.95000000000007 -1.0000000180025095e-35 9.5000000000000018 4.5000000000000009 -514.34999999999991 1.0000000180025095e-35 -1.0000000180025095e-35 -156.64999999999995 -3495.132133643368 3325.3483325171173 -76.999999999999872 -1763.614432060989
decision_type=2 2 2 2 2 2 2 2 2 2 2 2 2
left_child=1 2 4 5 8 11 -7 12 -1 -6 -8 -2 -4
right_child=3 -3 7 -5 9 6 10 -9 -10 -11 -12 -13 -14
leaf_value=0.013454922957325893 0.021706640514729439 -0.042478630854455732 -0.0064621365523924931 -0.01221203551311156 -0.04592289692611607 -0.0279775846298576 0.033886518506333625 0.03709501859543498 -0.017595770071336024 -0.026106869325712146 0.016625811555807894 0.04242651322940616 0.00085986340459867259
leaf_weight=6.1856189370155334 5.5795918405056026 12.927346333861349 4.9892648458480844 5.8546502441167823 7.1676362901926032 4.7115038186311784 7.1720167249441173 6.3534087985754004 7.1602755784988386 21.812941625714306 17.827649056911469 18.16738939285278 4.9559677392244348
leaf_count=25 24 52 20 24 29 19 33 27 29 88 79 80 20
internal_value=-0.000474068 -0.0189516 -0.0130544 0.0216781 -0.0236013 0.0256376 0.0140064 0.0138273 -0.002921 -0.0325429 0.0228828 0.0388341 -0.00261138
internal_weight=130.865 71.5525 58.6251 59.3128 42.3265 53.4582 29.7112 16.2986 13.3459 28.9806 24.9997 23.747 9.94523
internal_count=549 290 238 259 171 235 131 67 54 117 112 104 40
is_linear=0
shrinkage=0.05


Tree=13
num_leaves=16
num_cat=0
split_feature=25 0 9 24 33 31 11 0 25 24 1 26 26 5 28
split_gain=15.6448 9.78832 2.97266 3.24463 2.39264 2.2179 2.24969 1.91582 2.23662 1.38337 1.17687 1.14104 0.980228 0.974188 0.0167188
threshold=-0.069223985890652553 6.5000000000000009 0.44002844500632116 66.500000000000014 416.05000000000001 -0.14999999999999997 -423.6710526315789 5.5000000000000009 -0.093429879080687325 -65.499999999999986 8.5000000000000018 2064.0469544149096 -4463.3680440038142 -423.6710526315789 39.803496656743739
decision_type=2 2 2 2 2 2 2 2 2 2 2 2 2 2 2
left_child=7 2 10 11 5 -3 -7 8 9 -1 -2 -4 -9 -14 -11
right_child=1 4 3 -5 -6 6 -8 12 -10 14 -12 -13 13 -15 -16
leaf_value=0.012163166016589093 0.046694801554062033 0.0026147301441720194 0.040795222893987348 -0.0099766232494519422 0.010925102106810457 -0.052839471240767023 -0.012275592704246115 -0.052842134365673692 -0.035783546827057013 -0.0075237298795304405 0.012652558152683083 0.014347677497405897 -0.004437103270909592 -0.034310880763651547 -0.017067788894482863
leaf_weight=6.4723462760448482 14.551945433020594 7.5968831479549435 6.6843941658735337 9.154251813888548 8.4073213189840299 5.4403399080038097 10.066638156771658 6.8938875198364284 8.2016084194183332 5.9957319498062152 4.6787402778863898 15.113814771175383 4.9614241868257531 8.1543152183294261 7.9767263531684875
leaf_count=26 67 31 30 38 35 22 41 28 33 24 20 68 20 33 32
internal_value=-0.00240864 0.0108898 0.0244499 0.0138762 -0.0106394 -0.0188217 -0.0291485 -0.0246073 -0.0151528 -0.00536071 0.0396944 0.0241108 -0.0365392 -0.0244793 -0.0140823
internal_weight=130.35 81.6943 50.1831 30.9525 31.5112 23.1039 15.507 48.656 28.6464 20.4448 19.2307 21.7982 20.0096 13.1157 13.9725
internal_count=548 352 223 136 129 94 63 196 115 82 87 98 81 53 56
is_linear=0
shrinkage=0.05


Tree=14
num_leaves=15
num_cat=0
split_feature=25 0 1 34 27 27 1 24 24 2 24 4 33 33
split_gain=20.0777 3.87097 3.42386 2.81758 1.88523 1.85334 1.74844 1.44594 0.903237 0.998178 0.824676 0.4363 0.290866 0.147803
threshold=-0.042523576705842107 8.5000000000000018 8.5000000000000018 318.50000000000006 97.733972531743973 563.10659417299314 5.5000000000000009 57.500000000000007 -109.49999999999999 49.000000000000007 -59.499999999999993 1.0000000180025095e-35 -1083.4999999999998 -416.0499999999999
decision_type=2 2 2 2 2 2 2 2 2 2 2 2 2 2
left_child=7 2 3 5 -4 -2 -3 8 9 -1 13 -6 -12 -10
right_child=1 6 4 -5 11 -7 -8 -9 10 -11 12 -13 -14 -15
leaf_value=-0.028184149299115242 0.044564343896277087 -0.030955298251639885 0.021593323428987912 -0.0013268397207942958 -0.019689887449189918 0.021149468095013842 0.0071762111792521054 -0.00072333302468961097 -0.056101785936180926 0 -0.010485508828503902 0 -0.027779649021408667 -0.02613416702263165
leaf_weight=4.9096539020538312 16.339667811989784 4.9602373540401441 5.5384488403797176 7.5645193308591834 6.1065052598714811 26.974250212311745 5.1298019886016846 6.2287269532680503 4.9029605239629745 6.9866032600402832 5.9481433182954779 4.9324660748243332 18.383427441120155 4.9506556093692726
leaf_count=20 73 20 24 31 25 122 21 25 20 28 24 21 74 20
internal_value=-0.00060752 0.0154321 0.0197593 0.0260803 0 0.0309016 -0.0122193 -0.0243223 -0.0273228 -0.0130577 -0.0316327 -0.011758 -0.0243301 -0.0453012
internal_weight=129.856 77.5459 67.4559 50.8784 16.5774 43.3139 10.09 52.3102 46.0814 11.8963 34.1852 11.039 24.3316 9.85362
internal_count=548 337 296 226 70 195 41 211 186 48 138 46 98 40
is_linear=0
shrinkage=0.05


Tree=15
num_leaves=18
num_cat=0
split_feature=26 34 24 11 26 26 34 26 33 25 9 31 27 24 34 2 22
split_gain=21.7927 3.0445 2.41644 2.27462 1.72322 4.28273 3.41926 1.47965 1.22906 0.556258 0.424793 0.410031 0.694329 0.316925 0.302577 0.272087 0.0547663
threshold=-1.0000000180025095e-35 0.90000000000009106 12.000000000000002 -340.81264555193292 -1138.019711486698 -2443.7875104868026 -222.19999999999979 5781.2245646445008 400.10000000000008 0.15701610347708364 0.50959620464715083 0.35000000000000009 -198.6907626552007 18.500000000000004 162.54999999999998 109.00000000000001 -110.99999999999999
decision_type=2 2 2 2 2 2 2 2 2 2 2 2 2 2 2 2 2
left_child=2 7 4 9 5 6 -1 8 -2 -3 -4 12 -5 -10 -13 -7 -12
right_child=1 3 10 11 -6 15 -8 -9 13 -11 16 14 -14 -15 -16 -17 -18
leaf_value=0.0041341219630400342 0.042653494809196578 0.0021664680158206924 0.0054024200174245841 0.0070024505835077858 -0.0053689538751417959 -0.035225597567642521 -0.030718703484760568 0.056718126546450025 0.0022242138278430038 -0.016563988972603538 -0.0038971794750758855 0.016366640416304097 0.034210632922784139 0.019016961825743996 0 -0.070774738948228458 -0.013696863157427694
leaf_weight=9.4614681899547559 5.5273433625698152 7.5749135166406614 5.5925328880548504 4.8982082456350309 8.7205921560525876 5.9373922944068926 22.136714711785316 4.8254197835922232 5.269403710961341 6.1473004668951035 5.4833441674709329 5.6385033428668958 7.2550577223300969 9.3120125681161863 5.164997935295105 5.3778035491704941 5.9936098456382725
leaf_count=38 25 31 23 20 36 24 90 24 23 27 22 26 32 42 23 22 24
internal_value=-0.00249992 0.0188873 -0.0217475 0.00912242 -0.027082 -0.0311577 -0.0203226 0.0321533 0.023614 -0.00643996 -0.0047285 0.0185139 0.024991 0.0138015 0.00930413 -0.0569022 -0.0101032
internal_weight=130.317 61.6132 68.7035 36.679 51.634 42.9134 31.5982 24.9342 20.1088 13.7222 17.0695 22.9568 12.1533 14.5814 10.8035 11.3152 11.477
internal_count=552 273 279 159 210 174 128 114 90 58 69 101 52 65 49 46 46
is_linear=0
shrinkage=0.05


Tree=16
num_leaves=15
num_cat=0
split_feature=25 31 18 25 26 33 25 23 33 8 17 24 12 25
split_gain=21.9696 5.20081 3.76055 2.62586 2.42257 1.55453 1.52041 1.23379 1.14936 0.703472 0.845932 1.09064 0.511023 0.124572
threshold=-0.039171750538481952 0.15000000000000005 1968.7500000000002 0.0039470642625982497 -2234.9378857891293 -1.0000000180025095e-35 -0.12722301698198299 1968.7500000000002 -1026.55 49.000000000000007 -110.99999999999999 115.50000000000001 1956.0820220957482 -0.069223985890652553
decision_type=2 2 2 2 2 2 2 2 2 2 2 2 2 2
left_child=2 3 4 5 6 -2 8 -5 -1 -3 -11 -12 -4 -6
right_child=1 9 12 7 13 -7 -8 -9 -10 10 11 -13 -14 -15
leaf_value=-0.027817718450246637 0.0027654609164710713 0.050200020079111153 -0.04183803198960466 -0.023104365703676195 0.013179199702728609 0.038581417445604366 -0.041691574606467566 0.0029121909815638582 0 0.012326696155537742 0.035455153333988541 0.0055151283593199325 -0.016983942877599346 0.0010993577044428676
leaf_weight=4.8418967872858074 7.3644709885120392 4.8088900595903388 18.216955691576008 8.1457790583372134 5.4811502397060394 4.8241592794656771 5.1254441738128689 8.0991984009742719 9.9838539212942106 11.384603977203367 22.711272627115253 4.4310458004474631 5.4110762029886237 4.9665747880935651
leaf_count=20 30 23 74 34 22 21 21 34 40 50 104 20 22 20
internal_value=0.00122392 0.0192792 -0.0225843 0.00231121 -0.010187 0.0191708 -0.0201342 -0.0104267 -0.0102022 0.0299962 0.0261417 0.0311147 -0.0372699 0.00847118
internal_weight=125.796 71.7694 54.027 28.4336 30.3989 12.1886 19.9512 16.245 14.8258 43.3358 38.5269 27.1423 23.628 10.4477
internal_count=535 316 219 119 123 51 81 68 60 197 174 124 96 42
is_linear=0
shrinkage=0.05


Tree=17
num_leaves=15
num_cat=0
split_feature=25 25 34 15 24 24 22 34 29 28 22 28 33 28
split_gain=14.1881 3.84242 3.1064 2.91195 5.05242 4.5738 2.59436 4.09815 1.3959 0.863987 0.553967 0.553569 0.840392 0.256631
threshold=0.093429879080687353 -0.058394069491990656 165.10000000000005 0.25000000000000006 -32.499999999999993 -67.499999999999986 -308.09999999999997 122.70000000000006 -42.999999999999993 48.077297061073303 -514.34999999999991 -11.169118549358471 509.55000000000007 1.0117429496068555
decision_type=2 2 2 2 2 2 2 2 2 2 2 2 2 2
left_child=1 3 10 5 8 -1 11 -8 -5 -4 -2 -3 -13 -6
right_child=2 6 9 4 13 -7 7 -9 -10 -11 -12 12 -14 -15
leaf_value=-0.060935749943447783 0.042196353020399868 -0.025757339756707395 -0.01181886672059982 0.026406753639237553 -0.014518096564535652 -0.0062314961546402385 0.033973276140871138 -0.010194406135727196 -0.0022359219172542679 0.013875368198080055 0.022871141291143263 -0.015803275239833367 0.0080450057865022722 -0.033112354561242945
leaf_weight=8.6313576400279981 11.422774106264113 5.1848010122776058 5.619748115539549 5.2310815155506161 6.2296118438243893 7.1190535873174658 9.7611541002988833 9.3208010494708997 12.154346644878386 5.4317340850830078 16.263384461402897 7.8835982829332334 5.2013811022043228 14.320448756217955
leaf_count=36 54 21 24 21 25 29 44 39 49 23 75 32 23 58
internal_value=-0.00140704 -0.0122128 0.0235302 -0.0206564 -0.0123827 -0.0383565 1.49511e-05 0.0127168 0.00707792 0.000498259 0.0322117 -0.0129635 -0.00607028 -0.0286429
internal_weight=129.775 91.0376 38.7376 53.6859 37.9355 15.7504 37.3517 19.082 17.3854 11.0515 27.6862 18.2698 13.085 20.5501
internal_count=553 377 176 218 153 65 159 83 70 47 129 76 55 83
is_linear=0
shrinkage=0.05


end of trees

feature_importances:
ov_winrate_diff=25
ov_avg_gold_diff_diff=24
ov_avg_game_time_diff=23
ln_avg_game_time_lastN_diff=23
ov_games_played_diff=21
ln_avg_gold_diff_at14_lastN_diff=18
ov_avg_gold_diff_at14_diff=12
team_blue=10
ln_winrate_lastN_diff=10
team_red=7
ov_avg_gold_diff_at14_red=7
ov_median_game_time_diff=7
ln_avg_gold_diff_lastN_diff=7
ov_games_played_blue=6
ov_games_played_red=6
ov_winrate_red=6
ov_avg_gold_diff_at14_blue=5
ln_winrate_lastN_blue=5
ln_avg_gold_diff_at14_lastN_red=5
ln_avg_gold_diff_at14_lastN_blue=4
ov_winrate_blue=3
ov_avg_gold_diff_red=3
ln_avg_game_time_lastN_blue=3
ln_avg_game_time_lastN_red=3
ov_avg_gold_diff_blue=2
ov_avg_game_time_blue=2
ov_avg_game_time_red=2
ln_avg_gold_diff_lastN_red=2
ov_median_game_time_blue=1
ov_median_game_time_red=1
ln_avg_gold_diff_lastN_blue=1
ln_winrate_lastN_red=1

parameters:
[boosting: gbdt]
[objective: binary]
[metric: auc,binary_logloss]
[tree_learner: serial]
[device_type: cpu]
[data_sample_strategy: bagging]
[data: ]
[valid: ]
[num_iterations: 500]
[learning_rate: 0.05]
[num_leaves: 63]
[num_threads: 0]
[seed: 42]
[deterministic: 0]
[force_col_wise: 0]
[force_row_wise: 0]
[histogram_pool_size: -1]
[max_depth: 5]
[min_data_in_leaf: 20]
[min_sum_hessian_in_leaf: 0.001]
[bagging_fraction: 0.7]
[pos_bagging_fraction: 1]
[neg_bagging_fraction: 1]
[bagging_freq: 1]
[bagging_seed: 400]
[bagging_by_query: 0]
[feature_fraction: 0.7]
[feature_fraction_bynode: 1]
[feature_fraction_seed: 30056]
[extra_trees: 0]
[extra_seed: 12879]
[early_stopping_round: 0]
[early_stopping_min_delta: 0]
[first_metric_only: 0]
[max_delta_step: 0]
[lambda_l1: 0.1]
[lambda_l2: 1]
[linear_lambda: 0]
[min_gain_to_split: 0]
[drop_rate: 0.1]
[max_drop: 50]
[skip_drop: 0.5]
[xgboost_dart_mode: 0]
[uniform_drop: 0]
[drop_seed: 17869]
[top_rate: 0.2]
[other_rate: 0.1]
[min_data_per_group: 100]
[max_cat_threshold: 32]
[cat_l2: 10]
[cat_smooth: 10]
[max_cat_to_onehot: 4]
[top_k: 20]
[monotone_constraints: ]
[monotone_constraints_method: basic]
[monotone_penalty: 0]
[feature_contri: ]
[forcedsplits_filename: ]
[refit_decay_rate: 0.9]
[cegb_tradeoff: 1]
[cegb_penalty_split: 0]
[cegb_penalty_feature_lazy: ]
[cegb_penalty_feature_coupled: ]
[path_smooth: 0]
[interaction_constraints: ]
[verbosity: -1]
[saved_feature_importance_type: 0]
[use_quantized_grad: 0]
[num_grad_quant_bins: 4]
[quant_train_renew_leaf: 0]
[stochastic_rounding: 1]
[linear_tree: 0]
[max_bin: 255]
[max_bin_by_feature: ]
[min_data_in_bin: 3]
[bin_construct_sample_cnt: 200000]
[data_random_seed: 175]
[is_enable_sparse: 1]
[enable_bundle: 1]
[use_missing: 1]
[zero_as_missing: 0]
[feature_pre_filter: 1]
[pre_partition: 0]
[two_round: 0]
[header: 0]
[label_column: ]
[weight_column: ]
[group_column: ]
[ignore_column: ]
[categorical_feature: ]
[forcedbins_filename: ]
[precise_float_parser: 0]
[parser_config_file: ]
[objective_seed: 16083]
[num_class: 1]
[is_unbalance: 0]
[scale_pos_weight: 1]
[sigmoid: 1]
[boost_from_average: 1]
[reg_sqrt: 0]
[alpha: 0.9]
[fair_c: 1]
[poisson_max_delta_step: 0.7]
[tweedie_variance_power: 1.5]
[lambdarank_truncation_level: 30]
[lambdarank_norm: 1]
[label_gain: ]
[lambdarank_position_bias_regularization: 0]
[eval_at: ]
[multi_error_top_k: 1]
[auc_mu_weights: ]
[num_machines: 1]
[local_listen_port: 12400]
[time_out: 120]
[machine_list_filename: ]
[machines: ]
[gpu_platform_id: -1]
[gpu_device_id: -1]
[gpu_use_dp: 0]
[num_gpu: 1]

end of parameters

pandas_categorical:[]
